,zone1_livingroom: total solar gains,zone1_livingroom: total internal gains,zone1_livingroom: total heating or cooling system gains,zone1_livingroom: total thermal_bridges,zone1_livingroom: total infiltration_ventilation,zone1_livingroom: total fabric_ext_air_convective,zone1_livingroom: total fabric_ext_air_radiative,zone1_livingroom: total fabric_ext_sol,zone1_livingroom: total fabric_ext_sky,zone1_livingroom: total opaque_fabric_ext,zone1_livingroom: total transparent_fabric_ext,zone1_livingroom: total ground_fabric_ext,zone1_livingroom: total ZTC_fabric_ext,zone1_livingroom: total ZTU_fabric_ext,zone2_restofdwelling: total solar gains,zone2_restofdwelling: total internal gains,zone2_restofdwelling: total heating or cooling system gains,zone2_restofdwelling: total thermal_bridges,zone2_restofdwelling: total infiltration_ventilation,zone2_restofdwelling: total fabric_ext_air_convective,zone2_restofdwelling: total fabric_ext_air_radiative,zone2_restofdwelling: total fabric_ext_sol,zone2_restofdwelling: total fabric_ext_sky,zone2_restofdwelling: total opaque_fabric_ext,zone2_restofdwelling: total transparent_fabric_ext,zone2_restofdwelling: total ground_fabric_ext,zone2_restofdwelling: total ZTC_fabric_ext,zone2_restofdwelling: total ZTU_fabric_ext
,[kWh],[kWh],[kWh],[kWh],[kWh],[kWh],[kWh],[kWh],[kWh],[kWh],[kWh],[kWh],[kWh],[kWh],[kWh],[kWh],[kWh],[kWh],[kWh],[kWh],[kWh],[kWh],[kWh],[kWh],[kWh],[kWh],[kWh],[kWh]
,15.705308,28.49409035,19.00312247,-9.41755357,-8.139030015,19.13947589,5.669973827,76.33679122,-150.7038826,-21.84137397,-19.46456563,-8.251702021,0.0,0.0,29.97094916,61.16576669,45.71438838,-19.58384545,-15.49755868,89.20732944,19.30747783,473.3696932,-693.6142752,-68.2153956,-39.44886883,-4.06551034,0.0,0.0
""
Timestep,zone1_livingroom: solar gains,zone1_livingroom: internal gains,zone1_livingroom: heating or cooling system gains,zone1_livingroom: thermal_bridges,zone1_livingroom: infiltration_ventilation,zone1_livingroom: fabric_ext_air_convective,zone1_livingroom: fabric_ext_air_radiative,zone1_livingroom: fabric_ext_sol,zone1_livingroom: fabric_ext_sky,zone1_livingroom: opaque_fabric_ext,zone1_livingroom: transparent_fabric_ext,zone1_livingroom: ground_fabric_ext,zone1_livingroom: ZTC_fabric_ext,zone1_livingroom: ZTU_fabric_ext,zone2_restofdwelling: solar gains,zone2_restofdwelling: internal gains,zone2_restofdwelling: heating or cooling system gains,zone2_restofdwelling: thermal_bridges,zone2_restofdwelling: infiltration_ventilation,zone2_restofdwelling: fabric_ext_air_convective,zone2_restofdwelling: fabric_ext_air_radiative,zone2_restofdwelling: fabric_ext_sol,zone2_restofdwelling: fabric_ext_sky,zone2_restofdwelling: opaque_fabric_ext,zone2_restofdwelling: transparent_fabric_ext,zone2_restofdwelling: ground_fabric_ext,zone2_restofdwelling: ZTC_fabric_ext,zone2_restofdwelling: ZTU_fabric_ext
index,[W],[W],[W],[W],[W],[W],[W],[W],[W],[W],[W],[W],[W],[W],[W],[W],[W],[W],[W],[W],[W],[W],[W],[W],[W],[W],[W],[W]

0,0.0,83.51352379,0.0,-52.97117374,-57.71425013,513.2642076,116.5149536,0.0,-897.04692,-109.0077685,-108.650026,-49.60996436,0.0,0.0,0.0,179.2711629,0.0,-111.1513346,-111.0436586,2911.081436,607.671389,0.0,-4128.6564,-363.7679345,-221.6065016,-24.52913924,0.0,0.0
1,0.0,81.93335102,0.0,-52.25962956,-56.53810889,514.5026798,116.7713069,0.0,-897.04692,-108.5155166,-107.6475028,-49.60991394,0.0,0.0,0.0,175.8791445,0.0,-109.0033762,-108.1310749,2914.780621,608.4371145,0.0,-4128.6564,-361.9614704,-218.9480832,-24.52911111,0.0,0.0
2,0.0,78.0479624,0.0,-49.76069708,-64.34992694,748.3548806,165.1786894,0.0,-897.04692,169.1187515,-103.0222992,-49.6098023,0.0,0.0,0.0,167.5387212,0.0,-103.1148702,-122.2696085,3498.878888,729.3454426,0.0,-4128.6564,332.724159,-208.6271811,-24.52904712,0.0,0.0
3,0.0,78.47333741,0.0,-49.34347968,-63.66674859,649.1746292,144.6483364,0.0,-897.04692,48.66458725,-102.2789369,-49.60960469,0.0,0.0,0.0,168.4518365,0.0,-101.9790675,-120.6506191,3252.861875,678.419897,0.0,-4128.6564,33.93626556,-206.781962,-24.52893176,0.0,0.0
4,0.0,77.93692307,0.0,-47.7014626,-61.08351549,749.5164264,165.4190247,0.0,-897.04692,166.6017167,-99.10388855,-49.60929701,0.0,0.0,0.0,167.3003628,0.0,-98.19552802,-115.2974381,3504.361564,730.480295,0.0,-4128.6564,330.4618104,-199.7476012,-24.52874985,0.0,0.0
5,0.0,78.28111589,0.0,-47.36861688,-60.57351823,652.6261941,145.3626553,0.0,-897.04692,48.99968071,-98.44889562,-49.60885573,0.0,0.0,0.0,168.0392114,0.0,-97.3647842,-114.1641165,3264.07832,680.7416089,0.0,-4128.6564,38.88561102,-198.1935958,-24.5284865,0.0,0.0
6,0.0,77.48877807,0.0,-45.03607584,-68.51886593,831.8192175,182.4554874,0.0,-897.04692,260.8503784,-94.01433573,-49.60825777,0.0,0.0,0.0,166.3383692,0.0,-92.12006927,-128.5107623,3712.296714,773.5227421,0.0,-4128.6564,570.196873,-188.5056899,-24.5281272,0.0,0.0
7,0.0,78.02241158,0.0,-44.6957307,-67.98354444,702.1843324,155.6209053,0.0,-897.04692,103.7346529,-93.36885466,-49.6074806,0.0,0.0,0.0,167.4838735,0.0,-91.30998926,-127.3478664,3390.557479,706.9226234,0.0,-4128.6564,180.3646222,-187.0132619,-24.52765785,0.0,0.0
8,0.0,77.28776943,0.0,-43.73075659,-66.43824749,708.0072697,156.8260509,0.0,-897.04692,108.885645,-91.49274194,-49.60650254,0.0,0.0,0.0,165.9068816,0.0,-89.11894172,-124.147168,3406.342241,710.1899464,0.0,-4128.6564,195.277005,-182.8741526,-24.52706491,0.0,0.0
9,0.0,77.50410757,0.0,-43.41834906,-65.94862715,635.0786725,141.7295829,0.0,-897.04692,20.24620569,-90.87956769,-49.6053026,0.0,0.0,0.0,166.3712757,0.0,-88.38548376,-123.0974386,3225.611992,672.7786338,0.0,-4128.6564,-24.26955466,-181.4698837,-24.52633534,0.0,0.0
10,0.0,81.02916077,0.0,-42.80460667,-64.97075145,633.6520523,141.433974,0.0,-897.04692,17.33611674,-89.69314956,-49.60386084,0.0,0.0,0.0,173.9381985,0.0,-86.99081498,-121.0699598,3223.00691,672.2392,0.0,-4128.6564,-30.05581088,-178.829022,-24.52545683,0.0,0.0
11,0.0,80.56508029,0.0,-42.5071341,-64.50541923,594.9981664,133.4322671,0.0,-897.04692,-29.91136152,-89.10296695,-49.60215803,0.0,0.0,0.0,172.9419976,0.0,-86.3011345,-120.0843748,3127.449456,652.4585917,0.0,-4128.6564,-146.7347044,-177.4892307,-24.52441754,0.0,0.0
12,0.0,86.63664767,0.0,-40.3844575,-54.76166713,806.3821084,177.1883331,0.0,-897.04692,221.0547918,-84.93109339,-49.60017702,0.0,0.0,0.0,185.9752992,0.0,-81.56869855,-101.4195223,3655.631275,761.7919777,0.0,-4128.6564,481.7037463,-168.4136869,-24.52320692,0.0,0.0
13,0.0,161.910125,0.0,-40.45811497,-54.85447981,693.8755258,153.8990006,0.0,-897.04692,85.58749625,-85.26198305,-49.59790684,0.0,0.0,0.0,347.5582765,0.0,-81.81956245,-101.7183318,3376.528325,704.0173795,0.0,-4128.6564,145.4149054,-169.0037833,-24.52181807,0.0,0.0
14,0.0,177.2290836,1888.14926,-46.20706578,-56.51574747,845.4236731,185.2689626,0.0,-897.04692,285.4896002,-102.2484146,-49.59546997,0.0,0.0,0.0,380.4421425,3845.332632,-95.93117459,-107.5861748,3762.939522,784.0041865,0.0,-4128.6564,644.0794265,-201.2718018,-24.52031589,0.0,0.0
15,0.0,341.6962265,366.4594549,-46.12280986,-58.37769807,715.830859,158.4427177,0.0,-897.04692,120.7984841,-93.9789296,-49.59289789,0.0,0.0,0.0,733.4893452,1198.691411,-94.62737239,-109.8205487,3430.883565,715.2682736,0.0,-4128.6564,232.3958477,-190.381686,-24.51872298,0.0,0.0
16,0.0,108.513237,485.0500839,-44.55748024,-45.88125918,795.0244126,174.8352281,0.0,-897.04692,213.3313154,-90.9283786,-49.59021609,0.0,0.0,0.0,232.9358563,1279.799198,-90.8391113,-85.7675889,3627.970274,756.0648777,0.0,-4128.6564,463.257445,-183.3616353,-24.51705756,0.0,0.0
17,0.0,100.4386362,442.3876735,-44.32757739,-45.56645138,685.4589181,152.1545975,0.0,-897.04692,80.92408329,-90.77004091,-49.58744678,0.0,0.0,0.0,215.6028184,1062.609749,-90.249156,-85.06481854,3354.838539,699.5262519,0.0,-4128.6564,132.7665339,-182.5428081,-24.51533489,0.0,0.0
18,2.263382199,97.59812458,374.2580189,-40.85672266,-38.83470106,1003.986776,218.0892765,22.3936432,-897.04692,481.1996059,-84.19222201,-49.58460857,0.0,0.0,4.599309724,209.5053411,840.3709297,-82.54136217,-71.93888313,4080.485444,849.7347953,140.0692688,-4128.6564,1134.232612,-168.0859371,-24.51356744,0.0,0.0
19,2.263382199,247.9326487,0.0,-39.6751778,-37.66827397,800.0389632,175.8714789,22.3936432,-897.04692,232.6555109,-81.81663781,-49.58170777,0.0,0.0,4.599309724,532.2152896,0.0,-80.48460205,-70.06566679,3571.790649,744.4345989,140.0692688,-4128.6564,515.6853535,-163.5354757,-24.51176092,0.0,0.0
20,10.71759636,222.6292928,0.0,-32.0374746,-51.44827709,1469.755906,314.5022736,105.9717969,-897.04692,1110.730437,-67.96863133,-49.57874859,0.0,0.0,21.77871028,477.898793,0.0,-64.19223638,-94.52151773,4998.026146,1039.664966,647.4951009,-4128.6564,2715.076693,-134.0369604,-24.50991974,0.0,0.0
21,10.71759636,247.9107754,0.0,-31.74166862,-50.92949501,1037.857741,225.0987295,105.9717969,-897.04692,589.3522796,-67.89519734,-49.57573523,0.0,0.0,21.77871028,532.1683361,0.0,-63.92968854,-94.05412008,3922.896877,817.1128194,647.4951009,-4128.6564,1417.463263,-134.1068176,-24.50804809,0.0,0.0
22,59.12088461,87.36748592,0.0,-27.21304749,-31.82326654,1089.183523,235.7225312,584.7165427,-897.04692,1121.396071,-59.24772771,-49.57266702,0.0,0.0,120.1366961,187.5441256,0.0,-54.12203214,-58.03330324,2604.548396,544.2142905,3606.764674,-4128.6564,2767.149695,-115.7725876,-24.50614749,0.0,0.0
23,59.12088461,86.26118976,0.0,-26.83769164,-31.3581757,657.9345073,146.4533383,584.7165427,-897.04692,600.4667112,-58.83970068,-49.56954222,0.0,0.0,120.1366961,185.1693366,0.0,-53.50396134,-57.32277251,1527.727432,321.3119517,3606.764674,-4128.6564,1466.725811,-115.0739354,-24.50421874,0.0,0.0
24,35.46382722,218.5457614,0.0,-26.52639315,-30.93141316,579.6831906,130.254658,350.7836114,-897.04692,271.7432452,-58.50234033,-49.56636489,0.0,0.0,72.06433161,469.1330339,0.0,-53.04729885,-56.7179407,2029.626049,425.204561,2172.959255,-4128.6564,638.0257812,-114.3900516,-24.50226491,0.0,0.0
25,35.46382722,168.6814604,0.0,-26.53497053,-30.96229451,460.2282276,105.5268122,350.7836114,-897.04692,127.2108299,-58.15596307,-49.56313557,0.0,0.0,72.06433161,362.0937089,0.0,-53.05797723,-56.76763954,1733.041487,363.8111474,2172.959255,-4128.6564,279.4924091,-113.8366318,-24.50028797,0.0,0.0
26,30.67248701,127.0223068,0.0,-27.24178086,-31.85986444,301.2043462,72.60818904,286.6339569,-897.04692,-127.6273362,-59.41323959,-49.55985208,0.0,0.0,61.37451801,272.6676546,0.0,-54.70263228,-58.66137967,1586.05919,333.385398,1716.828435,-4128.6564,-351.1259481,-116.7591409,-24.49828834,0.0,0.0
27,30.67248701,146.5196443,0.0,-27.1746564,-31.76878226,327.3644369,78.02263655,286.6339569,-897.04692,-96.05346826,-59.41590874,-49.55651264,0.0,0.0,61.37451801,314.5208804,0.0,-54.59021532,-58.51765759,1649.178082,346.4505901,1716.828435,-4128.6564,-274.9073828,-116.7956441,-24.49626657,0.0,0.0
28,29.75863359,147.7256718,0.0,-27.40279034,-36.22133401,305.3883296,73.47287903,281.0054897,-897.04692,-127.7341387,-59.89296792,-49.55311495,0.0,0.0,60.36205438,317.1097537,0.0,-55.12938821,-66.81722664,1606.109719,337.5350161,1690.817838,-4128.6564,-351.7884528,-117.911151,-24.49422299,0.0,0.0
29,29.75863359,183.7732295,0.0,-27.47524487,-36.31295107,331.1999254,78.81516396,281.0054897,-897.04692,-96.31765755,-60.15902446,-49.54965896,0.0,0.0,60.36205438,394.4898869,0.0,-55.38856002,-67.12366586,1668.184546,350.3840779,1690.817838,-4128.6564,-276.2439372,-118.5338422,-24.49215868,0.0,0.0
30,18.56330882,280.4238138,0.0,-32.42242497,-40.61188292,-144.6144925,-19.67914726,134.9141998,-897.04692,-807.0989889,-69.78122279,-49.54614824,0.0,0.0,40.34045898,601.9612264,0.0,-66.41189535,-76.27621355,947.5326932,201.2087133,812.0504199,-4128.6564,-2004.09381,-139.2806866,-24.49007655,0.0,0.0
31,18.56330882,339.9334617,0.0,-32.95873761,-41.26854866,126.3563582,36.41108223,134.9141998,-897.04692,-479.1050973,-70.71759267,-49.54258982,0.0,0.0,40.34045898,729.7053725,0.0,-67.3308861,-77.30339654,1601.797979,336.6411938,812.0504199,-4128.6564,-1212.58422,-141.0946053,-24.48798128,0.0,0.0
32,9.639808456,124.1758307,0.0,-31.46789608,-15.35657537,413.0793077,95.76198561,87.27859054,-897.04692,-184.5673909,-66.82066492,-49.53898027,0.0,0.0,20.72687653,266.5573738,0.0,-64.11592188,-28.68984348,2376.950454,497.0973195,553.7375679,-4128.6564,-543.1194007,-133.2657858,-24.48587217,0.0,0.0
33,9.639808456,288.3360117,400.9890736,-34.14112556,-16.57155731,451.2380774,103.6600983,87.27859054,-897.04692,-132.2176784,-73.11713075,-49.53534455,0.0,0.0,20.72687653,618.9456482,566.3087714,-67.56179743,-30.06922972,2489.506292,520.3959407,553.7375679,-4128.6564,-398.5605865,-141.9722533,-24.48375914,0.0,0.0
34,0.0,472.8683961,0.0,-34.90728428,-23.00128652,468.8327459,107.3014401,0.0,-897.04692,-198.4409438,-72.94009118,-49.53169905,0.0,0.0,0.0,1015.065147,0.0,-69.35608569,-41.90407505,2798.782218,584.4156208,0.0,-4128.6564,-577.0417632,-143.9351471,-24.48165106,0.0,0.0
35,0.0,1265.236844,0.0,-39.48360535,-26.13668032,507.3550507,115.2748125,0.0,-897.04692,-141.9514499,-82.93750543,-49.52810147,0.0,0.0,0.0,2715.973054,0.0,-77.6441414,-47.12788336,2908.674541,607.1629027,0.0,-4128.6564,-425.4080684,-162.9313094,-24.47957798,0.0,0.0
36,0.0,236.3044648,0.0,-36.86141012,-40.62439321,540.3943496,122.1132146,0.0,-897.04692,-110.6422494,-74.37254466,-49.5245617,0.0,0.0,0.0,507.2540862,0.0,-72.88229449,-73.64997409,2991.832978,624.3762786,0.0,-4128.6564,-340.5016846,-147.4679123,-24.47754664,0.0,0.0
37,0.0,157.2956988,0.0,-35.06316423,-38.20864627,556.5601818,125.4588215,0.0,-897.04692,-93.14603585,-72.36079909,-49.5210817,0.0,0.0,0.0,337.6528922,0.0,-70.29341305,-70.23616578,3034.070583,633.1190516,0.0,-4128.6564,-292.8829973,-144.1082082,-24.4755596,0.0,0.0
38,0.0,143.3505651,0.0,-35.05443029,-26.83222964,449.278947,103.2508976,0.0,-897.04692,-221.7758964,-73.22351906,-49.5176599,0.0,0.0,0.0,307.7180957,0.0,-71.26297492,-50.01651367,2767.451776,577.9285564,0.0,-4128.6564,-612.2011747,-146.6012754,-24.47361747,0.0,0.0
39,0.0,219.1283514,0.0,-34.85774561,-26.53560672,503.8677238,114.5500783,0.0,-897.04692,-155.6217458,-73.49307528,-49.51429683,0.0,0.0,0.0,470.3836287,0.0,-71.2296389,-49.71942392,2904.145472,606.2237591,0.0,-4128.6564,-446.517586,-147.2978614,-24.47172174,0.0,0.0
40,0.0,135.0814258,42.75480012,-33.65088538,-16.75108429,651.2572386,145.0590234,0.0,-897.04692,19.84435858,-71.06402616,-49.51099043,0.0,0.0,0.0,289.967459,0.0,-68.29320262,-31.17163108,3272.740076,682.5224591,0.0,-4128.6564,-7.599230677,-141.3247627,-24.46987137,0.0,0.0
41,0.0,134.1489017,81.5055337,-33.68110927,-16.7125406,618.0194686,138.1781322,0.0,-897.04692,-20.06566768,-71.2759117,-49.50773991,0.0,0.0,0.0,287.9656913,0.0,-67.75987323,-30.82934467,3191.699508,665.7466876,0.0,-4128.6564,-106.1921905,-140.5499492,-24.46806455,0.0,0.0
42,0.0,203.5280938,27.53679885,-33.69705674,-21.68614197,599.5873012,134.3620121,0.0,-897.04692,-42.23322448,-71.35983729,-49.50454489,0.0,0.0,0.0,436.8959229,0.0,-68.01446354,-40.13536565,3145.649857,656.2140447,0.0,-4128.6564,-160.904074,-141.4221235,-24.46630076,0.0,0.0
43,0.0,126.7189876,108.4989566,-33.71166005,-21.71068788,589.3854805,132.2495853,0.0,-897.04692,-54.53484797,-71.37560127,-49.50140499,0.0,0.0,0.0,272.0165458,0.0,-67.24247329,-39.7075182,3122.340291,651.3886077,0.0,-4128.6564,-190.8708454,-139.5920788,-24.46457728,0.0,0.0
44,0.0,112.9827595,0.0,-33.0383324,-23.03547782,585.0814359,131.3580081,0.0,-897.04692,-61.2208864,-69.88827633,-49.49831332,0.0,0.0,0.0,242.5301887,0.0,-66.52066242,-42.52764085,3109.876881,648.8083327,0.0,-4128.6564,-207.0369081,-138.4713876,-24.46289049,0.0,0.0
45,0.0,111.3563674,0.0,-32.59002839,-22.75051658,582.60338,130.8444189,0.0,-897.04692,-64.76525662,-69.33860267,-49.49526188,0.0,0.0,0.0,239.0389553,0.0,-66.00237761,-42.24756896,3103.54104,647.4964711,0.0,-4128.6564,-215.5180945,-137.6395583,-24.46123576,0.0,0.0
46,0.0,93.46895515,0.0,-32.79438013,-38.77159567,504.1785719,114.6098577,0.0,-897.04692,-158.8764211,-69.88983092,-49.49223833,0.0,0.0,0.0,200.6416149,0.0,-66.5300549,-72.12199808,2907.828189,606.9835737,0.0,-4128.6564,-450.4394813,-138.9455493,-24.45960657,0.0,0.0
47,0.0,91.23607164,0.0,-32.49583628,-38.40514897,537.3962971,121.4853039,0.0,-897.04692,-119.2804973,-69.39559248,-49.48922919,0.0,0.0,0.0,195.8484796,0.0,-65.8651908,-71.37618142,2990.525774,624.1016403,0.0,-4128.6564,-351.675123,-137.8958669,-24.45799562,0.0,0.0
48,0.0,83.57653892,0.0,-33.34684049,-19.79762884,439.8544557,101.2935201,0.0,-897.04692,-235.5456077,-70.86711561,-49.48622096,0.0,0.0,0.0,179.4064319,0.0,-67.72404795,-36.86693334,2747.104817,573.713171,0.0,-4128.6564,-642.3046387,-141.077378,-24.45639547,0.0,0.0
49,0.0,81.80195337,0.0,-33.16930194,-19.666902,500.7821575,113.904929,0.0,-897.04692,-162.4007472,-70.47588604,-49.48320021,0.0,0.0,0.0,175.5970846,0.0,-67.31720442,-36.59833377,2898.756424,605.1047231,0.0,-4128.6564,-460.1107949,-140.2296593,-24.4547986,0.0,0.0
50,0.0,77.70120679,0.0,-32.64598399,-19.25871634,573.8042281,129.019867,0.0,-897.04692,-75.3106728,-69.43199862,-49.48015345,0.0,0.0,0.0,166.7943713,0.0,-66.14548258,-35.77942707,3080.785992,642.7845122,0.0,-4128.6564,-242.6546507,-137.9780477,-24.45319738,0.0,0.0
51,0.0,78.01805049,0.0,-32.4520754,-19.10853464,576.4309741,129.5629646,0.0,-897.04692,-72.52660718,-69.04930688,-49.47706727,0.0,0.0,0.0,167.4745119,0.0,-65.7103346,-35.47759778,3087.455955,644.1648607,0.0,-4128.6564,-235.4363981,-137.1476015,-24.45158418,0.0,0.0
52,0.0,77.37237892,0.0,-32.79314453,-31.57257278,500.739109,113.8940986,0.0,-897.04692,-163.1248034,-69.81498149,-49.47392753,0.0,0.0,0.0,166.0885054,0.0,-66.46815867,-58.67811816,2898.718289,605.0958257,0.0,-4128.6564,-461.5912006,-138.8011334,-24.44995086,0.0,0.0
53,0.0,77.64463323,0.0,-32.54926909,-31.27899376,535.5162108,121.0922947,0.0,-897.04692,-121.5866004,-69.38109416,-49.47071999,0.0,0.0,0.0,166.6729298,0.0,-65.912183,-58.07815987,2985.39123,623.0367805,0.0,-4128.6564,-357.9293412,-137.850759,-24.44828922,0.0,0.0
54,0.0,76.7801065,0.0,-36.1762888,-31.70493222,90.01060053,28.87195226,0.0,-897.04692,-652.3085249,-76.3884126,-49.46742969,0.0,0.0,0.0,164.8171261,0.0,-73.94306704,-59.4204446,1873.820803,392.9413504,0.0,-4128.6564,-1684.488823,-152.958833,-24.44659047,0.0,0.0
55,0.0,207.3717764,0.0,-36.45634863,-31.88681987,300.7367619,72.4915682,0.0,-897.04692,-396.9939278,-77.36061142,-49.46405067,0.0,0.0,0.0,445.1468196,0.0,-74.68330736,-59.89591471,2398.466197,501.5425869,0.0,-4128.6564,-1049.346698,-154.8560676,-24.44485087,0.0,0.0
56,0.0,73.09752297,0.0,-35.87093782,-43.35932731,420.0045039,97.17926998,0.0,-897.04692,-254.6343715,-75.76820612,-49.46056849,0.0,0.0,0.0,156.9120467,0.0,-73.33535867,-81.28096376,2694.650072,562.8522787,0.0,-4128.6564,-695.0337727,-151.6772148,-24.44306213,0.0,0.0
57,0.0,73.3080727,0.0,-35.50448461,-42.77755492,486.3330502,110.9085337,0.0,-897.04692,-175.1544915,-75.19387675,-49.45696777,0.0,0.0,0.0,157.3640154,0.0,-72.44421179,-80.03354537,2859.768504,597.0314118,0.0,-4128.6564,-497.0608914,-150.3543778,-24.44121521,0.0,0.0
58,0.0,76.82685995,0.0,-36.21814148,-39.74712626,407.2585241,94.53933376,0.0,-897.04692,-269.1977213,-76.59810767,-49.4532332,0.0,0.0,0.0,164.9174876,0.0,-73.96798123,-74.43187492,2662.392901,556.1742659,0.0,-4128.6564,-732.3389081,-153.3110237,-24.43930095,0.0,0.0
59,0.0,76.36990441,0.0,-35.96865333,-39.43965367,478.5295679,109.2916359,0.0,-897.04692,-183.6596243,-76.11674224,-49.44934965,0.0,0.0,0.0,163.9365812,0.0,-73.36873428,-73.76588563,2839.89488,592.9167635,0.0,-4128.6564,-519.1917035,-152.2157424,-24.43731025,0.0,0.0
60,0.0,216.3688511,0.0,-35.40695472,-30.71869229,633.4105365,141.3511608,0.0,-897.04692,2.550466913,-75.39037698,-49.44531271,0.0,0.0,0.0,464.4600514,0.0,-72.25485984,-57.4800094,3226.675817,672.9799889,0.0,-4128.6564,-54.13047832,-150.4348754,-24.43524,0.0,0.0
61,0.0,237.8305674,0.0,-35.61369105,-30.99314794,605.0448304,135.478592,0.0,-897.04692,-31.42121036,-75.66116587,-49.44112141,0.0,0.0,0.0,510.530037,0.0,-72.87475829,-58.15157064,3156.225769,658.3963837,0.0,-4128.6564,-138.4864865,-151.1146715,-24.43308942,0.0,0.0
62,0.0,352.0047488,1153.095543,-39.53865292,-34.12539904,731.8698797,161.7304959,0.0,-897.04692,133.1406655,-87.15034626,-49.4368636,0.0,0.0,0.0,755.6177466,1895.819207,-80.4647243,-63.67911466,3482.237601,725.8803792,0.0,-4128.6564,272.3258792,-168.4334016,-24.4308976,0.0,0.0
63,0.0,104.561051,438.6615302,-39.4922034,-35.18334724,660.1851783,146.8908719,0.0,-897.04692,40.7425465,-81.2808561,-49.43256022,0.0,0.0,0.0,224.4520452,1117.969884,-79.63831626,-65.055419,3296.161942,687.3622582,0.0,-4128.6564,41.56770996,-162.2712325,-24.42867763,0.0,0.0
64,0.0,240.1271606,263.0565199,-38.95026225,-47.52477683,656.1389499,146.0524062,0.0,-897.04692,35.12117123,-80.54850552,-49.42822967,0.0,0.0,0.0,515.4599323,632.1167951,-78.30421235,-87.60531286,3286.108739,685.2807821,0.0,-4128.6564,27.46530264,-160.3057411,-24.4264405,0.0,0.0
65,0.0,177.0783673,287.5662449,-38.77040421,-47.24850737,615.4021614,137.6189922,0.0,-897.04692,-14.17016758,-80.43171098,-49.42388788,0.0,0.0,0.0,380.118613,614.1631594,-77.91314444,-87.06309783,3184.589504,664.2658357,0.0,-4128.6564,-95.60283397,-159.7740312,-24.42419535,0.0,0.0
66,10.9679224,96.11970516,314.8663558,-33.33801617,-53.57016479,1173.425087,253.1288397,108.5056267,-897.04692,757.6939268,-70.2617441,-49.41954886,0.0,0.0,22.28738573,206.3317477,618.5503843,-65.90920993,-97.11022373,4244.238181,883.612647,676.4362029,-4128.6564,1837.600339,-137.5477583,-24.42194976,0.0,0.0
67,10.9679224,325.367472,0.0,-32.87362679,-52.80956545,871.6342435,190.6572393,108.5056267,-897.04692,392.6328035,-69.46739243,-49.41522163,0.0,0.0,22.28738573,698.4378388,0.0,-65.47416509,-96.44296686,3491.640513,727.8244661,676.4362029,-4128.6564,928.4372138,-136.7727221,-24.41970951,0.0,0.0
68,39.66287549,93.77585255,0.0,-34.0744444,-50.92662967,291.8797646,70.64716838,392.0751976,-897.04692,-21.01905259,-72.01483295,-49.41090395,0.0,0.0,80.59701492,201.3004047,0.0,-69.13166921,-94.73900408,1233.882616,260.4681188,2372.964058,-4128.6564,-93.62597293,-143.2981598,-24.4174747,0.0,0.0
69,39.66287549,178.3098289,0.0,-33.69768087,-50.31410636,274.3790213,67.02362274,392.0751976,-897.04692,-41.97161776,-72.19086484,-49.40659578,0.0,0.0,80.59701492,382.7620836,0.0,-68.65057549,-93.9873819,1187.68857,250.90549,2372.964058,-4128.6564,-148.9398041,-143.7432321,-24.41524637,0.0,0.0
70,55.06735222,114.0879904,0.0,-34.97697352,-30.36300172,15.92559752,13.52287357,544.6658229,-897.04692,-198.8883532,-74.64197872,-49.40229413,0.0,0.0,111.8997086,244.902691,0.0,-71.67560764,-57.05181678,32.77436611,11.83778974,3372.800506,-4128.6564,-537.5672238,-149.2634909,-24.41302394,0.0,0.0
71,55.06735222,112.9788963,0.0,-34.82152823,-30.16758311,63.60982021,23.3926175,544.6658229,-897.04692,-141.613486,-74.36717961,-49.3979938,0.0,0.0,111.8997086,242.5218958,0.0,-71.24475,-56.59540562,149.287457,35.95554051,3372.800506,-4128.6564,-397.5622904,-148.6398003,-24.41080631,0.0,0.0
72,146.5814537,192.8553904,0.0,-34.20946921,-33.10540458,78.66554773,26.50826454,890.7050193,-897.04692,222.558645,-74.33303213,-49.39370126,0.0,0.0,241.2494006,413.9857659,0.0,-69.87729501,-62.00465112,-23.21931348,0.2461816384,4531.487098,-4128.6564,551.7106954,-147.4445326,-24.40859676,0.0,0.0
73,146.5814537,195.5220336,0.0,-34.48565731,-33.44435231,-27.40519745,4.550734743,890.7050193,-897.04692,94.89277699,-74.69971711,-49.38942326,0.0,0.0,241.2494006,419.7100152,0.0,-70.44861044,-62.64585375,-302.1662574,-57.49629085,4531.487098,-4128.6564,215.7434716,-148.1689237,-24.40639827,0.0,0.0
74,64.0042027,263.8159218,0.0,-42.40275318,-44.55646344,-911.0491311,-178.3644413,601.0976086,-897.04692,-1246.543604,-89.43411587,-49.3851634,0.0,0.0,128.2098567,566.3105201,0.0,-88.16966601,-84.95158216,-2443.697253,-500.7936592,3695.778888,-4128.6564,-3172.142986,-180.8212247,-24.40421324,0.0,0.0
75,64.0042027,94.20782407,0.0,-41.55394038,-43.67884359,-481.9487881,-89.54154946,601.0976086,-897.04692,-730.5684218,-87.49031087,-49.38091626,0.0,0.0,128.2098567,202.2276801,0.0,-86.48339624,-83.35415921,-1372.882138,-279.1353804,3695.778888,-4128.6564,-1883.3666,-177.1263909,-24.40203945,0.0,0.0
76,77.73446043,112.1259198,0.0,-41.0564341,-43.00024755,-206.9039413,-32.60814439,606.3312038,-897.04692,-394.0511647,-86.79996348,-49.37667372,0.0,0.0,156.5695535,240.6908859,0.0,-85.1190999,-81.74333856,-558.5364427,-110.5662699,3678.748844,-4128.6564,-919.2592384,-175.3511566,-24.39987312,0.0,0.0
77,77.73446043,112.6082544,0.0,-40.91159762,-42.81639209,-91.76564639,-8.775396334,606.3312038,-897.04692,-255.3601908,-86.5241408,-49.37242739,0.0,0.0,156.5695535,241.7262715,0.0,-84.67499514,-81.25581103,-316.0799994,-60.37823393,3678.748844,-4128.6564,-627.3098293,-174.6582497,-24.39770988,0.0,0.0
78,162.8152615,510.2736534,0.0,-43.21000878,-42.27722506,-207.0017125,-32.6301366,872.654819,-897.04692,-121.6553391,-93.00040859,-49.36820234,0.0,0.0,370.4478699,1095.359734,0.0,-90.31239653,-81.02240041,-982.718411,-198.3728292,5659.274969,-4128.6564,562.1827467,-188.2598537,-24.39556438,0.0,0.0
79,162.8152615,203.5173761,0.0,-42.95678784,-41.9280165,-190.5035373,-29.21588306,872.654819,-897.04692,-103.8024143,-90.94510147,-49.36400562,0.0,0.0,370.4478699,436.8729161,0.0,-89.69150289,-80.27114159,-1278.450587,-259.5898291,5659.274969,-4128.6564,201.6038884,-184.6322939,-24.39344117,0.0,0.0
80,9.918297996,141.6699965,0.0,-41.16244382,-46.56735234,221.9171006,56.15432466,89.45597529,-897.04692,-393.8782872,-86.28140209,-49.35983015,0.0,0.0,21.37150027,304.1105664,0.0,-86.02778764,-89.23901521,1312.966098,276.8329891,567.9280813,-4128.6564,-1771.332076,-175.2058183,-24.39133739,0.0,0.0
81,9.918297996,211.8398457,587.1404814,-43.4966827,-49.25015956,329.3916514,78.40070375,89.45597529,-897.04692,-257.4576897,-92.98519015,-49.35570973,0.0,0.0,21.37150027,454.7380323,719.2674408,-89.07079605,-92.47459939,1853.036584,388.6271505,567.9280813,-4128.6564,-1111.741082,-182.9342385,-24.38926352,0.0,0.0
82,0.0,274.6881903,107.9729994,-43.53900189,-35.1171213,427.0363563,98.6123173,0.0,-897.04692,-231.7346102,-90.31198625,-49.35164996,0.0,0.0,0.0,589.6490661,193.8554253,-88.98331303,-65.80889972,2507.450682,524.090446,0.0,-4128.6564,-891.8987038,-180.8293467,-24.38722193,0.0,0.0
83,0.0,163.395413,200.2080611,-43.49609196,-35.07991319,480.169418,109.6100342,0.0,-897.04692,-167.6961939,-90.22361868,-49.34765522,0.0,0.0,0.0,350.746614,391.716792,-88.89592802,-65.73940353,2729.195037,569.9911121,0.0,-4128.6564,-624.4092161,-180.6758201,-24.38521447,0.0,0.0
84,0.0,300.2716219,50.81384616,-43.12355821,-34.69206854,548.4710822,123.747666,0.0,-897.04692,-85.93701797,-89.54742472,-49.34372911,0.0,0.0,0.0,644.5667766,67.03629351,-88.10414388,-64.99015346,2949.280511,615.5483971,0.0,-4128.6564,-360.245145,-179.199104,-24.38324255,0.0,0.0
85,0.0,234.2419222,108.9916644,-43.08495452,-34.6538047,548.1427692,123.6789073,0.0,-897.04692,-86.36043646,-89.52493251,-49.33987461,0.0,0.0,0.0,502.8266068,191.0768344,-88.06001266,-64.94409177,2976.263516,621.1334785,0.0,-4128.6564,-327.7410454,-179.1370526,-24.38130729,0.0,0.0
86,0.0,222.8262385,106.9068734,-42.06810786,-33.59772928,664.2940395,147.7214376,0.0,-897.04692,51.88154583,-87.57689469,-49.33609397,0.0,0.0,0.0,478.3215589,187.7889539,-85.83875207,-62.8602295,3281.557623,684.3289657,0.0,-4128.6564,36.54844282,-174.9388446,-24.37940947,0.0,0.0
87,0.0,221.8507584,103.4310569,-42.04204141,-33.57186673,613.9826241,137.3062077,0.0,-897.04692,-8.858774465,-87.56692467,-49.33238902,0.0,0.0,0.0,476.2275814,182.0273694,-85.81597244,-62.83410629,3165.095531,660.2209277,0.0,-4128.6564,-104.0490261,-174.9133652,-24.37754965,0.0,0.0
88,0.0,878.283363,0.0,-44.69165632,-60.46756427,580.2120806,130.3149601,0.0,-897.04692,-43.26094029,-93.93014946,-49.32878951,0.0,0.0,0.0,1885.333928,0.0,-90.77149148,-112.6110779,3087.963523,644.254228,0.0,-4128.6564,-184.8044053,-187.2585011,-24.37574306,0.0,0.0
89,0.0,390.1874869,0.0,-43.83394928,-59.72436825,567.2605067,127.6332627,0.0,-897.04692,-62.55805585,-90.26979153,-49.32530326,0.0,0.0,0.0,837.5812844,0.0,-89.174135,-111.4077719,3056.095246,637.6571327,0.0,-4128.6564,-229.808975,-180.7210521,-24.37399438,0.0,0.0
90,0.0,126.2993226,0.0,-42.57168343,-38.35503666,522.3536144,118.3368363,0.0,-897.04692,-119.3078653,-87.72668042,-49.32192344,0.0,0.0,0.0,271.1156877,0.0,-87.26665494,-72.09174315,2944.045903,614.4625681,0.0,-4128.6564,-369.4631814,-176.3124469,-24.3723009,0.0,0.0
91,0.0,124.669423,81.56368753,-42.04372846,-37.9699794,534.3508773,120.8195911,0.0,-897.04692,-104.8751203,-87.6826863,-49.31864496,0.0,0.0,0.0,267.616925,54.17421392,-85.90143406,-71.1336629,2976.027662,621.0824524,0.0,-4128.6564,-332.2085428,-174.9670839,-24.37065903,0.0,0.0
92,0.0,110.9519612,0.0,-39.12827589,-78.13009656,736.6388483,162.692541,0.0,-897.04692,134.2865239,-82.68659839,-49.31545625,0.0,0.0,0.0,238.1708518,0.0,-80.34543431,-147.1039963,3479.742576,725.3511087,0.0,-4128.6564,266.4293802,-165.6230352,-24.36906068,0.0,0.0
93,0.0,184.1718649,0.0,-39.0323478,-77.91503623,656.8880068,146.1834725,0.0,-897.04692,38.17675729,-82.83985484,-49.31234323,0.0,0.0,0.0,395.3456025,0.0,-79.92940448,-146.298138,3282.145253,684.4481397,0.0,-4128.6564,27.98538033,-165.6808884,-24.3674989,0.0,0.0
94,0.0,90.11492553,0.0,-39.2456358,-65.38736406,536.3210368,121.2254769,0.0,-897.04692,-107.4025046,-82.78861545,-49.30928622,0.0,0.0,0.0,193.4418135,0.0,-80.22041778,-122.5527327,2981.759253,622.2679197,0.0,-4128.6564,-334.6114248,-165.6518395,-24.3659633,0.0,0.0
95,0.0,87.91465064,0.0,-38.89982245,-64.7914328,545.9646904,123.2210877,0.0,-897.04692,-96.39593232,-82.15894477,-49.30626482,0.0,0.0,0.0,188.7186762,0.0,-79.33669685,-121.165701,3006.141472,627.3147243,0.0,-4128.6564,-306.6417298,-164.1940315,-24.36444268,0.0,0.0
96,0.0,107.3213892,0.0,-38.77882446,-52.32557968,551.472927,124.3606709,0.0,-897.04692,-90.02576812,-81.88429334,-49.30326067,0.0,0.0,0.0,230.3774212,0.0,-79.01745176,-97.76379418,3020.270773,630.2391758,0.0,-4128.6564,-290.2771515,-163.5063734,-24.36292677,0.0,0.0
97,0.0,110.1507112,0.0,-38.59563055,-52.07207962,554.9425534,125.0782616,0.0,-897.04692,-86.25023328,-81.4756155,-49.30025621,0.0,0.0,0.0,236.4508787,0.0,-78.60009395,-97.23563767,3029.212031,632.0897013,0.0,-4128.6564,-280.3950174,-162.598245,-24.3614057,0.0,0.0
98,0.0,106.0158471,0.0,-38.63334986,-58.17356978,518.5528272,117.5449626,0.0,-897.04692,-130.0890839,-81.56281272,-49.29723361,0.0,0.0,0.0,227.5749283,0.0,-78.6765105,-108.6285686,2938.6584,613.3447817,0.0,-4128.6564,-389.5162698,-162.7770795,-24.35986937,0.0,0.0
99,0.0,188.3969952,0.0,-38.70778977,-58.27194304,536.1340683,121.1836476,0.0,-897.04692,-108.4565899,-81.97843333,-49.29418088,0.0,0.0,0.0,404.4153195,0.0,-78.92382826,-108.9443942,2982.892233,622.5008627,0.0,-4128.6564,-335.3550019,-163.5499913,-24.35831094,0.0,0.0
100,0.0,105.685963,0.0,-39.98887798,-49.34251138,353.3467227,83.3460255,0.0,-897.04692,-327.0516615,-84.01142865,-49.29108166,0.0,0.0,0.0,226.8667951,0.0,-81.73448597,-92.47471177,2526.667336,528.0619798,0.0,-4128.6564,-881.4779796,-168.0923839,-24.35672124,0.0,0.0
101,0.0,82.2610724,0.0,-39.61449971,-48.80115088,443.4616857,101.9991679,0.0,-897.04692,-219.0496248,-83.24852371,-49.28791783,0.0,0.0,0.0,176.5826352,0.0,-80.83017134,-91.30299155,2751.003277,574.4991819,0.0,-4128.6564,-612.3852519,-166.4135994,-24.35508996,0.0,0.0
102,0.0,76.78019023,0.0,-41.27028393,-41.93120804,261.3653351,64.30455122,0.0,-897.04692,-435.6945839,-86.39777903,-49.28467082,0.0,0.0,0.0,164.8173058,0.0,-84.4318551,-78.65781332,2296.53467,480.4238319,0.0,-4128.6564,-1154.209212,-173.1352792,-24.35340636,0.0,0.0
103,0.0,77.26161165,0.0,-40.98964895,-41.57579941,390.2248383,90.97777524,0.0,-897.04692,-280.7052736,-85.8577106,-49.28132229,0.0,0.0,0.0,165.850731,0.0,-83.748114,-77.88916798,2617.340993,546.8303792,0.0,-4128.6564,-768.2506353,-171.8827325,-24.35165967,0.0,0.0
104,0.0,76.47452012,0.0,-38.4162112,-47.01805138,733.7701487,162.0909366,0.0,-897.04692,129.030401,-80.93838146,-49.27785426,0.0,0.0,0.0,164.1611506,0.0,-77.99514637,-87.52926727,3474.239893,724.2080746,0.0,-4128.6564,255.3387603,-161.1973534,-24.34983933,0.0,0.0
105,0.0,76.65223687,0.0,-38.1468736,-46.6226185,657.2454116,146.2495698,0.0,-897.04692,36.14289989,-80.42058929,-49.27424917,0.0,0.0,0.0,164.5426395,0.0,-77.37065346,-86.70608867,3284.236929,684.8770668,0.0,-4128.6564,24.8367431,-160.0312126,-24.34793496,0.0,0.0
106,0.0,80.1384936,0.0,-38.37514671,-27.92773331,576.1042563,129.4525727,0.0,-897.04692,-61.52425954,-80.69534021,-49.27049119,0.0,0.0,0.0,172.0262813,0.0,-77.84937543,-51.9489043,3082.54496,643.1264158,0.0,-4128.6564,-218.0697083,-160.5693786,-24.34593717,0.0,0.0
107,0.0,79.64934162,0.0,-38.18845258,-27.77077451,569.6100933,128.1074683,0.0,-897.04692,-69.79559142,-80.2672016,-49.26656533,0.0,0.0,0.0,170.9762616,0.0,-77.42623576,-51.6273337,3066.784627,639.863592,0.0,-4128.6564,-238.0531772,-159.611167,-24.34383708,0.0,0.0
108,0.0,85.69570207,0.0,-38.29382756,-30.64456824,527.5296924,119.395975,0.0,-897.04692,-120.366585,-80.49221033,-49.26245731,0.0,0.0,0.0,183.9554538,0.0,-77.65870615,-56.98368094,2962.200307,618.2141803,0.0,-4128.6564,-363.8463787,-160.0539073,-24.34162622,0.0,0.0
109,0.0,192.4981278,0.0,-38.50260997,-30.8269652,541.7033216,122.3290268,0.0,-897.04692,-102.5302363,-81.22617464,-49.25816066,0.0,0.0,0.0,413.2188615,0.0,-78.23873486,-57.43783225,2998.09,625.6428653,0.0,-4128.6564,-319.1088679,-161.4753661,-24.33930055,0.0,0.0
110,0.0,420.2079001,1398.699383,-48.35292803,-33.56032881,146.2863263,40.47680243,0.0,-897.04692,-555.7905007,-105.2395085,-49.25378206,0.0,0.0,0.0,902.0234745,2645.179481,-100.4416854,-63.92239521,2019.718261,423.1194211,0.0,-4128.6564,-1453.782763,-207.6990411,-24.33691362,0.0,0.0
111,0.0,598.8427215,37.35371022,-48.29534057,-35.02449832,322.9698517,77.04937419,0.0,-897.04692,-349.7555631,-98.02278378,-49.24934727,0.0,0.0,0.0,1285.483191,415.5654916,-99.3432379,-66.06031202,2450.040886,512.1957014,0.0,-4128.6564,-943.1203154,-198.9650139,-24.33448358,0.0,0.0
112,0.0,665.3627148,0.0,-51.21884681,-30.5027618,106.685412,32.27757104,0.0,-897.04692,-604.9128313,-103.9262227,-49.24488288,0.0,0.0,0.0,1428.275831,0.0,-104.5120937,-57.07048123,1911.071747,400.628581,0.0,-4128.6564,-1583.645532,-208.9785138,-24.33202554,0.0,0.0
113,0.0,592.7696737,0.0,-51.20581042,-30.45972107,292.9173678,70.82666038,0.0,-897.04692,-380.216544,-103.845936,-49.24041178,0.0,0.0,0.0,1272.446712,0.0,-104.2429442,-56.85765795,2373.467709,496.3440331,0.0,-4128.6564,-1025.745419,-208.769687,-24.32955263,0.0,0.0
114,31.54590336,97.87591207,276.6276403,-50.91772642,-29.62989963,206.5870468,52.95535975,311.9573672,-897.04692,-172.8758708,-103.4353283,-49.23594719,0.0,0.0,64.10290763,210.1016432,785.3498047,-105.0007964,-56.02597066,1215.077137,256.5566719,1922.941938,-4128.6564,-499.2584281,-210.4951495,-24.32707535,0.0,0.0
115,31.54590336,248.2553084,0.0,-49.80178278,-28.88923417,235.8141373,59.00444569,311.9573672,-897.04692,-139.3113798,-101.728096,-49.23149407,0.0,0.0,64.10290763,532.907915,0.0,-103.0122527,-54.79180954,1284.858537,271.000909,1922.941938,-4128.6564,-419.2789441,-206.2514729,-24.32459798,0.0,0.0
116,88.78799657,281.4937542,0.0,-46.98382666,-24.26762091,352.9651593,83.25378968,882.3502795,-897.04692,568.1946735,-97.44530368,-49.22706144,0.0,0.0,180.4218024,604.2579737,0.0,-97.07705983,-45.97598584,-976.883666,-197.1802387,6448.510111,-4128.6564,1366.954647,-196.8427142,-24.32212651,0.0,0.0
117,88.78799657,91.12205513,0.0,-45.90016222,-23.66052294,113.9922986,33.78549388,882.3502795,-897.04692,277.538581,-95.23478139,-49.22264772,0.0,0.0,180.4218024,195.6037303,0.0,-95.35305807,-45.06925342,-1576.547811,-321.311227,6448.510111,-4128.6564,639.1956482,-192.8813142,-24.31966154,0.0,0.0
118,109.6384173,87.37284602,0.0,-45.22580444,-27.68775619,-93.88408993,-9.245828741,1086.32473,-897.04692,230.122715,-94.75657312,-49.2182506,0.0,0.0,222.790936,187.5556317,0.0,-94.06905948,-52.80607435,-2268.401613,-464.5254728,7172.13823,-4128.6564,526.737273,-191.8653254,-24.31720289,0.0,0.0
119,109.6384173,86.24821422,0.0,-44.98065405,-27.41567023,-209.4094225,-33.16048063,1086.32473,-897.04692,90.31224428,-94.39047348,-49.21386388,0.0,0.0,222.790936,185.1414832,0.0,-93.36000508,-52.17585656,-2559.294149,-524.7407358,7172.13823,-4128.6564,174.7113396,-190.9496456,-24.31474836,0.0,0.0
120,155.74703,89.4013254,0.0,-47.95835516,-47.12293851,-682.1031044,-131.0089798,1142.477597,-897.04692,-417.6742827,-100.7976428,-49.20948215,0.0,0.0,276.0179768,191.9099906,0.0,-99.79551037,-89.91138923,-3054.945631,-627.3411006,6507.752086,-4128.6564,-1074.867997,-204.0107539,-24.3122947,0.0,0.0
121,155.74703,89.45996193,0.0,-47.79204192,-46.90750907,-561.7983156,-106.1067958,1142.477597,-897.04692,-272.7197272,-100.5496084,-49.20509931,0.0,0.0,276.0179768,192.0358605,0.0,-99.27483389,-89.34321441,-2765.409426,-567.4076148,6507.752086,-4128.6564,-726.1458908,-203.2656262,-24.30983793,0.0,0.0
122,71.73031171,84.31626858,0.0,-50.02999698,-49.59268697,-627.5694992,-119.7223411,659.1472802,-897.04692,-831.8880506,-104.1027278,-49.20070169,0.0,0.0,142.8320845,180.9943448,0.0,-104.1653388,-94.67733243,-1909.575878,-390.250581,4046.349846,-4128.6564,-2146.292005,-211.5336374,-24.30737052,0.0,0.0
123,71.73031171,160.6866392,0.0,-50.05283426,-49.55323445,-358.5010111,-64.02607933,659.1472802,-897.04692,-506.807349,-104.4231012,-49.19628007,0.0,0.0,142.8320845,344.9319266,0.0,-104.2127911,-94.60192631,-1238.941911,-251.429864,4046.349846,-4128.6564,-1336.362418,-212.0110251,-24.30488716,0.0,0.0
124,34.39591659,138.8577036,0.0,-51.4035537,-51.22567771,-285.1486904,-48.84307198,340.2078964,-897.04692,-735.0968082,-106.5421569,-49.19182095,0.0,0.0,69.89428196,298.0736636,0.0,-107.1724335,-97.929442,-134.6376888,-22.83940887,2104.512618,-4128.6564,-1940.570755,-216.7477443,-24.30238029,0.0,0.0
125,34.39591659,84.95027558,0.0,-50.94028079,-50.71801514,-52.10776374,-0.6045346009,340.2078964,-897.04692,-454.8833942,-105.480621,-49.18730673,0.0,0.0,69.89428196,182.355312,0.0,-106.0162969,-96.78524735,455.6412201,99.34779939,2104.512618,-4128.6564,-1230.443205,-214.4117174,-24.29983977,0.0,0.0
126,24.50187105,243.277073,0.0,-51.64200379,-38.06729227,99.01145491,30.67619628,171.700648,-897.04692,-439.2984906,-107.1774001,-49.18273004,0.0,0.0,53.55172718,522.2215732,0.0,-107.646463,-72.75859185,1443.441666,303.8219579,1044.071513,-4128.6564,-1095.224615,-217.7993863,-24.29726106,0.0,0.0
127,24.50187105,177.1782519,0.0,-51.45208938,-37.89068829,222.7522959,56.28958793,171.700648,-897.04692,-290.7333122,-106.3929954,-49.17808058,0.0,0.0,53.55172718,380.3330265,0.0,-107.2228791,-72.40233341,1720.495855,361.1716322,1044.071513,-4128.6564,-762.414266,-216.2084951,-24.29463814,0.0,0.0
128,4.47679092,259.0208843,0.0,-53.48381438,-39.26154639,105.4859802,32.0144817,42.9377033,-897.04692,-557.0453563,-110.3900468,-49.17335168,0.0,0.0,9.281215248,556.0174332,0.0,-111.7810649,-75.24001797,1711.039422,359.2135975,261.6321793,-4128.6564,-1547.788416,-224.6908179,-24.29196691,0.0,0.0
129,4.47679092,132.2982444,1344.368805,-58.38423595,-42.84996834,258.3372182,63.65370876,42.9377033,-897.04692,-359.3305926,-123.6190759,-49.16862127,0.0,0.0,9.281215248,283.9930473,2572.68168,-122.6390544,-82.5314199,2123.665999,444.6267438,261.6321793,-4128.6564,-1025.973896,-248.4682969,-24.28928534,0.0,0.0
130,0.0,155.3700365,480.3853549,-58.98409752,-56.8415093,291.5986844,70.53785679,0.0,-897.04692,-366.0315546,-119.7149154,-49.16390879,0.0,0.0,0.0,333.5192415,1251.848146,-123.3207239,-108.9688448,2337.97554,488.9882643,0.0,-4128.6564,-1032.291744,-245.1142456,-24.28660641,0.0,0.0
131,0.0,159.9520458,421.7740237,-58.81007461,-56.69478993,384.3040597,89.72690107,0.0,-897.04692,-254.3575093,-119.4992194,-49.15923045,0.0,0.0,0.0,343.3550395,1030.677254,-122.7943791,-108.5439263,2577.275834,538.5228735,0.0,-4128.6564,-744.2007833,-244.372968,-24.28394071,0.0,0.0
132,0.0,155.2510668,370.6844606,-58.3518199,-44.5917862,474.6371634,108.4248949,0.0,-897.04692,-146.2156728,-118.6145897,-49.15459929,0.0,0.0,0.0,333.2638599,863.4188164,-121.7559876,-85.31519952,2806.926662,586.0600474,0.0,-4128.6564,-469.0822713,-242.3061229,-24.28129664,0.0,0.0
133,0.0,155.1875611,346.196771,-58.23570631,-44.48238716,486.4336839,110.8658281,0.0,-897.04692,-132.0561743,-118.5412073,-49.1500265,0.0,0.0,0.0,333.1275377,772.2155767,-121.5298464,-85.11719572,2838.85982,592.6696697,0.0,-4128.6564,-430.8633571,-241.984872,-24.27868119,0.0,0.0
134,0.0,486.7705355,0.0,-57.54854889,-42.43687951,570.3758366,128.2409212,0.0,-897.04692,-31.95920814,-117.325432,-49.14552209,0.0,0.0,0.0,1044.907651,0.0,-119.9910094,-81.13222579,3049.769475,636.327434,0.0,-4128.6564,-179.1253058,-239.1580851,-24.27610032,0.0,0.0
135,0.0,344.5402735,106.8373109,-57.40330935,-42.31643612,540.6310816,122.0828403,0.0,-897.04692,-68.0981835,-117.0937208,-49.14109377,0.0,0.0,0.0,739.5944116,229.1831798,-119.7851197,-80.9674841,2976.391231,621.1376116,0.0,-4128.6564,-268.1013778,-238.7526204,-24.27355869,0.0,0.0
136,0.0,214.6696518,239.8789208,-56.99716154,-47.99299208,562.6195573,126.6335553,0.0,-897.04692,-42.12093719,-116.5361215,-49.1367487,0.0,0.0,0.0,460.812529,498.5849451,-118.9472193,-91.83632823,3031.936341,632.634932,0.0,-4128.6564,-202.3985313,-237.4155356,-24.27106044,0.0,0.0
137,0.0,216.1164535,227.8840977,-56.93756001,-47.93244848,536.5578963,121.2379106,0.0,-897.04692,-73.60756515,-116.511055,-49.13249303,0.0,0.0,0.0,463.9182516,470.1832952,-118.8736559,-91.75970333,2967.378502,619.270952,0.0,-4128.6564,-280.4047126,-237.3336243,-24.26860902,0.0,0.0
138,0.0,206.8171786,264.8102651,-59.49347112,-60.85026792,211.6163728,53.97415415,0.0,-897.04692,-460.570074,-121.7579858,-49.12833322,0.0,0.0,0.0,443.956313,542.3677723,-124.6222868,-116.87578,2157.032762,451.5288867,0.0,-4128.6564,-1247.298909,-248.5296348,-24.26620784,0.0,0.0
139,0.0,125.1287113,335.5716013,-59.44034435,-60.78951578,337.2928809,79.98835121,0.0,-897.04692,-308.9151255,-121.7262877,-49.12427468,0.0,0.0,0.0,268.602839,696.6632172,-124.5649766,-116.8097078,2469.656639,516.2415432,0.0,-4128.6564,-870.0354473,-248.4589107,-24.26385972,0.0,0.0
140,0.0,111.4067842,0.0,-60.17137583,-56.87014202,100.7515126,31.02346604,0.0,-897.04692,-593.5164953,-122.6351421,-49.12030399,0.0,0.0,0.0,239.1471806,0.0,-127.1653227,-110.2043375,1877.080508,393.5778078,0.0,-4128.6564,-1581.927177,-251.8093488,-24.26155813,0.0,0.0
141,0.0,109.7936063,0.0,-59.43232256,-55.90151732,274.8295844,67.05681849,0.0,-897.04692,-384.4649511,-121.5791674,-49.11639858,0.0,0.0,0.0,235.684313,0.0,-124.9673527,-107.7787352,2310.569326,483.3095235,0.0,-4128.6564,-1061.496746,-249.0215144,-24.25929053,0.0,0.0
142,0.0,91.91925891,0.0,-61.72423611,-58.57464271,23.57016631,15.04531857,0.0,-897.04692,-683.2198309,-126.0990721,-49.11253212,0.0,0.0,0.0,197.3150178,0.0,-129.6713374,-112.8323241,1683.352964,353.475271,0.0,-4128.6564,-1809.159511,-258.4116135,-24.25704134,0.0,0.0
143,0.0,89.7014419,0.0,-61.22874937,-57.97109223,229.031987,57.57511748,0.0,-897.04692,-436.1203907,-125.2107477,-49.1086771,0.0,0.0,0.0,192.5542244,0.0,-128.2872072,-111.3717553,2194.968304,459.3791813,0.0,-4128.6564,-1193.902087,-256.1520339,-24.25479368,0.0,0.0
144,0.0,83.6743071,0.0,-62.04633207,-58.9445287,189.0241578,49.29269529,0.0,-897.04692,-482.8273583,-126.7979037,-49.10480495,0.0,0.0,0.0,179.6163023,0.0,-129.883194,-113.1399457,2094.830597,438.6502073,0.0,-4128.6564,-1311.630007,-259.2930591,-24.25252976,0.0,0.0
145,0.0,81.87454211,0.0,-61.59905707,-58.95891331,320.6109019,76.53034028,0.0,-897.04692,-324.8609151,-125.9438759,-49.1008869,0.0,0.0,0.0,175.7529045,0.0,-128.7050134,-112.9552678,2422.79085,506.5375038,0.0,-4128.6564,-917.9014194,-257.1763957,-24.25023143,0.0,0.0
146,0.0,77.7038744,0.0,-60.53003259,-57.17287249,472.0459218,107.8765629,0.0,-897.04692,-144.1763055,-123.8512354,-49.09689433,0.0,0.0,0.0,166.8000977,0.0,-126.1704896,-109.272911,2800.776072,584.7799582,0.0,-4128.6564,-466.4421784,-252.4103108,-24.2478805,0.0,0.0
147,0.0,78.02024634,0.0,-60.12426195,-56.70896296,480.3280798,109.5901219,0.0,-897.04692,-134.9812829,-123.0546364,-49.092799,0.0,0.0,0.0,167.4792256,0.0,-125.1310881,-108.2188184,2822.170764,589.2081582,0.0,-4128.6564,-442.5799627,-250.4520561,-24.24545896,0.0,0.0
148,0.0,77.37292912,0.0,-59.80531661,-46.24372016,485.4811418,110.6559311,0.0,-897.04692,-129.4929837,-122.3282896,-49.0885738,0.0,0.0,0.0,166.0896864,0.0,-124.2951651,-88.12574988,2835.844958,592.0381969,0.0,-4128.6564,-427.8729957,-248.6572999,-24.24294941,0.0,0.0
149,0.0,77.64509764,0.0,-59.44532651,-45.91778605,488.9260291,111.3681158,0.0,-897.04692,-126.0785041,-121.5900786,-49.08419236,0.0,0.0,0.0,166.6739267,0.0,-123.3836548,-87.38894034,2845.283935,593.9915239,0.0,-4128.6564,-418.2938421,-246.8467637,-24.2403349,0.0,0.0
150,0.0,76.78026994,0.0,-59.30397876,-55.80130549,452.7183187,103.872175,0.0,-897.04692,-169.9893852,-121.3874128,-49.07962821,0.0,0.0,0.0,164.8174769,0.0,-122.9589525,-106.085567,2755.781814,575.4640184,0.0,-4128.6564,-526.976824,-246.1961449,-24.23759845,0.0,0.0
151,0.0,77.26168375,0.0,-58.88805101,-55.32295132,471.4322684,107.7449746,0.0,-897.04692,-148.188857,-120.6059647,-49.07485533,0.0,0.0,0.0,165.8508857,0.0,-121.915899,-105.0205104,2803.20962,585.2809791,0.0,-4128.6564,-471.6434991,-244.2875783,-24.23472334,0.0,0.0
152,0.0,76.47453549,0.0,-58.48783326,-54.8686918,482.4272142,110.0198919,0.0,-897.04692,-135.6995809,-119.8303848,-49.06984821,0.0,0.0,0.0,164.1611836,0.0,-120.910282,-104.0058881,2831.430934,591.1221637,0.0,-4128.6564,-439.4733268,-242.3982828,-24.23169317,0.0,0.0
153,0.0,76.65225125,0.0,-58.09872823,-54.42834151,489.1072421,111.4015676,0.0,-897.04692,-128.3993293,-119.074199,-49.06458198,0.0,0.0,0.0,164.5426704,0.0,-119.9344044,-103.0238742,2848.919775,594.7416912,0.0,-4128.6564,-420.2121378,-240.5543042,-24.22849196,0.0,0.0
154,0.0,238.5668514,0.0,-58.1900682,-76.15580845,491.9117109,111.9809459,0.0,-897.04692,-124.1365541,-119.9586668,-49.05904229,0.0,0.0,0.0,512.1105532,0.0,-120.2238478,-144.2714543,2857.168464,596.4484697,0.0,-4128.6564,-408.7482435,-242.0661134,-24.22510968,0.0,0.0
155,0.0,76.93477118,0.0,-57.44054717,-75.1911285,495.8943973,112.8041538,0.0,-897.04692,-121.4216371,-117.8735263,-49.05320553,0.0,0.0,0.0,165.1491312,0.0,-118.4172646,-142.1342293,2867.242907,598.5331388,0.0,-4128.6564,-400.9426369,-237.7161857,-24.22153153,0.0,0.0
156,0.0,278.5423413,0.0,-58.22677669,-54.43019388,457.2825736,104.8102347,0.0,-897.04692,-165.9381233,-119.9689258,-49.04706261,0.0,0.0,0.0,597.9224342,0.0,-120.2336912,-103.0573407,2772.309571,578.8811556,0.0,-4128.6564,-511.4989589,-241.7489639,-24.21775075,0.0,0.0
157,0.0,170.5838681,0.0,-57.87130012,-54.18145544,476.0248316,108.6885443,0.0,-897.04692,-144.6030557,-118.6898888,-49.04059967,0.0,0.0,0.0,366.1774406,0.0,-119.3975035,-102.498685,2819.147388,588.5757574,0.0,-4128.6564,-457.6109344,-239.1085616,-24.21375838,0.0,0.0
158,0.0,188.6188785,2734.919438,-69.73618169,-59.58619476,342.8906265,81.1283962,0.0,-897.04692,-273.6754119,-150.3184926,-49.03399286,0.0,0.0,0.0,404.891617,5852.869421,-148.8542898,-116.6230678,2495.294196,521.5372967,0.0,-4128.6564,-783.8445512,-303.7707033,-24.20965228,0.0,0.0
159,0.0,178.8358407,810.6693972,-69.60920487,-61.72661041,406.4382431,94.28136487,0.0,-897.04692,-208.7608945,-138.5391299,-49.02728768,0.0,0.0,0.0,383.8912271,2491.974485,-146.8442402,-119.3983409,2639.256132,551.3365509,0.0,-4128.6564,-626.0884473,-287.7698033,-24.20546691,0.0,0.0
160,0.0,105.6524651,746.1169757,-67.24360257,-59.0796401,668.9601445,148.621998,0.0,-897.04692,103.7402586,-134.1845142,-49.02052196,0.0,0.0,0.0,226.7948881,2060.344635,-141.0862161,-113.6598487,3292.132643,686.4811119,0.0,-4128.6564,151.6539826,-277.4953971,-24.20123037,0.0,0.0
161,0.0,466.5057193,310.7279123,-66.89545055,-58.67750045,584.7430605,131.1876553,0.0,-897.04692,1.85635408,-133.9588297,-49.01372853,0.0,0.0,0.0,1001.406946,923.6616912,-140.1679246,-112.7351338,3081.405546,642.85972,0.0,-4128.6564,-103.9581012,-276.2360667,-24.19696609,0.0,0.0
162,27.4186921,175.7916643,526.4696606,-65.58203513,-62.76488595,554.9763265,125.0245356,270.9648998,-897.04692,235.0090078,-132.0832289,-49.00693706,0.0,0.0,55.71620083,377.3565605,1252.01982,-137.2642965,-120.455064,2229.800997,466.5766941,1623.796373,-4128.6564,487.2457853,-271.5354269,-24.19269415,0.0,0.0
163,27.4186921,93.57454464,0.0,-62.37097792,-59.63606918,429.2736201,99.00266929,270.9648998,-897.04692,76.53828097,-125.3438672,-49.00014454,0.0,0.0,55.71620083,200.8682747,0.0,-131.3769844,-115.1811379,1912.100837,400.8118755,1623.796373,-4128.6564,90.3736595,-258.1325573,-24.18841641,0.0,0.0
164,101.3651599,129.9248952,0.0,-59.03030581,-50.58077125,321.6293065,76.71888994,1005.357709,-897.04692,676.9243239,-121.2719885,-48.99335024,0.0,0.0,205.9792489,278.8983866,0.0,-124.5010491,-97.81805984,-1173.439159,-237.8957901,6883.06985,-4128.6564,1616.309167,-249.0465322,-24.1841348,0.0,0.0
165,101.3651599,228.510823,0.0,-58.84706722,-50.21457277,31.48298334,16.65719429,1005.357709,-897.04692,327.0963993,-121.6588787,-48.98655428,0.0,0.0,205.9792489,490.5241583,0.0,-124.1003232,-97.09871452,-1900.392549,-388.3760283,6883.06985,-4128.6564,739.3830392,-249.5583148,-24.17985205,0.0,0.0
166,97.46165431,145.2173155,0.0,-56.48009674,-47.74310704,115.4506424,34.03709124,973.4794178,-897.04692,391.6982777,-116.7982961,-48.97975003,0.0,0.0,198.0471237,311.7252851,0.0,-118.7274557,-92.02419506,-2904.688904,-596.2662609,8265.932756,-4128.6564,899.6095156,-239.1127584,-24.17556622,0.0,0.0
167,97.46165431,106.2106941,0.0,-56.06933017,-47.32052489,-67.28876502,-3.791378538,973.4794178,-897.04692,170.2861571,-115.9608762,-48.97292667,0.0,0.0,198.0471237,227.9931892,0.0,-117.6575965,-91.04996378,-3358.083617,-690.1198554,8265.932756,-4128.6564,350.4492795,-237.2051243,-24.17127233,0.0,0.0
168,1044.26971,86.18154471,0.0,-55.54231335,-53.91930061,-1231.063972,-244.6942513,4496.415752,-897.04692,2296.502874,-123.9261253,-48.9661399,0.0,0.0,1526.688758,184.9983696,0.0,-115.346415,-102.6738877,-9367.073582,-1933.981665,21226.09581,-4128.6564,6063.925746,-243.3745925,-24.16698747,0.0,0.0
169,1044.26971,86.2717655,0.0,-56.71122893,-54.96721302,-2106.048784,-425.8174923,4496.415752,-897.04692,1242.598004,-126.1359986,-48.95944972,0.0,0.0,1526.688758,185.1920386,0.0,-117.1379148,-104.1040841,-11679.13809,-2412.579899,21226.09581,-4128.6564,3276.456138,-246.5719815,-24.1627313,0.0,0.0
170,806.1021008,81.14056581,0.0,-56.83866447,-41.51209553,-2187.114814,-442.5995163,3598.572199,-897.04692,244.6097148,-123.8458661,-48.95289958,0.0,0.0,1382.44584,174.1773419,0.0,-117.221767,-78.50090712,-11201.28659,-2313.66551,19600.33322,-4128.6564,2226.003289,-245.120049,-24.15852165,0.0,0.0
171,806.1021008,81.49987711,0.0,-57.54490695,-41.95099006,-2310.926695,-468.2298937,3598.572199,-897.04692,96.44104998,-125.1258273,-48.9465324,0.0,0.0,1382.44584,174.948644,0.0,-118.5658276,-79.2556951,-12106.34626,-2501.01372,19600.33322,-4128.6564,1135.927549,-247.4563388,-24.15437658,0.0,0.0
172,1015.602938,159.9350402,0.0,-58.55639194,-63.71405047,-2588.172814,-525.621108,4265.145129,-897.04692,432.5631978,-129.3185025,-48.94040838,0.0,0.0,2011.255162,343.3185349,0.0,-121.0605729,-120.781175,-15209.12225,-3143.289189,26825.44746,-4128.6564,4625.981127,-257.4511797,-24.15032616,0.0,0.0
173,1015.602938,83.22208029,0.0,-59.34129518,-64.46149455,-2780.309456,-565.3945984,4265.145129,-897.04692,201.8397503,-130.5110109,-48.93458413,0.0,0.0,2011.255162,178.6455466,0.0,-123.0216338,-122.5350859,-16978.5304,-3509.557487,26825.44746,-4128.6564,2493.356241,-260.5066624,-24.14639966,0.0,0.0
174,838.9762675,87.51753503,0.0,-61.15649906,-57.31210251,-2658.522251,-540.1857815,3213.319062,-897.04692,-701.0903114,-132.4164755,-48.9291038,0.0,0.0,1975.597226,187.8662229,0.0,-127.9888696,-109.9794511,-16047.53619,-3316.842468,24656.40199,-4128.6564,1456.970557,-269.4610022,-24.14262617,0.0,0.0
175,838.9762675,164.553073,0.0,-62.11053737,-58.3469763,-2440.0047,-494.9537021,3213.319062,-897.04692,-435.2876166,-134.47463,-48.92401411,0.0,0.0,1975.597226,353.2316613,0.0,-130.8222172,-112.6860596,-16666.50233,-3444.969201,24656.40199,-4128.6564,715.3505477,-274.9374481,-24.13903691,0.0,0.0
176,78.11308121,202.9776773,0.0,-62.15256784,-48.73420332,-1365.073495,-272.4439159,406.3550157,-897.04692,-1951.728478,-127.5615253,-48.9193117,0.0,0.0,210.0289983,435.714392,0.0,-131.2268916,-94.34812107,-7784.610578,-1606.418313,3078.709531,-4128.6564,-10155.12925,-261.7108704,-24.13563618,0.0,0.0
177,78.11308121,243.598996,0.0,-61.86012027,-48.20618651,-693.3524392,-133.3985516,406.3550157,-897.04692,-1141.229666,-127.2982369,-48.91499213,0.0,0.0,210.0289983,522.912617,0.0,-130.5903427,-93.31225781,-4198.459367,-864.0856765,3078.709531,-4128.6564,-5827.298402,-261.0610828,-24.13242684,0.0,0.0
178,1.016742896,232.2280902,0.0,-65.58016952,-42.26220746,-676.0736222,-129.8226539,6.159948522,-897.04692,-1514.047399,-133.8248062,-48.91104288,0.0,0.0,3.205644658,498.5036902,0.0,-138.8203438,-82.02918142,-2062.342438,-421.9100976,48.34666992,-4128.6564,-6265.453309,-274.9795502,-24.12940626,0.0,0.0
179,1.016742896,239.6592528,0.0,-65.36593301,-41.82112208,-168.5193888,-24.75967183,6.159948522,-897.04692,-901.8893019,-133.3692826,-48.90744761,0.0,0.0,3.205644658,514.4555157,0.0,-137.9257328,-80.91427292,77.02813193,20.93902337,48.34666992,-4128.6564,-3684.620521,-273.5954835,-24.12657032,0.0,0.0
180,0.0,236.3306691,0.0,-62.88563444,-40.90407586,388.1401281,90.46817363,0.0,-897.04692,-241.0258019,-128.5086274,-48.90418896,0.0,0.0,0.0,507.3103367,0.0,-132.1313846,-78.805539,1967.330006,412.2309615,0.0,-4128.6564,-1462.167048,-262.8044702,-24.12391365,0.0,0.0
181,0.0,157.3040055,0.0,-62.35757624,-40.48040834,431.0437171,99.34860684,0.0,-897.04692,-190.5572767,-127.1960759,-48.90124344,0.0,0.0,0.0,337.6707233,0.0,-130.7377537,-77.82019176,2350.535354,491.5539533,0.0,-4128.6564,-1002.566576,-259.8790916,-24.12142555,0.0,0.0
182,0.0,143.3593739,0.0,-61.81339784,-51.92230533,455.3877676,104.3872749,0.0,-897.04692,-162.1005916,-126.2727014,-48.89858454,0.0,0.0,0.0,307.7370047,0.0,-129.3226767,-99.60511793,2565.392375,536.0288738,0.0,-4128.6564,-745.4686672,-257.6473914,-24.1190926,0.0,0.0
183,0.0,468.2394604,0.0,-62.72064289,-52.74714762,466.1889601,106.6226296,0.0,-897.04692,-146.2222752,-129.1168478,-48.89620724,0.0,0.0,0.0,1005.128616,0.0,-131.5464067,-101.4385628,2679.391675,559.6262777,0.0,-4128.6564,-602.365176,-263.1563583,-24.11691274,0.0,0.0
184,0.0,138.5336384,0.0,-64.32537035,-51.94333012,166.3623852,44.55808959,0.0,-897.04692,-506.4270363,-130.8053226,-48.89408624,0.0,0.0,0.0,297.3780212,0.0,-134.9093959,-99.89075853,1978.151688,414.4691781,0.0,-4128.6564,-1444.607708,-267.3129534,-24.11487268,0.0,0.0
185,0.0,137.5670229,0.0,-63.73191474,-50.96592029,305.4199092,73.34260532,0.0,-897.04692,-339.4894236,-129.9027881,-48.89219376,0.0,0.0,0.0,295.3030724,0.0,-133.3407354,-97.77354679,2351.225994,491.6951629,0.0,-4128.6564,-996.5782352,-265.0440508,-24.11295684,0.0,0.0
186,0.0,127.867635,9.23246262,-65.54467187,-50.00655912,111.9885657,33.30196674,0.0,-897.04692,-569.3939931,-133.4718937,-48.89050073,0.0,0.0,0.0,274.4822465,358.7555781,-138.7638373,-97.07368126,1879.972109,394.1452354,0.0,-4128.6564,-1554.403724,-276.0241773,-24.11115446,0.0,0.0
187,0.0,126.2224879,144.4126892,-65.68659619,-50.09650486,271.6777676,66.35731822,0.0,-897.04692,-375.9262037,-134.1966434,-48.88898714,0.0,0.0,0.0,270.9507534,443.7961671,-139.0377083,-97.22968741,2286.736132,478.3450368,0.0,-4128.6564,-1063.201431,-276.2643432,-24.10945703,0.0,0.0
188,0.0,112.4899268,0.0,-67.50030742,-54.80588142,52.8047534,21.05032186,0.0,-897.04692,-637.213514,-137.090708,-48.88762271,0.0,0.0,0.0,241.472268,0.0,-142.3130377,-105.9501862,1745.236648,366.2543107,0.0,-4128.6564,-1711.613429,-281.4441643,-24.10784751,0.0,0.0
189,0.0,110.8662184,0.0,-66.9485348,-53.98667918,237.540968,59.29046021,0.0,-897.04692,-415.1654016,-136.1637142,-48.88637596,0.0,0.0,0.0,237.9867954,0.0,-140.6174854,-103.9729782,2208.037772,462.0538243,0.0,-4128.6564,-1155.539957,-278.91854,-24.10630701,0.0,0.0
190,0.0,390.2828563,0.0,-69.55462468,-54.37728692,105.6096947,31.98045027,0.0,-897.04692,-568.4511555,-142.1203854,-48.8852342,0.0,0.0,0.0,837.7860055,0.0,-146.4275264,-104.9662953,1881.006674,394.3580807,0.0,-4128.6564,-1538.137419,-291.0493987,-24.10482659,0.0,0.0
191,0.0,752.7278457,0.0,-71.21606369,-55.90341886,259.4615668,63.82757636,0.0,-897.04692,-378.6990673,-146.1744968,-48.88421274,0.0,0.0,0.0,1615.814902,0.0,-150.6119105,-108.4065043,2265.791282,474.008202,0.0,-4128.6564,-1065.423312,-299.3301901,-24.10341349,0.0,0.0
192,0.0,117.4126328,0.0,-69.4464738,-55.248142,313.5838312,75.03069465,0.0,-897.04692,-318.8890173,-140.6600841,-48.88329267,0.0,0.0,0.0,252.0394095,0.0,-147.1895822,-107.369312,2398.099476,501.3957174,0.0,-4128.6564,-916.0341491,-289.0250005,-24.10205741,0.0,0.0
193,0.0,81.9134958,0.0,-68.6242084,-53.95442343,380.7305982,88.92989916,0.0,-897.04692,-239.299772,-139.2042094,-48.88244123,0.0,0.0,0.0,175.836523,0.0,-144.3501844,-104.0645164,2566.269617,536.2066637,0.0,-4128.6564,-716.9939083,-285.085472,-24.10073893,0.0,0.0
194,0.0,77.70520848,0.0,-69.93986662,-53.95749582,186.0689734,48.63477366,0.0,-897.04692,-471.5984622,-141.8630867,-48.88162396,0.0,0.0,0.0,166.8029614,0.0,-146.6877617,-103.7663372,2081.40783,435.8400042,0.0,-4128.6564,-1297.078467,-290.2306622,-24.09943645,0.0,0.0
195,0.0,78.02134449,0.0,-69.41589834,-53.21154683,308.1891711,73.91348533,0.0,-897.04692,-325.1563668,-140.9070905,-48.88080631,0.0,0.0,0.0,167.4815829,0.0,-145.149976,-102.0233367,2386.24498,498.9410234,0.0,-4128.6564,-931.6648507,-287.7074177,-24.09812779,0.0,0.0
196,0.0,77.37319672,0.0,-67.03103913,-49.79053382,609.4225981,136.2686284,0.0,-897.04692,33.81238455,-136.2881233,-48.8799547,0.0,0.0,0.0,166.0902609,0.0,-139.5964021,-95.0781396,3138.3696,654.630543,0.0,-4128.6564,-34.18883788,-277.3706277,-24.09679113,0.0,0.0
197,0.0,77.64532351,0.0,-66.60057185,-49.26709858,547.9081823,123.5349543,0.0,-897.04692,-41.28758534,-135.4371616,-48.87903642,0.0,0.0,0.0,166.6744116,0.0,-138.4524633,-93.91075564,2986.431561,623.179082,0.0,-4128.6564,-219.7205875,-275.2297646,-24.09540509,0.0,0.0
198,0.0,76.78034572,0.0,-72.21595699,-55.48567539,-222.2043702,-35.87855495,0.0,-897.04692,-959.937487,-146.3143403,-48.87801778,0.0,0.0,0.0,164.8176396,0.0,-150.7465754,-106.2015317,1066.255268,225.7022876,0.0,-4128.6564,-2514.184895,-298.4200015,-24.09394771,0.0,0.0
199,0.0,77.2617523,0.0,-71.70929706,-54.82111509,77.59987246,26.18068476,0.0,-897.04692,-599.0167855,-145.3727117,-48.87686549,0.0,0.0,0.0,165.8510329,0.0,-149.4259912,-104.7452083,1813.005119,380.2791858,0.0,-4128.6564,-1615.222492,-296.0572063,-24.09239722,0.0,0.0
200,0.0,76.47454709,0.0,-71.86450202,-55.02511165,167.6794456,44.82688339,0.0,-897.04692,-489.9872172,-145.6778271,-48.87554662,0.0,0.0,0.0,164.1612085,0.0,-149.5881049,-105.0217357,2037.410712,426.730799,0.0,-4128.6564,-1344.024409,-296.3997473,-24.09073206,0.0,0.0
201,0.0,76.65226211,0.0,-71.38982499,-54.42732839,295.1298738,71.20880786,0.0,-897.04692,-337.0750439,-144.7591655,-48.87402895,0.0,0.0,0.0,164.5426937,0.0,-148.3595863,-103.7126982,2355.393102,492.5527808,0.0,-4128.6564,-962.5178957,-294.1036905,-24.0889311,0.0,0.0
202,0.0,158.7993062,0.0,-73.16604749,-56.54832605,133.3718867,37.72454378,0.0,-897.04692,-528.6200988,-148.4581046,-48.87228611,0.0,0.0,0.0,340.8805543,0.0,-152.2317397,-107.8824967,1952.458188,409.1448491,0.0,-4128.6564,-1441.282896,-301.68349,-24.08697652,0.0,0.0
203,0.0,78.29335067,0.0,-72.53810042,-55.97435041,274.7874557,66.99715288,0.0,-897.04692,-359.4901753,-146.9018485,-48.87028765,0.0,0.0,0.0,168.0654747,0.0,-150.6535512,-106.5952559,2304.883124,482.0963703,0.0,-4128.6564,-1019.402434,-298.1896227,-24.08484847,0.0,0.0
204,0.0,162.0467936,0.0,-73.94381797,-57.59665914,159.3015283,43.09109414,0.0,-897.04692,-495.8373127,-149.9489762,-48.86800859,0.0,0.0,0.0,347.851651,0.0,-153.6790195,-109.7603853,2017.365604,422.5797637,0.0,-4128.6564,-1360.294654,-304.3338489,-24.0825301,0.0,0.0
205,0.0,165.1379591,0.0,-73.63867333,-57.24757281,287.3382313,69.59415695,0.0,-897.04692,-341.9506128,-149.2984935,-48.86542542,0.0,0.0,0.0,354.4871851,0.0,-152.9001432,-108.992003,2336.752308,488.692289,0.0,-4128.6564,-976.4524057,-302.6793916,-24.0800056,0.0,0.0
206,0.0,104.2883022,2662.073102,-83.53559283,-64.58803962,372.1386249,87.14727324,0.0,-897.04692,-212.2934669,-176.6048599,-48.86269509,0.0,0.0,0.0,223.866559,6000.0,-179.2195909,-127.0578918,2552.929353,533.4403909,0.0,-4128.6564,-656.9135833,-361.2957065,-24.07736627,0.0,0.0
207,0.0,122.6398394,885.6223077,-83.41423223,-69.87874189,402.1301544,93.35493265,0.0,-897.04692,-186.8009936,-165.900981,-48.8598584,0.0,0.0,0.0,263.2601957,2839.033624,-178.117769,-136.8194332,2613.656989,546.0104485,0.0,-4128.6564,-597.4853103,-347.429006,-24.07464613,0.0,0.0
208,0.0,108.5167669,798.9243788,-84.3677507,-71.21780997,258.6103066,63.64572211,0.0,-897.04692,-357.8969251,-168.0370162,-48.85694997,0.0,0.0,0.0,232.9434338,2259.65968,-179.7044486,-139.0934219,2253.912916,471.5428513,0.0,-4128.6564,-1028.522829,-350.6059307,-24.07187264,0.0,0.0
209,0.0,100.245436,737.7715852,-84.05272594,-70.72273645,331.5781244,78.74944971,0.0,-897.04692,-270.0446891,-167.820657,-48.8539998,0.0,0.0,0.0,215.1880926,1922.322177,-178.8138875,-137.9571196,2433.955138,508.8110107,0.0,-4128.6564,-812.4567868,-349.3643963,-24.06906863,0.0,0.0
210,20.49388821,97.37878031,646.0559943,-80.16378167,-65.42148801,724.6828079,160.1215052,202.5527403,-897.04692,399.8577995,-160.6966323,-48.85103385,0.0,0.0,41.64464108,209.034494,1593.053757,-170.132249,-127.3105763,2827.537459,590.2819685,1219.921404,-4128.6564,866.5933288,-333.4426436,-24.0662532,0.0,0.0
211,20.49388821,94.35769592,0.0,-76.72521158,-62.48700298,528.3576867,119.4815861,202.5527403,-897.04692,155.5943964,-153.4012599,-48.84804339,0.0,0.0,41.64464108,202.5493969,0.0,-163.4645304,-122.0705079,2335.25321,488.3785434,1219.921404,-4128.6564,257.1337471,-318.1735648,-24.06342509,0.0,0.0
212,63.71318478,92.7863278,0.0,-71.0071544,-54.70248871,725.9706408,160.3868414,631.8879642,-897.04692,814.536129,-144.4925846,-48.84501801,0.0,0.0,129.4684876,199.1762786,0.0,-151.0748573,-106.7167987,1159.604665,245.018706,4321.573453,-4128.6564,1920.182487,-298.5814809,-24.06058087,0.0,0.0
213,63.71318478,89.97317579,0.0,-70.46441614,-53.58160988,376.7155222,88.09039379,631.8879642,-897.04692,392.0452151,-143.5563192,-48.84193574,0.0,0.0,129.4684876,193.1375317,0.0,-149.0747309,-103.94068,288.4988547,64.69920885,4321.573453,-4128.6564,865.9801324,-295.8073058,-24.05770983,0.0,0.0
214,103.1078951,86.23513634,0.0,-62.77836345,-44.09273442,927.000548,201.9987406,1035.046897,-897.04692,1444.882224,-129.0441802,-48.83877838,0.0,0.0,209.520577,185.11341,0.0,-131.594632,-84.74826888,-2183.64092,-447.0343265,9986.195349,-4128.6564,3514.791459,-263.8729543,-24.05480195,0.0,0.0
215,103.1078951,85.1215656,0.0,-62.54192227,-43.81182824,352.82014,83.14272331,1035.046897,-897.04692,751.3285929,-128.5302248,-48.83552814,0.0,0.0,209.520577,182.7230053,0.0,-130.873274,-84.06335864,-3610.495605,-742.3938579,9986.195349,-4128.6564,1791.222574,-262.5212405,-24.05184686,0.0,0.0
216,1029.00959,88.3249786,0.0,-60.25793446,-40.14622972,-723.0356947,-139.5601159,4357.351136,-897.04692,2779.339464,-132.7988229,-48.83223636,0.0,0.0,1495.259769,189.5994913,0.0,-124.6856766,-76.16978158,-7810.049005,-1611.70203,20506.04206,-4128.6564,7240.411135,-260.7276561,-24.04885809,0.0,0.0
217,1029.00959,88.39464442,0.0,-61.47821631,-41.49072062,-1778.910299,-358.1268371,4357.351136,-897.04692,1507.113056,-135.0170158,-48.82895995,0.0,0.0,1495.259769,189.7490368,0.0,-126.6270691,-78.35954285,-10566.35343,-2182.257669,20506.04206,-4128.6564,3916.759527,-263.9391214,-24.04585269,0.0,0.0
218,1085.0839,83.22407766,0.0,-58.60958296,-38.05493571,-1952.152124,-393.9885573,4596.796665,-897.04692,1532.148089,-129.7132654,-48.82576078,0.0,0.0,1844.749134,178.6498342,0.0,-119.7823943,-71.31337175,-12576.97504,-2598.456963,25235.86841,-4128.6564,6209.271047,-253.4481832,-24.0428564,0.0,0.0
219,1085.0839,83.56320446,0.0,-59.83398323,-39.34999855,-2547.943092,-517.3179209,4596.796665,-897.04692,815.1735152,-131.8620821,-48.82270141,0.0,0.0,1844.749134,179.377808,0.0,-122.1210564,-73.64155955,-14933.27793,-3086.212274,25235.86841,-4128.6564,3369.180073,-257.4183698,-24.03989489,0.0,0.0
220,818.6327744,562.0414394,0.0,-59.72050735,-39.40678689,-2120.090818,-428.75309,3566.843945,-897.04692,299.6143658,-129.8413967,-48.81985173,0.0,0.0,1621.276344,1206.485104,0.0,-121.8687318,-73.73529935,-13276.48763,-2743.257279,22571.28313,-4128.6564,2703.06431,-256.145479,-24.03700395,0.0,0.0
221,818.6327744,667.9226502,0.0,-62.5060731,-42.61029491,-2267.753132,-459.3197195,3566.843945,-897.04692,125.756632,-134.2151692,-48.81728934,0.0,0.0,1621.276344,1433.77102,0.0,-126.7165599,-79.20659028,-14355.05654,-2966.52162,22571.28313,-4128.6564,1409.963279,-264.8804818,-24.03422427,0.0,0.0
222,757.5970473,88.24562875,0.0,-62.03912781,-42.85098261,-2209.50264,-447.2623293,2982.877573,-897.04692,-391.1414161,-130.9778408,-48.81505946,0.0,0.0,1778.483878,189.4291579,0.0,-126.9427003,-80.39674267,-13326.12352,-2753.53303,21921.29113,-4128.6564,2000.285894,-263.2761291,-24.03158563,0.0,0.0
223,757.5970473,92.17289692,0.0,-61.73172297,-42.34886018,-2103.364373,-425.2920919,2982.877573,-897.04692,-262.5749071,-131.4377004,-48.81320412,0.0,0.0,1778.483878,197.8594803,0.0,-127.5720285,-80.24618745,-14145.647,-2923.174902,21921.29113,-4128.6564,1013.517871,-265.6759311,-24.02911681,0.0,0.0
224,49.37600542,284.2549576,0.0,-63.81174497,-39.33431006,-1364.717515,-272.3924986,282.6960301,-897.04692,-2072.697502,-129.951677,-48.81172474,0.0,0.0,129.0765215,610.185207,0.0,-132.7337981,-75.0218997,-6856.17951,-1414.255606,2035.360878,-4128.6564,-10075.9328,-263.7710174,-24.02682436,0.0,0.0
225,49.37600542,198.5911392,0.0,-62.92932812,-38.55688719,-648.4221043,-124.1195783,282.6960301,-897.04692,-1209.731898,-128.3500596,-48.81061514,0.0,0.0,129.0765215,426.2981952,0.0,-131.1289011,-73.66868388,-3300.73699,-678.2794419,2035.360878,-4128.6564,-5787.604206,-260.683037,-24.02471018,0.0,0.0
226,0.0,235.2727702,0.0,-66.12936928,-47.11261285,-611.3542735,-116.4466927,0.0,-897.04692,-1441.334221,-134.703801,-48.80986434,0.0,0.0,0.0,505.0394379,0.0,-138.4808288,-90.46239546,-1496.863423,-304.8780147,0.0,-4128.6564,-5632.010847,-274.3642183,-24.02277255,0.0,0.0
227,0.0,161.7950591,0.0,-65.43550554,-46.35232683,-129.9744837,-16.80116152,0.0,-897.04692,-861.7639469,-133.2491661,-48.80945221,0.0,0.0,0.0,347.3112746,0.0,-136.6380234,-88.7493679,411.8486695,90.22502284,0.0,-4128.6564,-3331.482486,-271.0792155,-24.02100602,0.0,0.0
228,0.0,390.7934947,0.0,-70.02703853,-53.17829677,-367.8306655,-66.0374081,0.0,-897.04692,-1139.11092,-142.9947031,-48.80937033,0.0,0.0,0.0,838.8821482,0.0,-146.8915907,-102.2824721,212.8740882,49.03695402,0.0,-4128.6564,-3551.141349,-291.584599,-24.01940944,0.0,0.0
229,0.0,313.4947082,0.0,-69.79275709,-53.1494139,-0.5201916559,9.995908648,0.0,-897.04692,-696.6722314,-142.0893662,-48.80960542,0.0,0.0,0.0,672.9516171,0.0,-146.2946874,-102.1532762,1346.390684,283.6745932,0.0,-4128.6564,-2184.890867,-289.6822771,-24.01797867,0.0,0.0
230,0.0,142.0880715,0.0,-67.95275087,-50.76660839,322.0627468,76.77068582,0.0,-897.04692,-311.4295255,-137.9738304,-48.81013152,0.0,0.0,0.0,305.0080113,0.0,-141.941501,-97.23354515,2271.780522,475.2300253,0.0,-4128.6564,-1076.76142,-280.8677314,-24.0167012,0.0,0.0
231,0.0,183.53879,0.0,-67.5725733,-50.10113287,386.3557837,90.07950834,0.0,-897.04692,-234.2647917,-137.5359131,-48.81092322,0.0,0.0,0.0,393.9866363,0.0,-140.8927529,-95.7858511,2500.463214,522.5671069,0.0,-4128.6564,-802.0584461,-279.5520695,-24.01556374,0.0,0.0
232,0.0,135.2355751,0.0,-68.29292147,-53.08515894,268.2171075,65.62501506,0.0,-897.04692,-375.5921378,-138.8007089,-48.81195074,0.0,0.0,0.0,290.2983579,0.0,-142.2709164,-101.4026206,2243.777823,469.4330211,0.0,-4128.6564,-1109.329549,-282.1014578,-24.01454992,0.0,0.0
233,0.0,266.1153378,0.0,-68.36900272,-52.92195312,354.8205756,83.55219001,0.0,-897.04692,-270.4430853,-139.4178765,-48.81319257,0.0,0.0,0.0,571.2464749,0.0,-142.398623,-101.0690137,2481.375195,518.6154904,0.0,-4128.6564,-821.6534374,-282.9986298,-24.01364739,0.0,0.0
234,0.0,128.2039421,0.0,-67.03090648,-55.20861208,482.7355481,110.0308846,0.0,-897.04692,-119.1826124,-136.2832561,-48.81461881,0.0,0.0,0.0,275.2041676,365.478627,-140.9753203,-106.4658795,2808.334342,586.2958679,0.0,-4128.6564,-429.8887269,-280.1246173,-24.0128456,0.0,0.0
235,0.0,255.4150609,0.0,-67.05164826,-55.13039384,476.2173377,108.6819438,0.0,-897.04692,-126.5022652,-136.8291658,-48.81620747,0.0,0.0,0.0,548.2771281,201.4266659,-141.2365313,-106.4790823,2799.526545,584.472507,0.0,-4128.6564,-440.1315376,-280.5136745,-24.01213644,0.0,0.0
236,0.0,109.5847284,0.0,-66.65154563,-53.6108329,436.0244384,100.3623698,0.0,-897.04692,-176.3740076,-135.4681765,-48.81792773,0.0,0.0,0.0,235.235933,0.0,-139.4478143,-102.8465341,2704.173826,564.7343631,0.0,-4128.6564,-559.7261077,-276.0106005,-24.01150302,0.0,0.0
237,0.0,107.9892649,0.0,-66.12520696,-52.82654355,452.106741,103.6917832,0.0,-897.04692,-157.8688134,-134.5598345,-48.81974787,0.0,0.0,0.0,231.8110915,0.0,-137.766461,-100.9169864,2747.10498,573.6209926,0.0,-4128.6564,-510.4157711,-273.5037301,-24.01092666,0.0,0.0
238,0.0,90.13245973,0.0,-65.05544514,-41.39943592,539.2778227,121.7365879,0.0,-897.04692,-54.84006136,-132.3708122,-48.82163582,0.0,0.0,0.0,193.4794526,0.0,-135.0589991,-78.80792945,2966.527406,619.0413234,0.0,-4128.6564,-250.6622175,-268.4150648,-24.01038783,0.0,0.0
239,0.0,87.65384784,0.0,-64.63865143,-40.83253637,511.7533223,116.0394146,0.0,-897.04692,-88.88638174,-131.5442416,-48.82355981,0.0,0.0,0.0,188.1588337,0.0,-133.9136461,-77.56655884,2899.626125,605.1926502,0.0,-4128.6564,-333.5026065,-266.3251519,-24.00986683,0.0,0.0
240,0.0,106.0633221,0.0,-65.55765848,-44.62427946,341.7909755,80.85760824,0.0,-897.04692,-292.168079,-133.4047679,-48.82548942,0.0,0.0,0.0,227.6768388,0.0,-135.8078154,-84.76336044,2477.014274,517.711889,0.0,-4128.6564,-839.8688452,-270.0520474,-24.00934452,0.0,0.0
241,0.0,192.2899484,0.0,-65.5232409,-44.40360951,400.173044,92.94309209,0.0,-897.04692,-221.505121,-133.5982621,-48.82740088,0.0,0.0,0.0,412.771981,0.0,-135.7025885,-84.3231178,2623.567652,548.0483267,0.0,-4128.6564,-662.8997586,-270.131857,-24.00880545,0.0,0.0
242,0.0,105.6358762,0.0,-64.00111757,-46.05106427,550.5418473,124.0698205,0.0,-897.04692,-43.30919175,-130.2967944,-48.82926607,0.0,0.0,0.0,226.759278,0.0,-132.1917566,-87.21518516,2999.111076,625.7856967,0.0,-4128.6564,-216.7760204,-262.9753749,-24.00823193,0.0,0.0
243,0.0,105.9859329,0.0,-63.56495562,-45.50549049,519.6015813,117.6655561,0.0,-897.04692,-81.43676225,-129.5119634,-48.83105699,0.0,0.0,0.0,227.5107141,0.0,-131.0853857,-86.0470424,2923.095625,610.0503689,0.0,-4128.6564,-310.4580922,-261.0447078,-24.00760627,0.0,0.0
244,0.0,105.3711059,0.0,-66.66556131,-49.24719685,76.52376887,25.94879839,0.0,-897.04692,-610.1975717,-135.5440359,-48.8327451,0.0,0.0,0.0,226.1909188,0.0,-137.8339532,-93.36235695,1818.619537,381.4236747,0.0,-4128.6564,-1630.771016,-273.8352618,-24.00691036,0.0,0.0
245,0.0,97.61069881,0.0,-66.20613301,-48.68876399,251.8948564,62.25093572,0.0,-897.04692,-399.406374,-134.6604522,-48.83430167,0.0,0.0,0.0,209.5323331,0.0,-136.6579585,-92.15121708,2255.686002,471.8962704,0.0,-4128.6564,-1105.381906,-271.6860954,-24.00612594,0.0,0.0
246,0.0,104.9143203,0.0,-67.40173576,-50.54736703,156.2044702,42.44331491,0.0,-897.04692,-512.5410307,-137.0224057,-48.83569847,0.0,0.0,0.0,225.2103774,0.0,-139.1754556,-95.70303899,2017.014441,422.4910729,0.0,-4128.6564,-1388.620656,-276.5249953,-24.00523497,0.0,0.0
247,0.0,105.328194,0.0,-66.99170821,-50.04057931,295.0799802,71.19079584,0.0,-897.04692,-345.7045635,-136.2346725,-48.8369079,0.0,0.0,0.0,226.0988037,0.0,-138.1288268,-94.60655308,2363.258853,494.1634561,0.0,-4128.6564,-972.6519331,-274.5779379,-24.00421974,0.0,0.0
248,0.0,184.0801017,0.0,-67.53345209,-52.2464979,294.6817874,71.10857698,0.0,-897.04692,-344.8739169,-137.5447306,-48.83790816,0.0,0.0,0.0,395.1486227,0.0,-139.2959245,-98.81258579,2362.687648,494.0449778,0.0,-4128.6564,-970.8473541,-277.0733541,-24.00306583,0.0,0.0
249,0.0,103.4544063,0.0,-66.97323086,-51.77111134,372.582943,87.23427458,0.0,-897.04692,-252.2710839,-136.1199452,-48.83867328,0.0,0.0,0.0,222.0765078,0.0,-137.9095712,-97.74988728,2556.945595,534.2561017,0.0,-4128.6564,-739.5159124,-273.9370347,-24.00175669,0.0,0.0
250,0.0,92.76857184,0.0,-65.19980289,-49.68012141,571.438548,128.3974891,0.0,-897.04692,-15.66720472,-132.7045012,-48.839177,0.0,0.0,0.0,199.1381635,0.0,-133.80984,-93.48889714,3053.596126,637.0624551,0.0,-4128.6564,-147.6766896,-266.3208539,-24.00027556,0.0,0.0
251,0.0,157.1073783,0.0,-65.03676204,-49.38048048,528.8123758,119.5739172,0.0,-897.04692,-67.21241327,-132.6088158,-48.83939796,0.0,0.0,0.0,337.2486411,0.0,-133.3824963,-92.8604665,2948.654864,615.3392688,0.0,-4128.6564,-274.8706654,-265.7929933,-23.99860841,0.0,0.0
252,0.0,84.44324393,0.0,-62.55514253,-48.57253511,739.0619154,163.095554,0.0,-897.04692,181.4651899,-127.515329,-48.83931152,0.0,0.0,0.0,181.2669116,0.0,-127.7293805,-90.93983839,3474.072837,724.1004023,0.0,-4128.6564,348.2379998,-254.7244213,-23.99673961,0.0,0.0
253,0.0,168.8290278,0.0,-62.45804941,-48.28999242,625.7541748,139.6407663,0.0,-897.04692,44.82504299,-127.6381227,-48.83889909,0.0,0.0,0.0,362.4104787,0.0,-127.4799653,-90.37457675,3193.43398,666.0077279,0.0,-4128.6564,9.439790353,-254.6598253,-23.99465688,0.0,0.0
254,0.0,269.5649942,0.0,-62.0902015,-38.52338827,639.8230847,142.5528758,0.0,-897.04692,61.23849654,-127.0713048,-48.83815124,0.0,0.0,0.0,578.6515499,0.0,-126.7488963,-72.10762877,3230.164177,673.6104017,0.0,-4128.6564,52.30027063,-253.189739,-23.9923534,0.0,0.0
255,0.0,239.0146142,0.0,-61.97500715,-38.54213213,571.8967168,128.4918915,0.0,-897.04692,-21.24982594,-126.5714272,-48.83705858,0.0,0.0,0.0,513.0717264,0.0,-126.526218,-72.14982742,3061.772131,638.7527244,0.0,-4128.6564,-152.0158659,-252.1258561,-23.98982278,0.0,0.0
256,0.0,202.3607658,0.0,-61.2869734,-45.18695683,573.4296572,128.8089102,0.0,-897.04692,-20.81058682,-125.1621561,-48.83560958,0.0,0.0,0.0,434.3901221,0.0,-124.9479469,-84.47139445,3066.419168,639.7140887,0.0,-4128.6564,-149.4993638,-249.0367217,-23.98705765,0.0,0.0
257,0.0,279.3509572,2432.288225,-71.19464348,-52.34350003,511.28917,115.9454891,0.0,-897.04692,-68.6937985,-152.2844965,-48.8339659,0.0,0.0,0.0,599.6582191,5878.648602,-152.9895907,-103.1366312,2912.507609,607.8537962,0.0,-4128.6564,-272.9315473,-311.3792874,-23.98416023,0.0,0.0
258,32.41871219,392.5246958,494.7534215,-67.44774306,-43.92833654,806.9476173,177.1464159,321.1296936,-897.04692,591.573843,-134.5648666,-48.8321696,0.0,0.0,65.87650032,842.5983658,2027.666884,-142.7798426,-85.26677836,2566.661959,536.2631271,2106.225652,-4128.6564,1384.365966,-279.8904606,-23.98116664,0.0,0.0
259,32.41871219,181.9461233,593.4724758,-67.07656783,-43.48183821,544.9805613,122.9188392,321.1296936,-897.04692,274.9379716,-134.1255413,-48.83025622,0.0,0.0,65.87650032,390.5677982,1887.535314,-141.3006652,-83.98793221,1910.401061,400.4164877,2106.225652,-4128.6564,590.1811157,-277.8162081,-23.97810652,0.0,0.0
260,74.65748448,176.7998307,489.9725661,-64.73554261,-42.77587127,475.939798,108.6269876,747.0992357,-897.04692,613.769036,-130.3216768,-48.82825789,0.0,0.0,151.7078708,379.5207029,1413.633005,-135.8425691,-82.30525741,-1148.413409,-232.7587496,6667.939345,-4128.6564,1450.62337,-268.5375792,-23.97500501,0.0,0.0
261,74.65748448,253.5831506,354.8814721,-64.44204356,-42.4480518,207.4187121,53.04269735,747.0992357,-897.04692,289.4991202,-130.1591924,-48.82620266,0.0,0.0,151.7078708,544.3447268,963.8449596,-135.1120208,-81.60524394,-1818.826623,-371.5349312,6667.939345,-4128.6564,640.4447548,-267.5514814,-23.97188319,0.0,0.0
262,102.9940724,346.6297796,182.1069626,-61.87472169,-41.35535979,223.8220868,56.4377639,1035.812547,-897.04692,593.5577347,-125.7081414,-48.82411565,0.0,0.0,209.2892835,744.0797712,482.4200936,-129.4178934,-79.31375126,-4290.519315,-883.1759651,10432.41799,-4128.6564,1411.453303,-257.4182332,-23.96875902,0.0,0.0
263,102.9940724,89.24417945,400.2269663,-61.66544139,-41.13366539,-35.37780232,2.782952813,1035.812547,-897.04692,280.5992535,-125.6064572,-48.82201881,0.0,0.0,209.2892835,191.5726592,882.5400067,-129.011332,-78.90763831,-4935.561032,-1016.700244,10432.41799,-4128.6564,632.367128,-256.9011654,-23.96564771,0.0,0.0
264,1015.223388,91.71418551,0.0,-59.92713538,-79.96675884,-1245.739241,-247.7622885,4367.540915,-897.04692,2156.392896,-130.580457,-48.8199735,0.0,0.0,1480.771849,196.8748047,0.0,-124.6816781,-152.5542229,-9201.336878,-1899.716481,20624.55836,-4128.6564,5676.748232,-257.9370591,-23.96257288,0.0,0.0
265,1015.223388,171.3859287,0.0,-60.637493,-80.95214834,-2072.153031,-418.8303422,4367.540915,-897.04692,1161.285394,-132.9567276,-48.81804445,0.0,0.0,1480.771849,367.8991538,0.0,-125.4188814,-153.5273252,-11380.85542,-2350.877443,20624.55836,-4128.6564,3049.372915,-261.2442595,-23.95955942,0.0,0.0
266,1166.282984,137.2911864,0.0,-60.16903009,-72.78100911,-2544.194887,-516.5433666,4924.663835,-897.04692,1149.100488,-133.4055218,-48.81630469,0.0,0.0,1980.166088,294.7109585,0.0,-124.0076602,-137.5400553,-14771.06701,-3052.651846,27132.58718,-4128.6564,5466.637612,-262.4690437,-23.95663919,0.0,0.0
267,1166.282984,87.53217312,0.0,-61.06912517,-73.79472716,-2999.122771,-610.713745,4924.663835,-897.04692,601.6581589,-135.0629352,-48.81482441,0.0,0.0,1980.166088,187.8976452,0.0,-125.6747396,-139.2474485,-16852.99609,-3483.611746,27132.58718,-4128.6564,2956.743964,-265.4671775,-23.95384311,0.0,0.0
268,1189.815338,88.7367294,0.0,-62.03991455,-52.22951673,-3184.519449,-649.0910952,4838.778292,-897.04692,293.8949694,-136.960467,-48.8136749,0.0,0.0,2351.614916,190.4833606,0.0,-128.1380424,-98.91417223,-18304.81524,-3784.138855,30527.53331,-4128.6564,4606.441656,-272.5676384,-23.95120817,0.0,0.0
269,1189.815338,163.0752339,0.0,-63.63128168,-53.42517062,-3328.34869,-678.8639022,4838.778292,-897.04692,123.3726516,-140.0409415,-48.81293058,0.0,0.0,2351.614916,350.0593136,0.0,-131.8305145,-101.4908321,-20066.66031,-4148.841287,30527.53331,-4128.6564,2486.701074,-279.3769883,-23.94877386,0.0,0.0
270,1300.149118,91.98886503,0.0,-65.34870143,-70.56512001,-3529.244574,-720.4494043,4952.232714,-897.04692,-1.490626645,-144.2048888,-48.81266877,0.0,0.0,3059.249445,197.4644352,0.0,-136.8898834,-135.537695,-21912.33689,-4530.896792,36510.63909,-4128.6564,6256.778088,-294.0824864,-23.94658933,0.0,0.0
271,1300.149118,241.5091922,0.0,-67.26736511,-72.51142462,-3567.531815,-728.3748003,4952.232714,-897.04692,-43.64888435,-148.2589642,-48.81297332,0.0,0.0,3059.249445,518.4266184,0.0,-141.8624805,-140.218459,-24271.57661,-5019.259804,36510.63909,-4128.6564,3419.254678,-304.1636924,-23.94470842,0.0,0.0
272,93.99398198,128.4073342,0.0,-70.2753698,-50.22537785,-2494.578133,-506.2732085,498.852213,-897.04692,-3207.726673,-142.5055355,-48.81384012,0.0,0.0,251.152929,275.6407714,0.0,-149.2484041,-97.80597541,-13263.10977,-2740.507492,3746.990898,-4128.6564,-16066.50905,-294.8305747,-23.94313794,0.0,0.0
273,93.99398198,262.1477256,0.0,-69.85749846,-49.51629377,-1367.442178,-272.9557708,498.852213,-897.04692,-1847.135822,-142.6415672,-48.81526616,0.0,0.0,251.152929,562.7295494,0.0,-148.4935995,-96.51136438,-7523.631317,-1552.435713,3746.990898,-4128.6564,-9138.902919,-294.887729,-23.9418837,0.0,0.0
274,0.0,157.4485877,0.0,-70.02873199,-46.45371235,-710.2104681,-136.9083995,0.0,-897.04692,-1553.233284,-142.1152704,-48.8172337,0.0,0.0,0.0,337.9810854,0.0,-148.9882748,-90.62163104,-2963.963403,-608.5846494,0.0,-4128.6564,-7383.44768,-293.8158301,-23.94094219,0.0,0.0
275,0.0,233.5697935,0.0,-69.74260729,-46.28231117,-191.975137,-29.63317058,0.0,-897.04692,-927.8706205,-141.9648835,-48.8197236,0.0,0.0,0.0,501.383807,0.0,-148.0640821,-90.0953127,-426.61216,-83.35307315,0.0,-4128.6564,-4321.685208,-292.9961163,-23.94030904,0.0,0.0
276,0.0,230.9209607,0.0,-68.8188896,-45.34379923,174.8534512,46.30096634,0.0,-897.04692,-486.9605313,-140.1092565,-48.8227147,0.0,0.0,0.0,495.6977898,0.0,-145.7440051,-88.05146053,1180.859651,249.3935233,0.0,-4128.6564,-2385.76276,-288.7004876,-23.93997804,0.0,0.0
277,0.0,157.0161725,0.0,-68.2545689,-44.5445685,303.6877082,72.97037471,0.0,-897.04692,-332.8301798,-138.732478,-48.82617926,0.0,0.0,0.0,337.0528575,0.0,-144.1073884,-86.23526365,1887.778327,395.7256812,0.0,-4128.6564,-1535.713898,-285.4985538,-23.93993951,0.0,0.0
278,0.0,349.3178691,0.0,-69.22959071,-46.98393686,296.3536487,71.45303614,0.0,-897.04692,-339.1245052,-141.2856292,-48.83010081,0.0,0.0,0.0,749.8500574,0.0,-146.335059,-91.06293563,2084.936995,436.5375766,0.0,-4128.6564,-1292.722077,-290.5195648,-23.94018659,0.0,0.0
279,0.0,217.3484297,0.0,-68.73366145,-46.7485207,371.0794424,86.9221767,0.0,-897.04692,-250.5145413,-139.6963049,-48.83445471,0.0,0.0,0.0,466.562827,0.0,-145.1180007,-90.50140036,2390.426381,499.7739873,0.0,-4128.6564,-927.3213906,-287.1939337,-23.94070726,0.0,0.0
280,0.0,135.1463476,0.0,-69.95064893,-48.12095139,180.9762024,47.57179013,0.0,-897.04692,-477.8010795,-141.8586391,-48.83920887,0.0,0.0,0.0,290.1068209,0.0,-147.5738577,-93.08667267,1982.736537,415.3823504,0.0,-4128.6564,-1414.873301,-291.7227272,-23.94148435,0.0,0.0
281,0.0,134.8913652,0.0,-69.430899,-47.51974338,305.3370596,73.31554758,0.0,-897.04692,-328.5822402,-140.9677429,-48.84432972,0.0,0.0,0.0,289.5594727,0.0,-146.1803292,-91.7372787,2329.924866,487.2505446,0.0,-4128.6564,-998.0716442,-289.4668459,-23.94249889,0.0,0.0
282,0.0,125.9036106,0.0,-71.80698396,-52.24689278,26.39793279,15.57627689,0.0,-897.04692,-660.6260495,-145.5968791,-48.84978166,0.0,0.0,0.0,270.2662474,0.0,-151.2392838,-100.9006614,1654.830158,347.5061948,0.0,-4128.6564,-1803.211766,-299.1645515,-23.94373002,0.0,0.0
283,0.0,124.4225343,0.0,-71.3338045,-51.61383458,216.5066245,54.92996571,0.0,-897.04692,-432.0424967,-144.7123043,-48.85552868,0.0,0.0,0.0,267.0869507,0.0,-149.9836829,-99.50625269,2140.041087,447.9451524,0.0,-4128.6564,-1219.782593,-296.9424111,-23.94515609,0.0,0.0
284,0.0,110.8540441,0.0,-72.78811734,-49.15588707,90.50401462,28.8486685,0.0,-897.04692,-581.3770851,-147.4556181,-48.86153367,0.0,0.0,0.0,237.9606618,0.0,-153.0154266,-94.75145511,1832.051966,384.191735,0.0,-4128.6564,-1585.882395,-302.5835494,-23.94675436,0.0,0.0
285,0.0,183.1416317,0.0,-72.62184107,-48.87889425,250.1105454,61.88851019,0.0,-897.04692,-388.8115625,-147.3685372,-48.86776466,0.0,0.0,0.0,393.1340913,0.0,-152.5467004,-94.14398026,2233.716746,467.336707,0.0,-4128.6564,-1101.654321,-302.0001207,-23.94850467,0.0,0.0
286,0.0,90.05108963,0.0,-72.55598632,-54.46765213,263.162447,64.5915826,0.0,-897.04692,-373.507374,-146.9113325,-48.87418392,0.0,0.0,0.0,193.3047825,0.0,-152.1949513,-104.7613944,2268.121884,474.4589593,0.0,-4128.6564,-1061.222461,-300.902712,-23.95038352,0.0,0.0
287,0.0,87.72472403,0.0,-71.99108932,-53.70183499,347.4617341,82.04289488,0.0,-897.04692,-272.7639403,-145.8975974,-48.88075321,0.0,0.0,0.0,188.3109774,0.0,-150.7255692,-103.0938914,2479.89858,518.2971459,0.0,-4128.6564,-808.1284973,-298.3798105,-23.95236679,0.0,0.0
288,0.0,82.05449391,0.0,-73.69464529,-55.88602044,123.7784964,35.74184752,0.0,-897.04692,-539.4258111,-149.2133313,-48.88743359,0.0,0.0,0.0,176.1391913,0.0,-154.3036025,-107.294865,1923.051695,403.0302678,0.0,-4128.6564,-1473.399838,-305.220169,-23.95442974,0.0,0.0
289,0.0,80.31210214,0.0,-73.17210085,-55.20409058,268.1155697,65.62101951,0.0,-897.04692,-366.1949804,-148.221164,-48.89418637,0.0,0.0,0.0,172.3989516,0.0,-152.944229,-105.8021394,2283.469187,477.6371271,0.0,-4128.6564,-1040.843455,-302.7500828,-23.95654758,0.0,0.0
290,0.0,76.12254319,0.0,-71.40036428,-51.76797386,504.2578061,114.5038674,0.0,-897.04692,-84.62206061,-144.7622123,-48.90097364,0.0,0.0,0.0,163.4055925,0.0,-148.8278976,-98.94200487,2873.291293,599.7307478,0.0,-4128.6564,-336.7001498,-294.975513,-23.95869589,0.0,0.0
291,0.0,76.59572308,0.0,-70.9353399,-51.1922789,483.159814,110.1379875,0.0,-897.04692,-110.9950177,-143.8463424,-48.9077584,0.0,0.0,0.0,164.4213263,0.0,-147.6364543,-97.69470706,2822.032186,589.1205586,0.0,-4128.6564,-400.8379294,-292.7048753,-23.96085077,0.0,0.0
292,0.0,76.10341401,0.0,-69.86429386,-46.25275924,549.600476,123.892601,0.0,-897.04692,-32.91809474,-141.7212433,-48.9145049,0.0,0.0,0.0,163.3645296,0.0,-145.108917,-88.08705536,2989.107917,623.7056776,0.0,-4128.6564,-204.0435637,-287.8362525,-23.96298901,0.0,0.0
293,0.0,76.53025478,0.0,-69.42653703,-45.82859596,510.6253042,115.8261219,0.0,-897.04692,-80.8253352,-140.8489803,-48.92117844,0.0,0.0,0.0,164.2807913,0.0,-144.0004508,-87.15865503,2893.358788,603.8860423,0.0,-4128.6564,-321.7621462,-285.6843357,-23.96508807,0.0,0.0
294,0.0,102.4234514,0.0,-68.43650821,-46.57138069,566.8565933,127.4673585,0.0,-897.04692,-14.78082825,-139.0143929,-48.92774712,0.0,0.0,0.0,219.8634473,0.0,-141.7006106,-88.41757757,3035.073593,633.2214291,0.0,-4128.6564,-154.9632554,-281.430995,-23.96712706,0.0,0.0
295,0.0,104.6136287,0.0,-68.06288374,-46.20665247,522.1968781,118.2241291,0.0,-897.04692,-69.4319557,-138.2597768,-48.93418037,0.0,0.0,0.0,224.5649091,0.0,-140.7725306,-87.6289682,2925.111171,610.4596132,0.0,-4128.6564,-289.5439225,-279.5726072,-23.96908597,0.0,0.0
296,0.0,103.8254655,0.0,-66.34432962,-50.33885414,653.0204166,145.3058991,0.0,-897.04692,85.18206391,-134.9622197,-48.9404486,0.0,0.0,0.0,222.873028,0.0,-136.8532007,-95.21165059,3252.800986,678.2917898,0.0,-4128.6564,98.63708243,-272.2297613,-23.97094549,0.0,0.0
297,0.0,104.2392935,0.0,-65.94270515,-49.93277058,573.1781978,128.7798172,0.0,-897.04692,-11.95651126,-134.1858707,-48.9465231,0.0,0.0,0.0,223.7613564,0.0,-135.8559892,-94.32641163,3055.281707,637.4056595,0.0,-4128.6564,-141.6636376,-270.3327091,-23.97268691,0.0,0.0
298,0.0,107.9616273,0.0,-65.9085957,-46.43813983,490.4681317,111.6600452,0.0,-897.04692,-111.8694253,-134.0969413,-48.95237645,0.0,0.0,0.0,231.7517642,0.0,-135.6755898,-87.65366793,2850.325993,594.980159,0.0,-4128.6564,-389.4599774,-269.9159788,-23.97429236,0.0,0.0
299,0.0,158.3874144,0.0,-65.73842952,-46.14474616,482.7919433,110.0722353,0.0,-897.04692,-121.3158579,-133.9088978,-48.95798565,0.0,0.0,0.0,339.9963823,0.0,-135.2540678,-87.0540322,2832.382866,591.2662327,0.0,-4128.6564,-411.7957017,-269.2358535,-23.97574654,0.0,0.0
300,0.0,85.31843796,0.0,-65.49663423,-45.86116319,441.1020237,101.443527,0.0,-897.04692,-172.3940187,-133.1440267,-48.96332398,0.0,0.0,0.0,183.145614,0.0,-134.5787407,-86.40485832,2729.078539,569.8825033,0.0,-4128.6564,-538.2066786,-267.5116465,-23.97703228,0.0,0.0
301,0.0,163.0062944,0.0,-65.34604693,-45.62943527,455.7794682,104.4828026,0.0,-897.04692,-154.6594148,-133.1568642,-48.96837024,0.0,0.0,0.0,349.9113273,0.0,-134.1904147,-85.91774855,2766.763481,577.6835145,0.0,-4128.6564,-493.0357975,-267.1954719,-23.97813549,0.0,0.0
302,0.0,262.5259826,0.0,-68.03740751,-49.50624474,153.5544767,41.92321059,0.0,-897.04692,-513.9684481,-138.627674,-48.9731107,0.0,0.0,0.0,563.5415207,0.0,-140.2276098,-93.55809681,2013.698421,421.7992357,0.0,-4128.6564,-1390.453406,-278.7262912,-23.97904645,0.0,0.0
303,0.0,195.1854536,0.0,-67.66302247,-49.27378223,293.0653761,70.80288129,0.0,-897.04692,-346.6284137,-137.5727202,-48.97752868,0.0,0.0,0.0,418.9875084,0.0,-139.3343245,-93.03754499,2361.135262,493.7188083,0.0,-4128.6564,-973.3811704,-276.4414054,-23.97975413,0.0,0.0
304,0.0,204.5291745,0.0,-69.28817189,-51.60678353,138.2724255,38.76158491,0.0,-897.04692,-530.2392546,-140.7920472,-48.98160782,0.0,0.0,0.0,439.0448551,0.0,-142.8574223,-97.5632183,1974.982132,413.7852125,0.0,-4128.6564,-1432.724798,-283.18401,-23.98024768,0.0,0.0
305,0.0,110.9078672,2088.153036,-77.08263045,-57.24209459,262.6048223,64.49919045,0.0,-897.04692,-358.7898508,-162.1675867,-48.98546973,0.0,0.0,0.0,238.0761991,5205.910545,-165.8777058,-112.9490624,2282.805958,477.5048189,0.0,-4128.6564,-1009.996576,-334.3684406,-23.98060722,0.0,0.0
306,8.430354316,182.8764799,640.7094962,-73.70523901,-56.34184539,705.4563788,156.1702237,83.24969541,-897.04692,244.4007449,-147.5822205,-48.98914646,0.0,0.0,17.13091611,392.5649132,2170.17558,-156.925686,-109.9923204,3151.613834,657.3481018,484.0872024,-4128.6564,495.6148805,-307.2412815,-23.98086088,0.0,0.0
307,8.430354316,487.3602562,254.18268,-73.43338716,-56.01104207,564.951375,127.0864163,83.24969541,-897.04692,74.49297419,-147.2597422,-48.99266525,0.0,0.0,17.13091611,1046.173553,1065.266446,-155.799017,-108.9633444,2799.547623,584.4704315,484.0872024,-4128.6564,69.08991715,-305.6600284,-23.98103187,0.0,0.0
308,17.79707894,177.1289867,488.2228188,-71.2214248,-51.22892911,685.3294067,152.0053695,175.9383006,-897.04692,308.4888718,-143.2666653,-48.99604968,0.0,0.0,36.16458512,380.2272732,1381.702451,-150.6605569,-99.36645763,2810.023306,586.6389203,1067.296221,-4128.6564,655.6385675,-296.3553809,-23.98113945,0.0,0.0
309,17.79707894,190.8663249,434.2568942,-71.02218434,-50.94866894,522.2411308,118.2467734,175.9383006,-897.04692,111.5310023,-143.152397,-48.99932044,0.0,0.0,36.16458512,409.7160132,1144.725543,-150.1331364,-98.75315832,2402.47172,502.2757543,1067.296221,-4128.6564,163.0029685,-295.6344743,-23.98119988,0.0,0.0
310,53.42013391,122.1537394,438.3787899,-68.51746645,-52.51665897,574.0910947,128.9803734,528.4486979,-897.04692,522.295355,-138.8196121,-49.0024968,0.0,0.0,108.5524758,262.2167276,1066.635353,-144.5626184,-101.5985287,1432.551341,301.5022416,3286.282992,-4128.6564,1201.483405,-285.8220026,-23.98122731,0.0,0.0
311,53.42013391,120.2787203,412.3530365,-68.36284779,-52.34856406,334.7072399,79.42855698,528.4486979,-897.04692,233.2944607,-138.7512901,-49.00559573,0.0,0.0,108.5524758,258.1917884,957.0322155,-144.2513496,-101.2838338,833.6034264,177.5200247,3286.282992,-4128.6564,478.1729631,-285.4416861,-23.98123383,0.0,0.0
312,186.4798406,199.5919244,229.9804873,-66.78001641,-58.0626136,144.2025124,39.99470796,1108.71973,-897.04692,581.8861205,-137.0074534,-49.00863717,0.0,0.0,303.4156318,428.446493,564.6674563,-140.9051175,-112.334316,-357.792401,-69.09891214,5649.099027,-4128.6564,1398.173329,-280.6407845,-23.98123124,0.0,0.0
313,186.4798406,470.6255398,0.0,-66.9716895,-58.17531041,-115.5932674,-13.78239641,1108.71973,-897.04692,269.0749959,-137.7662079,-49.01164228,0.0,0.0,303.4156318,1010.250603,0.0,-141.0840216,-112.3727229,-1020.898185,-206.3618095,5649.099027,-4128.6564,598.5651618,-281.4012989,-23.98123084,0.0,0.0
314,339.155985,95.96247294,159.5903516,-66.2870339,-68.82714431,-580.5447389,-110.0267324,1988.378889,-897.04692,587.4477856,-137.672657,-49.01463079,0.0,0.0,608.4375142,205.9942311,393.0083938,-140.1323927,-133.415203,-4389.120834,-903.5838954,11065.09883,-4128.6564,1949.182813,-281.4638688,-23.98124321,0.0,0.0
315,339.155985,240.1286697,26.330528,-66.09154623,-68.49988367,-839.7687333,-163.6854801,1988.378889,-897.04692,274.7649438,-137.8695666,-49.0176215,0.0,0.0,608.4375142,515.4631718,91.2752101,-139.8120176,-132.8691155,-5240.821062,-1079.885835,11065.09883,-4128.6564,921.427007,-281.710195,-23.98127811,0.0,0.0
316,406.4487239,167.9711969,8.132064876,-64.58417026,-59.17219051,-880.6383178,-172.1448609,2129.506245,-897.04692,364.2451088,-135.5483298,-49.02063235,0.0,0.0,807.4891348,360.5690484,17.2801685,-136.5011054,-114.6735745,-5815.582442,-1198.861427,12870.08937,-4128.6564,2027.854405,-276.8839602,-23.98134515,0.0,0.0
317,406.4487239,166.2766683,0.0,-64.68730828,-59.22142172,-1056.869679,-208.6241224,2129.506245,-897.04692,151.7617143,-135.7725133,-49.02367735,0.0,0.0,807.4891348,356.9315524,0.0,-136.4178282,-114.516087,-6687.396058,-1379.326823,12870.08937,-4128.6564,975.8182365,-277.1266957,-23.98145307,0.0,0.0
318,457.5631666,172.8999936,0.0,-68.67333498,-76.41991109,-1541.555308,-308.953407,1911.424876,-897.04692,-642.9474377,-144.1565493,-49.0267721,0.0,0.0,1067.33671,371.1492643,0.0,-145.4915023,-148.4539089,-7959.899017,-1642.734903,14101.64014,-4128.6564,691.0327269,-296.7012935,-23.98161317,0.0,0.0
319,457.5631666,97.97596,0.0,-68.52820511,-76.24492012,-1350.996666,-269.5071151,1911.424876,-897.04692,-413.387102,-143.7087966,-49.02992624,0.0,0.0,1067.33671,210.3164073,0.0,-145.2751063,-148.2068846,-8344.605319,-1722.369061,14101.64014,-4128.6564,226.1964734,-296.2052805,-23.98183354,0.0,0.0
320,39.36101259,128.2021893,161.277517,-70.46618572,-74.4528136,-864.6217261,-168.8268393,236.9006542,-897.04692,-1500.358572,-144.2031291,-49.03313056,0.0,0.0,101.2415778,275.2004049,310.9988002,-149.3135425,-144.6555728,-3531.291784,-726.0131023,1687.488351,-4128.6564,-6377.291027,-297.1997972,-23.98211061,0.0,0.0
321,39.36101259,136.2818991,220.7513436,-70.59551957,-74.56353421,-365.6130387,-65.53136845,236.9006542,-897.04692,-897.7227876,-144.5315058,-49.03637949,0.0,0.0,101.2415778,292.5444099,475.6106486,-149.6514648,-144.9325514,-1360.559416,-276.6714335,1687.488351,-4128.6564,-3756.504053,-297.9124034,-23.98244248,0.0,0.0
322,0.0,158.6777976,248.7064314,-72.36031537,-68.73361545,-194.9416348,-30.20170713,0.0,-897.04692,-925.6102803,-147.5403136,-49.03966804,0.0,0.0,0.0,340.6197224,548.1751854,-153.6373047,-133.813841,210.7505796,48.58981522,0.0,-4128.6564,-3541.003508,-304.3296704,-23.98282724,0.0,0.0
323,0.0,162.4074339,264.7143411,-72.42906278,-68.83608757,91.61114508,29.1154065,0.0,-897.04692,-579.6617074,-147.6156684,-49.0429926,0.0,0.0,0.0,348.6258059,587.1056909,-153.8415973,-134.0641666,1331.717071,280.6299691,0.0,-4128.6564,-2187.888193,-304.4379041,-23.98326345,0.0,0.0
324,0.0,231.7690141,197.7695439,-72.48958779,-60.81271818,251.2867212,62.16894577,0.0,-897.04692,-386.954661,-147.5902419,-49.04635014,0.0,0.0,0.0,497.5182317,450.5300732,-154.0188671,-118.4754398,1955.940012,409.8442187,0.0,-4128.6564,-1434.50192,-304.3865,-23.98374983,0.0,0.0
325,0.0,168.3668866,273.9093822,-72.52859469,-60.86306754,340.1928756,80.5732211,0.0,-897.04692,-279.5886481,-147.6424367,-49.04973845,0.0,0.0,0.0,361.4184408,618.7974204,-154.1445635,-118.6064771,2303.484807,481.7861022,0.0,-4128.6564,-1014.931291,-304.4699145,-23.98428541,0.0,0.0
326,0.0,213.2552067,229.1780611,-73.55750809,-52.00211336,273.4695534,66.76220076,0.0,-897.04692,-358.2614125,-149.5005977,-49.05315561,0.0,0.0,0.0,457.7762638,529.8695714,-156.4655618,-101.4257829,2206.96306,461.8062215,0.0,-4128.6564,-1127.402648,-308.4996005,-23.98486924,0.0,0.0
327,0.0,289.668053,160.1671757,-73.58366899,-52.0385243,351.2617095,82.86589009,0.0,-897.04692,-264.3341153,-149.528605,-49.05660014,0.0,0.0,0.0,621.8050246,401.0365889,-156.5254738,-101.4995649,2439.541753,509.9501415,0.0,-4128.6564,-846.5380461,-308.6409589,-23.98550045,0.0,0.0
328,0.0,214.1872273,251.2432315,-74.91422073,-53.47692095,239.4485511,59.7212848,0.0,-897.04692,-396.6889913,-152.1280216,-49.06007117,0.0,0.0,0.0,459.7769507,600.9521699,-159.4876235,-104.3914028,2182.027763,456.644886,0.0,-4128.6564,-1151.755059,-314.2425137,-23.98617834,0.0,0.0
329,0.0,135.0530084,333.4598419,-74.92648991,-53.4932262,330.4976115,78.56916416,0.0,-897.04692,-286.7778061,-152.1387702,-49.06356799,0.0,0.0,0.0,289.9064578,781.6338436,-159.5178321,-104.4259084,2420.590576,506.027538,0.0,-4128.6564,-863.7730675,-314.2783164,-23.98690224,0.0,0.0
330,0.0,126.0642164,351.0413446,-74.599694,-57.9511969,419.9409707,97.08466861,0.0,-897.04692,-179.3925338,-151.5616567,-49.06709015,0.0,0.0,0.0,270.6110058,820.3414835,-158.795022,-113.1091835,2650.113126,553.5388652,0.0,-4128.6564,-588.0025101,-313.0142267,-23.98767158,0.0,0.0
331,0.0,178.8701113,300.101693,-74.60393884,-57.95498427,431.4548488,99.46877559,0.0,-897.04692,-165.4823767,-151.5702817,-49.07063721,0.0,0.0,0.0,383.9647927,712.7666281,-158.8062946,-113.1181691,2682.496562,560.2424049,0.0,-4128.6564,-548.8924369,-313.0365105,-23.9884858,0.0,0.0
332,0.0,172.1615719,0.0,-74.32821265,-56.24589175,324.626961,77.3561377,0.0,-897.04692,-295.938365,-150.051269,-49.07418732,0.0,0.0,0.0,369.5641592,0.0,-157.7845504,-109.4806112,2417.861153,505.4630511,0.0,-4128.6564,-871.7921714,-309.5506892,-23.98933535,0.0,0.0
333,0.0,170.5752085,0.0,-73.62691517,-55.08399006,379.6382085,88.74419624,0.0,-897.04692,-230.5519676,-149.0348323,-49.07771533,0.0,0.0,0.0,366.158852,0.0,-155.6971463,-106.8083137,2556.742685,534.2117078,0.0,-4128.6564,-706.9492887,-306.7625155,-23.99020318,0.0,0.0
334,0.0,98.44040921,0.0,-74.11549672,-55.7591296,256.4329728,63.24143165,0.0,-897.04692,-378.4121371,-149.8791887,-49.08118981,0.0,0.0,0.0,211.3133997,0.0,-156.3202956,-107.8345547,2250.468209,470.8130704,0.0,-4128.6564,-1075.184095,-308.1999577,-23.99106815,0.0,0.0
335,0.0,272.9601947,0.0,-74.23527462,-55.40303677,339.7744847,80.49382856,0.0,-897.04692,-276.9062185,-150.7877977,-49.08459045,0.0,0.0,0.0,585.9397293,0.0,-156.4354684,-107.0518303,2459.661986,514.1163576,0.0,-4128.6564,-821.40533,-309.4808112,-23.99191497,0.0,0.0
