,zone1_livingroom: total solar gains,zone1_livingroom: total internal gains,zone1_livingroom: total heating or cooling system gains,zone1_livingroom: total energy to change internal temperature,zone1_livingroom: total thermal_bridges,zone1_livingroom: total infiltration_ventilation,zone1_livingroom: total fabric,zone2_restofdwelling: total solar gains,zone2_restofdwelling: total internal gains,zone2_restofdwelling: total heating or cooling system gains,zone2_restofdwelling: total energy to change internal temperature,zone2_restofdwelling: total thermal_bridges,zone2_restofdwelling: total infiltration_ventilation,zone2_restofdwelling: total fabric
,[kWh],[kWh],[kWh],[kWh],[kWh],[kWh],[kWh],[kWh],[kWh],[kWh],[kWh],[kWh],[kWh],[kWh]
,1.5705308,11.39763614,7.601248989,0.06655677826,-9.41755357,-8.139030015,-3.079389122,2.997094916,24.46630668,18.28575535,0.1670360296,-19.58384545,-15.49755868,-10.83478884
""
Timestep,zone1_livingroom: solar gains,zone1_livingroom: internal gains,zone1_livingroom: heating or cooling system gains,zone1_livingroom: energy to change internal temperature,zone1_livingroom: thermal_bridges,zone1_livingroom: infiltration_ventilation,zone1_livingroom: fabric,zone2_restofdwelling: solar gains,zone2_restofdwelling: internal gains,zone2_restofdwelling: heating or cooling system gains,zone2_restofdwelling: energy to change internal temperature,zone2_restofdwelling: thermal_bridges,zone2_restofdwelling: infiltration_ventilation,zone2_restofdwelling: fabric
index,[W],[W],[W],[W],[W],[W],[W],[W],[W],[W],[W],[W],[W],[W]

0,0.0,33.40540952,0.0,89.91903015,-52.97117374,-57.71425013,-12.6390158,0.0,71.70846515,0.0,150.6402742,-111.1513346,-111.0436586,-0.1537460633
1,0.0,32.77334041,0.0,32.69872827,-52.25962956,-56.53810889,43.32566977,0.0,70.35165779,0.0,95.19424331,-109.0033762,-108.1310749,51.58854997
2,0.0,31.21918496,0.0,24.80410921,-49.76069708,-64.34992694,58.08732985,0.0,67.01548849,0.0,67.70293858,-103.1148702,-122.2696085,90.6660517
3,0.0,31.38933496,0.0,19.17305854,-49.34347968,-63.66674859,62.44783476,0.0,67.38073459,0.0,50.33704423,-101.9790675,-120.6506191,104.9119079
4,0.0,31.17476923,0.0,15.43601604,-47.7014626,-61.08351549,62.17419282,0.0,66.92014513,0.0,38.83625909,-98.19552802,-115.2974381,107.7365619
5,0.0,31.31244636,0.0,15.29579187,-47.36861688,-60.57351823,61.3338969,0.0,67.21568455,0.0,36.81729961,-97.3647842,-114.1641165,107.4959166
6,0.0,30.99551123,0.0,17.15765751,-45.03607584,-68.51886593,65.40177304,0.0,66.53534768,0.0,39.17110259,-92.12006927,-128.5107623,114.9243813
7,0.0,31.20896463,0.0,15.64042455,-44.6957307,-67.98354444,65.82988597,0.0,66.9935494,0.0,35.90151108,-91.30998926,-127.3478664,115.7627951
8,0.0,30.91510777,0.0,14.33388844,-43.73075659,-66.43824749,64.92000787,0.0,66.36275263,0.0,32.68166461,-89.11894172,-124.147168,114.2216925
9,0.0,31.00164303,0.0,14.35656282,-43.41834906,-65.94862715,64.00877036,0.0,66.54851028,0.0,32.5057383,-88.38548376,-123.0974386,112.4286738
10,0.0,32.41166431,0.0,13.19873054,-42.80460667,-64.97075145,62.16496328,0.0,69.5752794,0.0,29.59848301,-86.99081498,-121.0699598,108.8870124
11,0.0,32.22603211,0.0,13.67023332,-42.5071341,-64.50541923,61.11628789,0.0,69.17679904,0.0,30.56558731,-86.3011345,-120.0843748,106.643123
12,0.0,34.65465907,0.0,7.513420772,-40.3844575,-54.76166713,52.97804479,0.0,74.39011969,0.0,16.4676796,-81.56869855,-101.4195223,92.13042152
13,0.0,64.76405001,0.0,-3.384899758,-40.45811497,-54.85447981,33.93344453,0.0,139.0233106,0.0,-11.11790559,-81.81956245,-101.7183318,55.6324892
14,0.0,70.89163344,755.2597039,-354.2240684,-46.20706578,-56.51574747,-369.2044558,0.0,152.176857,1538.133053,-818.671802,-95.93117459,-107.5861748,-668.1207586
15,0.0,136.6784906,146.5837819,3.87194701,-46.12280986,-58.37769807,-182.6337116,0.0,293.3957381,479.4765645,57.78252557,-94.62737239,-109.8205487,-626.2069071
16,0.0,43.40529478,194.0200336,11.91187425,-44.55748024,-45.88125918,-158.8984632,0.0,93.17434252,511.9196793,39.04551151,-90.8391113,-85.7675889,-467.5328331
17,0.0,40.17545447,176.9550694,10.56509391,-44.32757739,-45.56645138,-137.801589,0.0,86.24112737,425.0438996,26.14591961,-90.249156,-85.06481854,-362.116972
18,0.2263382199,39.03924983,149.7032075,9.446185085,-40.85672266,-38.83470106,-118.723557,0.4599309724,83.80213644,336.1483719,19.48656027,-82.54136217,-71.93888313,-285.4167543
19,0.2263382199,99.17305949,0.0,54.2974217,-39.6751778,-37.66827397,-76.35336763,0.4599309724,212.8861158,0.0,91.15247243,-80.48460205,-70.06566679,-153.9482504
20,1.071759636,89.05171713,0.0,35.870929,-32.0374746,-51.44827709,-42.50865407,2.177871028,191.1595172,0.0,45.61947397,-64.19223638,-94.52151773,-80.24310807
21,1.071759636,99.16431017,0.0,13.59364576,-31.74166862,-50.92949501,-31.15855194,2.177871028,212.8673345,0.0,11.63572014,-63.92968854,-94.05412008,-68.697117
22,5.912088461,34.94699437,0.0,28.04430628,-27.21304749,-31.82326654,-9.867075084,12.01366961,75.01765026,0.0,48.12704546,-54.12203214,-58.03330324,-23.00302994
23,5.912088461,34.5044759,0.0,17.2493276,-26.83769164,-31.3581757,0.5299753761,12.01366961,74.06773465,0.0,27.39195564,-53.50396134,-57.32277251,-2.646626049
24,3.546382722,87.41830455,0.0,-15.70551318,-26.52639315,-30.93141316,-17.80136779,7.206433161,187.6532136,0.0,-44.1836369,-53.04729885,-56.7179407,-40.91077026
25,3.546382722,67.47258418,0.0,-0.3941701274,-26.53497053,-30.96229451,-13.12753173,7.206433161,144.8374835,0.0,-0.4732491915,-53.05797723,-56.76763954,-41.74505075
26,3.067248701,50.80892273,0.0,12.53548062,-27.24178086,-31.85986444,-7.310006754,6.137451801,109.0670618,0.0,23.74472877,-54.70263228,-58.66137967,-25.58523045
27,3.067248701,58.60785774,0.0,3.084677819,-27.1746564,-31.76878226,-5.816345608,6.137451801,125.8083522,0.0,4.982148149,-54.59021532,-58.51765759,-23.8200792
28,2.975863359,59.0902687,0.0,4.521751295,-27.40279034,-36.22133401,-2.96375901,6.036205438,126.8439015,0.0,8.315790686,-55.12938821,-66.81722664,-19.24928277
29,2.975863359,73.50929179,0.0,-3.329618938,-27.47524487,-36.31295107,-9.367340268,6.036205438,157.7959548,0.0,-11.48609927,-55.38856002,-67.12366586,-29.83383505
30,1.856330882,112.1695255,0.0,-17.2679051,-32.42242497,-40.61188292,-23.72364341,4.034045898,240.7844905,0.0,-37.58186054,-66.41189535,-76.27621355,-64.548567
31,1.856330882,135.9733847,0.0,-24.64603294,-32.95873761,-41.26854866,-38.95639637,4.034045898,291.882149,0.0,-40.72826869,-67.3308861,-77.30339654,-110.5536436
32,0.9639808456,49.67033229,0.0,23.49435974,-31.46789608,-15.35657537,-27.30420142,2.072687653,106.6229495,0.0,45.84897944,-64.11592188,-28.68984348,-61.73885125
33,0.9639808456,115.3344047,160.3956294,-122.8471917,-34.14112556,-16.57155731,-103.1341404,2.072687653,247.5782593,226.5235085,-152.715951,-67.56179743,-30.06922972,-225.8274773
34,0.0,189.1473585,0.0,-20.20296213,-34.90728428,-23.00128652,-111.0358255,0.0,406.0260586,0.0,-47.30900873,-69.35608569,-41.90407505,-247.4568891
35,0.0,506.0947375,0.0,-210.3030044,-39.48360535,-26.13668032,-230.1714475,0.0,1086.389222,0.0,-367.3139934,-77.6441414,-47.12788336,-594.3032036
36,0.0,94.52178591,0.0,120.5019333,-36.86141012,-40.62439321,-137.5379159,0.0,202.9016345,0.0,211.0377951,-72.88229449,-73.64997409,-267.407161
37,0.0,62.91827953,0.0,82.63767034,-35.06316423,-38.20864627,-72.28413937,0.0,135.0611569,0.0,114.7352786,-70.29341305,-70.23616578,-109.2668566
38,0.0,57.34022603,0.0,45.41803142,-35.05443029,-26.83222964,-40.87159752,0.0,123.0872383,0.0,53.6638296,-71.26297492,-50.01651367,-55.47157928
39,0.0,87.65134054,0.0,9.038565715,-34.85774561,-26.53560672,-35.29655392,0.0,188.1534515,0.0,1.47740119,-71.2296389,-49.71942392,-68.68178985
40,0.0,54.03257032,17.10192005,10.44411273,-33.65088538,-16.75108429,-31.17663343,0.0,115.9869836,0.0,33.50504587,-68.29320262,-31.17163108,-50.02719578
41,0.0,53.65956069,32.60221348,-1.388926845,-33.68110927,-16.7125406,-34.47919746,0.0,115.1862765,0.0,23.63634564,-67.75987323,-30.82934467,-40.23340426
42,0.0,81.41123751,11.01471954,-0.7328593147,-33.69705674,-21.68614197,-36.30989902,0.0,174.7583692,0.0,-11.28305454,-68.01446354,-40.13536565,-55.32548541
43,0.0,50.68759505,43.39958262,-0.6710894795,-33.71166005,-21.71068788,-37.99374027,0.0,108.8066183,0.0,34.21343084,-67.24247329,-39.7075182,-36.07005768
44,0.0,45.19310381,0.0,30.94250288,-33.0383324,-23.03547782,-20.06179647,0.0,97.01207548,0.0,31.98955735,-66.52066242,-42.52764085,-19.95332956
45,0.0,44.54254696,0.0,20.60163146,-32.59002839,-22.75051658,-9.803633445,0.0,95.6155821,0.0,22.96959257,-66.00237761,-42.24756896,-10.3352281
46,0.0,37.38758206,0.0,20.62020883,-32.79438013,-38.77159567,13.55818491,0.0,80.25664597,0.0,41.03636947,-66.5300549,-72.12199808,17.35903754
47,0.0,36.49442866,0.0,13.71946288,-32.49583628,-38.40514897,20.68709372,0.0,78.33939184,0.0,29.46576292,-65.8651908,-71.37618142,29.43621746
48,0.0,33.43061557,0.0,5.909108535,-33.34684049,-19.79762884,13.80474523,0.0,71.76257278,0.0,14.25161872,-67.72404795,-36.86693334,18.5767898
49,0.0,32.72078135,0.0,8.158713021,-33.16930194,-19.666902,11.95670957,0.0,70.23883386,0.0,18.03068466,-67.31720442,-36.59833377,15.64601967
50,0.0,31.08048272,0.0,9.043311613,-32.64598399,-19.25871634,11.78090601,0.0,66.71774853,0.0,19.71781472,-66.14548258,-35.77942707,15.4893464
51,0.0,31.2072202,0.0,8.910992027,-32.4520754,-19.10853464,11.44239781,0.0,66.98980477,0.0,19.28509496,-65.7103346,-35.47759778,14.91303264
52,0.0,30.94895157,0.0,14.3374155,-32.79314453,-31.57257278,19.07935024,0.0,66.43540215,0.0,30.83661489,-66.46815867,-58.67811816,27.8742598
53,0.0,31.05785329,0.0,11.20719822,-32.54926909,-31.27899376,21.56321134,0.0,66.66917193,0.0,24.63999418,-65.912183,-58.07815987,32.68117675
54,0.0,30.7120426,0.0,13.38842657,-36.1762888,-31.70493222,23.78075185,0.0,65.92685042,0.0,30.61679641,-73.94306704,-59.4204446,36.81986481
55,0.0,82.94871057,0.0,-12.87003756,-36.45634863,-31.88681987,-1.735504501,0.0,178.0587278,0.0,-32.80632245,-74.68330736,-59.89591471,-10.67318331
56,0.0,29.23900919,0.0,26.90231958,-35.87093782,-43.35932731,23.08893636,0.0,62.76481869,0.0,59.73903099,-73.33535867,-81.28096376,32.11247275
57,0.0,29.32322908,0.0,16.84021097,-35.50448461,-42.77755492,32.11859948,0.0,62.94560615,0.0,39.49427076,-72.44421179,-80.03354537,50.03788026
58,0.0,30.73074398,0.0,12.22085034,-36.21814148,-39.74712626,33.01367343,0.0,65.96699504,0.0,29.1021949,-73.96798123,-74.43187492,53.33066621
59,0.0,30.54796177,0.0,11.46512814,-35.96865333,-39.43965367,33.3952171,0.0,65.57463248,0.0,26.55771144,-73.36873428,-73.76588563,55.00227599
60,0.0,86.54754046,0.0,-19.2040314,-35.40695472,-30.71869229,-1.217862055,0.0,185.7840206,0.0,-47.26811651,-72.25485984,-57.4800094,-8.781034819
61,0.0,95.13222697,0.0,-9.500485522,-35.61369105,-30.99314794,-19.02490245,0.0,204.2120148,0.0,-27.47295421,-72.87475829,-58.15157064,-45.71273165
62,0.0,140.8018995,461.2382171,-240.3922753,-39.53865292,-34.12539904,-287.9837893,0.0,302.2470986,758.327683,-465.2201665,-80.4647243,-63.67911466,-451.2107761
63,0.0,41.82442042,175.4646121,2.134569167,-39.4922034,-35.18334724,-144.748051,0.0,89.78081806,447.1879536,36.62514441,-79.63831626,-65.055419,-428.9001808
64,0.0,96.05086424,105.222608,9.899133199,-38.95026225,-47.52477683,-124.6975663,0.0,206.1839729,252.846718,26.9143405,-78.30421235,-87.60531286,-320.0355062
65,0.0,70.83134693,115.026498,8.265304516,-38.77040421,-47.24850737,-108.1042378,0.0,152.0474452,245.6652637,17.3315336,-77.91314444,-87.06309783,-250.0680003
66,1.09679224,38.44788207,125.9465423,9.554330858,-33.33801617,-53.57016479,-88.13736654,2.228738573,82.53269908,247.4201537,16.61829823,-65.90920993,-97.11022373,-185.7804559
67,1.09679224,130.1469888,0.0,21.34082793,-32.87362679,-52.80956545,-66.90141673,2.228738573,279.3751355,0.0,19.28052406,-65.47416509,-96.44296686,-138.9672662
68,3.966287549,37.51034102,0.0,64.86135178,-34.0744444,-50.92662967,-21.33690628,8.059701492,80.52016188,0.0,95.59388286,-69.13166921,-94.73900408,-20.30307294
69,3.966287549,71.32393155,0.0,17.31401719,-33.69768087,-50.31410636,-8.592449061,8.059701492,153.1048334,0.0,21.32134023,-68.65057549,-93.9873819,-19.84791776
70,5.506735222,45.63519616,0.0,16.23839559,-34.97697352,-30.36300172,-2.040351729,11.18997086,97.96107639,0.0,26.99074261,-71.67560764,-57.05181678,-7.414365447
71,5.506735222,45.19155851,0.0,7.143426304,-34.82152823,-30.16758311,7.147391296,11.18997086,97.00875833,0.0,19.09495367,-71.24475,-56.59540562,0.5464727551
72,14.65814537,77.14215617,0.0,-16.88973936,-34.20946921,-33.10540458,-7.595688398,24.12494006,165.5943064,0.0,-36.02981315,-69.87729501,-62.00465112,-21.80748715
73,14.65814537,78.20881345,0.0,-12.69211362,-34.48565731,-33.44435231,-12.24483558,24.12494006,167.8840061,0.0,-25.31982879,-70.44861044,-62.64585375,-33.59465315
74,6.40042027,105.5263687,0.0,-3.693640866,-42.40275318,-44.55646344,-21.27393151,12.82098567,226.524208,0.0,-12.30349897,-88.16966601,-84.95158216,-53.92044654
75,6.40042027,37.68312963,0.0,39.00685252,-41.55394038,-43.67884359,2.142381557,12.82098567,80.89107204,0.0,74.73290535,-86.48339624,-83.35415921,1.3925924
76,7.773446043,44.85036791,0.0,7.857146754,-41.0564341,-43.00024755,23.57572095,15.65695535,96.27635436,0.0,28.25242269,-85.1190999,-81.74333856,26.67670606
77,7.773446043,45.04330178,0.0,6.655902495,-40.91159762,-42.81639209,24.2553394,15.65695535,96.69050859,0.0,19.68204589,-84.67499514,-81.25581103,33.90129634
78,16.28152615,204.1094614,0.0,-75.61145469,-43.21000878,-42.27722506,-59.29229897,37.04478699,438.1438937,0.0,-185.4188126,-90.31239653,-81.02240041,-118.4350711
79,16.28152615,81.40695042,0.0,11.63666727,-42.95678784,-41.9280165,-24.4403395,37.04478699,174.7491664,0.0,27.51705956,-89.69150289,-80.27114159,-69.34836851
80,0.9918297996,56.6679986,0.0,37.44169506,-41.16244382,-46.56735234,-7.371727303,2.137150027,121.6442265,0.0,65.73694089,-86.02778764,-89.23901521,-14.25151461
81,0.9918297996,84.73593828,234.8561926,-107.2690141,-43.4966827,-49.25015956,-120.5681042,2.137150027,181.8952129,287.7069763,-134.8614933,-89.07079605,-92.47459939,-155.3324506
82,0.0,109.8752761,43.18919974,-1.944761349,-43.53900189,-35.1171213,-72.46359135,0.0,235.8596265,77.54217012,3.877114077,-88.98331303,-65.80889972,-162.4866979
83,0.0,65.35816518,80.08322444,1.971908398,-43.49609196,-35.07991319,-68.83729287,0.0,140.2986456,156.6867168,3.872770387,-88.89592802,-65.73940353,-146.2228012
84,0.0,120.1086488,20.32553847,2.114083804,-43.12355821,-34.69206854,-64.73264426,0.0,257.8267106,26.8145174,2.879554859,-88.10414388,-64.99015346,-134.4264856
85,0.0,93.69676888,43.59666577,1.774017245,-43.08495452,-34.6538047,-61.32869268,0.0,201.1306427,76.43073376,1.9558281,-88.06001266,-64.94409177,-126.5131001
86,0.0,89.13049539,42.76274934,1.712114912,-42.06810786,-33.59772928,-57.9395225,0.0,191.3286236,75.11558157,1.809549804,-85.83875207,-62.8602295,-119.5547734
87,0.0,88.74030338,41.37242275,1.19787322,-42.04204141,-33.57186673,-55.69669121,0.0,190.4910326,72.81094776,1.009558389,-85.81597244,-62.83410629,-115.66146
88,0.0,351.3133452,0.0,-121.7619932,-44.69165632,-60.46756427,-124.3921315,0.0,754.1335711,0.0,-219.6210485,-90.77149148,-112.6110779,-331.1299532
89,0.0,156.0749948,0.0,39.41558389,-43.83394928,-59.72436825,-91.93226112,0.0,335.0325137,0.0,70.79240384,-89.174135,-111.4077719,-205.2430107
90,0.0,50.51972905,0.0,73.01247769,-42.57168343,-38.35503666,-42.60548664,0.0,108.4462751,0.0,116.7477193,-87.26665494,-72.09174315,-65.83559625
91,0.0,49.8677692,32.62547501,24.26195942,-42.04372846,-37.9699794,-26.74149576,0.0,107.04677,21.66968557,60.50450794,-85.90143406,-71.1336629,-32.18586656
92,0.0,44.38078446,0.0,58.95067902,-39.12827589,-78.13009656,13.92690897,0.0,95.26834073,0.0,85.17788245,-80.34543431,-147.1039963,47.00320744
93,0.0,73.66874594,0.0,4.408337249,-39.0323478,-77.91503623,38.87030083,0.0,158.138241,0.0,18.43780791,-79.92940448,-146.298138,49.65149356
94,0.0,36.04597021,0.0,20.20954615,-39.2456358,-65.38736406,48.3774835,0.0,77.37672539,0.0,51.52495632,-80.22041778,-122.5527327,73.8714688
95,0.0,35.16586026,0.0,15.89171421,-38.89982245,-64.7914328,52.63368079,0.0,75.48747048,0.0,39.1651646,-79.33669685,-121.165701,85.84976277
96,0.0,42.92855568,0.0,5.560414462,-38.77882446,-52.32557968,42.615434,0.0,92.15096846,0.0,14.14845557,-79.01745176,-97.76379418,70.4818219
97,0.0,44.06028447,0.0,8.418602831,-38.59563055,-52.07207962,38.18882287,0.0,94.58035148,0.0,18.49666172,-78.60009395,-97.23563767,62.75871843
98,0.0,42.40633883,0.0,13.27217977,-38.63334986,-58.17356978,41.12840104,0.0,91.02997132,0.0,28.82444623,-78.6765105,-108.6285686,67.45066155
99,0.0,75.35879806,0.0,-3.420856446,-38.70778977,-58.27194304,25.0417912,0.0,161.7661278,0.0,-10.96074623,-78.92382826,-108.9443942,37.06284091
100,0.0,42.27438521,0.0,16.15588159,-39.98887798,-49.34251138,30.90112257,0.0,90.74671804,0.0,36.49149117,-81.73448597,-92.47471177,46.97098853
101,0.0,32.90442896,0.0,17.20440377,-39.61449971,-48.80115088,38.30681787,0.0,70.63305409,0.0,40.07784539,-80.83017134,-91.30299155,61.42226341
102,0.0,30.71207609,0.0,13.9424318,-41.27028393,-41.93120804,38.54698407,0.0,65.92692232,0.0,33.64553395,-84.4318551,-78.65781332,63.51721215
103,0.0,30.90464466,0.0,12.8964683,-40.98964895,-41.57579941,38.76433539,0.0,66.34029239,0.0,30.30236312,-83.748114,-77.88916798,64.99462647
104,0.0,30.58980805,0.0,13.22241362,-38.4162112,-47.01805138,41.62204091,0.0,65.66446022,0.0,29.48497627,-77.99514637,-87.52926727,70.37497715
105,0.0,30.66089475,0.0,12.37730159,-38.1468736,-46.6226185,41.73129577,0.0,65.81705581,0.0,27.67657365,-77.37065346,-86.70608867,70.58311267
106,0.0,32.05539744,0.0,4.515355851,-38.37514671,-27.92773331,29.73212674,0.0,68.81051253,0.0,10.99488359,-77.84937543,-51.9489043,49.99288361
107,0.0,31.85973665,0.0,8.579454211,-38.18845258,-27.77077451,25.52003623,0.0,68.39050466,0.0,18.75290498,-77.42623576,-51.6273337,41.91015982
108,0.0,34.27828083,0.0,10.16309073,-38.29382756,-30.64456824,24.49702424,0.0,73.5821815,0.0,21.908378,-77.65870615,-56.98368094,39.15182757
109,0.0,76.99925111,0.0,-9.594512315,-38.50260997,-30.8269652,1.924836377,0.0,165.2875446,0.0,-25.7059882,-78.23873486,-57.43783225,-3.904989287
110,0.0,168.08316,559.479753,-302.6118713,-48.35292803,-33.56032881,-343.0377849,0.0,360.8093898,1058.071792,-661.8898046,-100.4416854,-63.92239521,-592.627297
111,0.0,239.5370886,14.94148409,2.646408515,-48.29534057,-35.02449832,-173.8051423,0.0,514.1932764,166.2261966,48.68151676,-99.3432379,-66.06031202,-563.6974399
112,0.0,266.1450859,0.0,-14.30411546,-51.21884681,-30.5027618,-170.1193618,0.0,571.3103325,0.0,28.61308023,-104.5120937,-57.07048123,-438.3408378
113,0.0,237.1078695,0.0,0.5990822772,-51.20581042,-30.45972107,-156.0414203,0.0,508.9786847,0.0,11.92829545,-104.2429442,-56.85765795,-359.806378
114,3.154590336,39.15036483,110.6510561,43.24989579,-50.91772642,-29.62989963,-115.658281,6.410290763,84.04065727,314.1399219,30.83536916,-105.0007964,-56.02597066,-274.399472
115,3.154590336,99.30212338,0.0,51.28274367,-49.80178278,-28.88923417,-75.04844043,6.410290763,213.163166,0.0,88.12922276,-103.0122527,-54.79180954,-149.8986172
116,8.878799657,112.5975017,0.0,9.453602279,-46.98382666,-24.26762091,-59.67845606,18.04218024,241.7031895,0.0,5.349811312,-97.07705983,-45.97598584,-122.0421354
117,8.878799657,36.44882205,0.0,49.79936577,-45.90016222,-23.66052294,-25.56630232,18.04218024,78.24149214,0.0,76.40512996,-95.35305807,-45.06925342,-32.26649086
118,10.96384173,34.94913841,0.0,30.98984211,-45.22580444,-27.68775619,-3.989261618,22.2790936,75.02225268,0.0,56.90485992,-94.06905948,-52.80607435,-7.331072381
119,10.96384173,34.49928569,0.0,11.26578817,-44.98065405,-27.41567023,15.66740869,22.2790936,74.05659327,0.0,31.42420968,-93.36000508,-52.17585656,17.7759651
120,15.574703,35.76053016,0.0,13.21649221,-47.95835516,-47.12293851,30.52956829,27.60179768,76.76399625,0.0,36.89932818,-99.79551037,-89.91138923,48.44177749
121,15.574703,35.78398477,0.0,7.642858199,-47.79204192,-46.90750907,35.69800502,27.60179768,76.81434421,0.0,23.07558817,-99.27483389,-89.34321441,61.12631823
122,7.173031171,33.72650743,0.0,17.20011465,-50.02999698,-49.59268697,41.5230307,14.28320845,72.3977379,0.0,40.9491653,-104.1653388,-94.67733243,71.21255961
123,7.173031171,64.27465567,0.0,-1.04947818,-50.05283426,-49.55323445,29.20786005,14.28320845,137.9727707,0.0,-2.103013641,-104.2127911,-94.60192631,48.66175199
124,3.439591659,55.54308143,0.0,12.95600635,-51.4035537,-51.22567771,30.69055196,6.989428196,119.2294654,0.0,29.88871973,-107.1724335,-97.929442,48.99426211
125,3.439591659,33.98011023,0.0,21.28952135,-50.94028079,-50.71801514,42.94907269,6.989428196,72.94212481,0.0,51.23821175,-106.0162969,-96.78524735,71.63177946
126,2.450187105,97.31082919,0.0,-17.24184437,-51.64200379,-38.06729227,7.190124134,5.355172718,208.8886293,0.0,-40.03536626,-107.646463,-72.75859185,6.196619116
127,2.450187105,70.87130077,0.0,8.727440784,-51.45208938,-37.89068829,7.293849008,5.355172718,152.1332106,0.0,18.77259147,-107.2228791,-72.40233341,3.364237722
128,0.447679092,103.6083537,0.0,-3.333776248,-53.48381438,-39.26154639,-7.976895799,0.9281215248,222.4069733,0.0,-8.745179717,-111.7810649,-75.24001797,-27.56883219
129,0.447679092,52.91929775,537.747522,-225.1969134,-58.38423595,-42.84996834,-264.6833811,0.9281215248,113.5972189,1029.072672,-481.2095381,-122.6390544,-82.5314199,-457.2180001
130,0.0,62.14801458,192.154142,2.44471229,-58.98409752,-56.8415093,-140.921262,0.0,133.4076966,500.7392585,34.21166891,-123.3207239,-108.9688448,-436.0690553
131,0.0,63.98081833,168.7096095,7.997153466,-58.81007461,-56.69478993,-125.1827167,0.0,137.3420158,412.2709017,23.32679939,-122.7943791,-108.5439263,-341.6014115
132,0.0,62.10042673,148.2737842,6.05335603,-58.3518199,-44.5917862,-113.4839609,0.0,133.3055439,345.3675266,13.80881561,-121.7559876,-85.31519952,-285.410699
133,0.0,62.07502444,138.4787084,5.335953679,-58.23570631,-44.48238716,-103.1715931,0.0,133.2510151,308.8862307,10.02223565,-121.5298464,-85.11719572,-245.5124393
134,0.0,194.7082142,0.0,1.566933497,-57.54854889,-42.43687951,-96.28971932,0.0,417.9630604,0.0,3.776686844,-119.9910094,-81.13222579,-220.616512
135,0.0,137.8161094,42.73492434,6.674424984,-57.40330935,-42.31643612,-87.50571326,0.0,295.8377646,91.67327193,9.124715556,-119.7851197,-80.9674841,-195.8831483
136,0.0,85.86786071,95.95156832,3.658804741,-56.99716154,-47.99299208,-80.48808015,0.0,184.3250116,199.4339781,4.923356354,-118.9472193,-91.83632823,-177.8987985
137,0.0,86.44658141,91.15363906,2.738964334,-56.93756001,-47.93244848,-75.46917632,0.0,185.5673006,188.0733181,3.260221915,-118.8736559,-91.75970333,-166.2674814
138,0.0,82.72687142,105.924106,2.588571564,-59.49347112,-60.85026792,-70.89581,0.0,177.5825252,216.9471089,2.918329207,-124.6222868,-116.87578,-155.9498966
139,0.0,50.05148453,134.2286405,2.441419352,-59.44034435,-60.78951578,-66.49168425,0.0,107.4411356,278.6652869,2.539902824,-124.5649766,-116.8097078,-147.271641
140,0.0,44.56271367,0.0,86.45018519,-60.17137583,-56.87014202,-13.97138102,0.0,95.65887222,0.0,142.4455131,-127.1653227,-110.2043375,-0.7347251642
141,0.0,43.91744252,0.0,33.96289738,-59.43232256,-55.90151732,37.45349997,0.0,94.2737252,0.0,97.41068001,-124.9673527,-107.7787352,41.06168266
142,0.0,36.76770356,0.0,29.72602966,-61.72423611,-58.57464271,53.8051456,0.0,78.92600713,0.0,81.42656859,-129.6713374,-112.8323241,82.15108581
143,0.0,35.88057676,0.0,22.76989489,-61.22874937,-57.97109223,60.54936995,0.0,77.02168976,0.0,61.34253834,-128.2872072,-111.3717553,101.2947344
144,0.0,33.46972284,0.0,22.4505361,-62.04633207,-58.9445287,65.07060184,0.0,71.84652092,0.0,58.11274512,-129.883194,-113.1399457,113.0638737
145,0.0,32.74981684,0.0,20.55434364,-61.59905707,-58.95891331,67.2538099,0.0,70.30116181,0.0,52.21516778,-128.7050134,-112.9552678,119.1439516
146,0.0,31.08154976,0.0,19.11548167,-60.53003259,-57.17287249,67.50587365,0.0,66.72003906,0.0,47.90400903,-126.1704896,-109.272911,120.8193525
147,0.0,31.20809853,0.0,18.64702751,-60.12426195,-56.70896296,66.97809887,0.0,66.99169023,0.0,46.06468662,-125.1310881,-108.2188184,120.2935297
148,0.0,30.94917165,0.0,14.65700546,-59.80531661,-46.24372016,60.44285967,0.0,66.43587457,0.0,37.04683629,-124.2951651,-88.12574988,108.9382041
149,0.0,31.05803905,0.0,16.54320076,-59.44532651,-45.91778605,57.76187275,0.0,66.66957069,0.0,40.39674618,-123.3836548,-87.38894034,103.7062783
150,0.0,30.71210798,0.0,21.50113494,-59.30397876,-55.80130549,62.89204134,0.0,65.92699076,0.0,51.03326946,-122.9589525,-106.085567,112.0842593
151,0.0,30.9046735,0.0,19.11379369,-58.88805101,-55.32295132,64.19253514,0.0,66.34035429,0.0,46.22654123,-121.915899,-105.0205104,114.3695138
152,0.0,30.5898142,0.0,18.3918463,-58.48783326,-54.8686918,64.37486457,0.0,65.66447342,0.0,44.56740933,-120.910282,-104.0058881,114.6842873
153,0.0,30.6609005,0.0,17.8811664,-58.09872823,-54.42834151,63.98500284,0.0,65.81706816,0.0,43.24940987,-119.9344044,-103.0238742,113.8918006
154,0.0,95.42674054,0.0,-4.197492059,-58.1900682,-76.15580845,43.11662817,0.0,204.8442213,0.0,-12.82768965,-120.2238478,-144.2714543,72.47877045
155,0.0,30.77390847,0.0,34.44393908,-57.44054717,-75.1911285,67.41382812,0.0,66.05965247,0.0,80.06501169,-118.4172646,-142.1342293,114.4268297
156,0.0,111.4169365,0.0,-21.12530734,-58.22677669,-54.43019388,22.3653414,0.0,239.1689737,0.0,-48.29014474,-120.2336912,-103.0573407,32.41220295
157,0.0,68.23354723,0.0,16.33578339,-57.87130012,-54.18145544,27.48342495,0.0,146.4709762,0.0,37.05856195,-119.3975035,-102.498685,38.36665029
158,0.0,75.4475514,1093.967775,-500.2292204,-69.73618169,-59.58619476,-539.8637296,0.0,161.9566468,2341.147768,-1208.846523,-148.8542898,-116.6230678,-1028.780535
159,0.0,71.53433629,324.2677589,5.835169099,-69.60920487,-61.72661041,-270.301449,0.0,153.5564908,996.7897939,89.08233185,-146.8442402,-119.3983409,-973.1860355
160,0.0,42.26098604,298.4467903,18.6769741,-67.24360257,-59.0796401,-233.0615077,0.0,90.71795522,824.1378538,61.92018446,-141.0862161,-113.6598487,-722.0299288
161,0.0,186.6022877,124.2911649,15.99918669,-66.89545055,-58.67750045,-201.3196883,0.0,400.5627783,369.4646765,40.6972782,-140.1679246,-112.7351338,-557.8216745
162,2.74186921,70.31666573,210.5878642,15.34081385,-65.58203513,-62.76488595,-170.6402919,5.571620083,150.9426242,500.8079279,32.0510345,-137.2642965,-120.455064,-431.6538461
163,2.74186921,37.42981786,0.0,147.5628499,-62.37097792,-59.63606918,-65.72748986,5.571620083,80.34730986,0.0,260.9166998,-131.3769844,-115.1811379,-100.2775075
164,10.13651599,51.96995807,0.0,63.48591747,-59.03030581,-50.58077125,-15.98131446,20.59792489,111.5593546,0.0,111.4643007,-124.5010491,-97.81805984,-21.30247126
165,10.13651599,91.40432918,0.0,8.420655872,-58.84706722,-50.21457277,-0.8998610489,20.59792489,196.2096633,0.0,17.75956204,-124.1003232,-97.09871452,-13.36811253
166,9.746165431,58.08692619,0.0,18.73984876,-56.48009674,-47.74310704,17.65026338,19.80471237,124.6901141,0.0,44.85062964,-118.7274557,-92.02419506,21.40619469
167,9.746165431,42.48427762,0.0,18.87661338,-56.06933017,-47.32052489,32.28279862,19.80471237,91.1972757,0.0,47.41452785,-117.6575965,-91.04996378,50.29104437
168,104.426971,34.47261788,0.0,-65.81448634,-55.54231335,-53.91930061,36.37651142,152.6688758,73.99934783,0.0,-90.83862503,-115.346415,-102.6738877,82.19070405
169,104.426971,34.5087062,0.0,-53.71704787,-56.71122893,-54.96721302,26.45981262,152.6688758,74.07681545,0.0,-79.39654242,-117.1379148,-104.1040841,73.89285011
170,80.61021008,32.45622633,0.0,-35.86736048,-56.83866447,-41.51209553,21.15168408,138.244584,69.67093678,0.0,-68.1384201,-117.221767,-78.50090712,55.94557336
171,80.61021008,32.59995084,0.0,-32.45509062,-57.54490695,-41.95099006,18.74082671,138.244584,69.9794576,0.0,-59.56671938,-118.5658276,-79.2556951,49.16420046
172,101.5602938,63.97401606,0.0,-61.48794397,-58.55639194,-63.71405047,18.22407652,201.1255162,137.327414,0.0,-142.7744174,-121.0605729,-120.781175,46.16323517
173,101.5602938,33.28883211,0.0,-36.06991421,-59.34129518,-64.46149455,25.02357802,201.1255162,71.45821866,0.0,-86.91123164,-123.0216338,-122.5350859,59.88421648
174,83.89762675,35.00701401,0.0,-23.39474634,-61.15649906,-57.31210251,22.95870716,197.5597226,75.14648917,0.0,-91.29587245,-127.9888696,-109.9794511,56.55798136
175,83.89762675,65.8212292,0.0,-43.84244872,-62.11053737,-58.3469763,14.58110644,197.5597226,141.2926645,0.0,-125.5696437,-130.8222172,-112.6860596,30.22553327
176,7.811308121,81.1910709,0.0,28.0796178,-62.15256784,-48.73420332,-6.195225669,21.00289983,174.2857568,0.0,46.48766971,-131.2268916,-94.34812107,-16.2013137
177,7.811308121,97.43959838,0.0,13.43931079,-61.86012027,-48.20618651,-8.623910515,21.00289983,209.1650468,0.0,28.21087366,-130.5903427,-93.31225781,-34.47621976
178,0.1016742896,92.89123609,0.0,24.11884703,-65.58016952,-42.26220746,-9.269380445,0.3205644658,199.4014761,0.0,54.00334519,-138.8203438,-82.02918142,-32.87586052
179,0.1016742896,95.86370113,0.0,9.845152874,-65.36593301,-41.82112208,1.376526799,0.3205644658,205.7822063,0.0,39.6477935,-137.9257328,-80.91427292,-26.91055849
180,0.0,94.53226763,0.0,8.942239971,-62.88563444,-40.90407586,0.3152027012,0.0,202.9241347,0.0,31.31890236,-132.1313846,-78.805539,-23.30611343
181,0.0,62.92160218,0.0,24.26670319,-62.35757624,-40.48040834,15.64967921,0.0,135.0682893,0.0,61.76359538,-130.7377537,-77.82019176,11.72606078
182,0.0,57.34374955,0.0,25.00750096,-61.81339784,-51.92230533,31.38445266,0.0,123.0948019,0.0,62.71405657,-129.3226767,-99.60511793,43.11893617
183,0.0,187.2957842,0.0,-41.69208344,-62.72064289,-52.74714762,-30.13591021,0.0,402.0514463,0.0,-98.55232482,-131.5464067,-101.4385628,-70.51415203
184,0.0,55.41345536,0.0,46.29983605,-64.32537035,-51.94333012,14.55540906,0.0,118.9512085,0.0,108.646334,-134.9093959,-99.89075853,7.202612019
185,0.0,55.02680914,0.0,27.27201513,-63.73191474,-50.96592029,32.39901075,0.0,118.121229,0.0,69.52064222,-133.3407354,-97.77354679,43.47241105
186,0.0,51.14705401,3.692985048,21.73435967,-65.54467187,-50.00655912,38.97683227,0.0,109.7928986,143.5022312,-14.86583073,-138.7638373,-97.07368126,-2.591780495
187,0.0,50.48899516,57.76507569,-6.522075062,-65.68659619,-50.09650486,14.05110525,0.0,108.3803014,177.5184668,-12.13754244,-139.0377083,-97.22968741,-37.49383007
188,0.0,44.99597074,0.0,36.69607022,-67.50030742,-54.80588142,40.61414788,0.0,96.58890719,0.0,112.5312811,-142.3130377,-105.9501862,39.14303562
189,0.0,44.34648737,0.0,25.35649007,-66.9485348,-53.98667918,51.23223654,0.0,95.19471816,0.0,75.14429319,-140.6174854,-103.9729782,74.25145231
190,0.0,156.1131425,0.0,-29.72848476,-69.55462468,-54.37728692,-2.452746158,0.0,335.1144022,0.0,-64.22549361,-146.4275264,-104.9662953,-19.49508686
191,0.0,301.0911383,0.0,-76.3507653,-71.21606369,-55.90341886,-97.62089043,0.0,646.3259607,0.0,-185.4455221,-150.6119105,-108.4065043,-201.8620237
192,0.0,46.96505313,0.0,96.32635136,-69.4464738,-55.248142,-18.59678869,0.0,100.8157638,0.0,183.8834831,-147.1895822,-107.369312,-30.14035264
193,0.0,32.76539832,0.0,37.78687752,-68.6242084,-53.95442343,52.02635599,0.0,70.3346092,0.0,125.8377844,-144.3501844,-104.0645164,52.24230724
194,0.0,31.08208339,0.0,29.57278604,-69.93986662,-53.95749582,63.242493,0.0,66.72118456,0.0,89.66880432,-146.6877617,-103.7663372,94.06411002
195,0.0,31.20853779,0.0,24.07875247,-69.41589834,-53.21154683,67.34015491,0.0,66.99263315,0.0,68.15231793,-145.149976,-102.0233367,112.0283616
196,0.0,30.94927869,0.0,19.56191802,-67.03103913,-49.79053382,66.31037624,0.0,66.43610434,0.0,52.85925767,-139.5964021,-95.0781396,115.3791797
197,0.0,31.05812941,0.0,19.78195185,-66.60057185,-49.26709858,65.02758917,0.0,66.66976464,0.0,50.69762539,-138.4524633,-93.91075564,114.9958289
198,0.0,30.71213829,0.0,27.05277699,-72.21595699,-55.48567539,69.93671711,0.0,65.92705583,0.0,67.15480484,-150.7465754,-106.2015317,123.8662465
199,0.0,30.90470092,0.0,23.28335455,-71.70929706,-54.82111509,72.34235668,0.0,66.34041315,0.0,58.52628027,-149.4259912,-104.7452083,129.3045061
200,0.0,30.58981884,0.0,22.87872937,-71.86450202,-55.02511165,73.42106546,0.0,65.66448338,0.0,57.23758926,-149.5881049,-105.0217357,131.707768
201,0.0,30.66090484,0.0,21.81359302,-71.38982499,-54.42732839,73.34265551,0.0,65.81707748,0.0,54.44607254,-148.3595863,-103.7126982,131.8091344
202,0.0,63.51972247,0.0,8.407738813,-73.16604749,-56.54832605,57.78691225,0.0,136.3522217,0.0,21.65873088,-152.2317397,-107.8824967,102.1032838
203,0.0,31.31734027,0.0,28.85705625,-72.53810042,-55.97435041,68.33805431,0.0,67.22618989,0.0,69.94290867,-150.6535512,-106.5952559,120.0797086
204,0.0,64.81871745,0.0,10.42858986,-73.94381797,-57.59665914,56.2931698,0.0,139.1406604,0.0,26.97141212,-153.6790195,-109.7603853,97.32733225
205,0.0,66.05518364,0.0,14.02279987,-73.63867333,-57.24757281,50.80826263,0.0,141.794874,0.0,34.5186116,-152.9001432,-108.992003,85.57866059
206,0.0,41.71532086,1064.829241,-469.8145328,-83.53559283,-64.58803962,-488.6063962,0.0,89.54662361,2400.0,-1198.648907,-179.2195909,-127.0578918,-984.6202334
207,0.0,49.05593574,354.2489231,5.577078092,-83.41423223,-69.87874189,-255.5889628,0.0,105.3040783,1135.61345,48.83106605,-178.117769,-136.8194332,-974.8113919
208,0.0,43.40670677,319.5697515,16.20366222,-84.3677507,-71.21780997,-223.5945598,0.0,93.17737352,903.863872,58.52522366,-179.7044486,-139.0934219,-736.7685986
209,0.0,40.09817441,295.1086341,14.47683671,-84.05272594,-70.72273645,-194.9081828,0.0,86.07523704,768.9288707,39.46831212,-178.8138875,-137.9571196,-577.7014128
210,2.049388821,38.95151212,258.4223977,13.65376761,-80.16378167,-65.42148801,-167.4917966,4.164464108,83.61379759,637.2215029,30.43475783,-170.132249,-127.3105763,-457.9916971
211,2.049388821,37.74307837,0.0,158.0181133,-76.72521158,-62.48700298,-58.59836593,4.164464108,81.01975875,0.0,295.5031228,-163.4645304,-122.0705079,-95.15230737
212,6.371318478,37.11453112,0.0,82.70436377,-71.0071544,-54.70248871,-0.4805702526,12.94684876,79.67051145,0.0,162.558089,-151.0748573,-106.7167987,2.616206831
213,6.371318478,35.98927032,0.0,24.94131985,-70.46441614,-53.58160988,56.74411738,12.94684876,77.2550127,0.0,88.64255297,-149.0747309,-103.94068,74.17099653
214,10.31078951,34.49405453,0.0,8.081699783,-62.77836345,-44.09273442,53.98455404,20.9520577,74.04536401,0.0,33.83578006,-131.594632,-84.74826888,87.50969909
215,10.31078951,34.04862624,0.0,10.86555987,-62.54192227,-43.81182824,51.12877488,20.9520577,73.08920212,0.0,31.96948355,-130.873274,-84.06335864,88.92588931
216,102.900959,35.32999144,0.0,-75.10692032,-60.25793446,-40.14622972,37.2801341,149.5259769,75.83979651,0.0,-112.308446,-124.6856766,-76.16978158,87.79813065
217,102.900959,35.35785777,0.0,-56.07756444,-61.47821631,-41.49072062,20.78768465,149.5259769,75.89961471,0.0,-86.039559,-126.6270691,-78.35954285,65.60057932
218,108.50839,33.28963106,0.0,-63.2453242,-58.60958296,-38.05493571,18.11182179,184.4749134,71.45993369,0.0,-115.398891,-119.7823943,-71.31337175,50.55980993
219,108.50839,33.42528178,0.0,-56.26682449,-59.83398323,-39.34999855,13.51713446,184.4749134,71.75112321,0.0,-103.6459386,-122.1210564,-73.64155955,43.18251792
220,81.86327744,224.8165757,0.0,-144.8408171,-59.72050735,-39.40678689,-62.71174181,162.1276344,482.5940415,0.0,-310.9284691,-121.8687318,-73.73529935,-138.1891757
221,81.86327744,267.1690601,0.0,-128.0095598,-62.5060731,-42.61029491,-115.9064098,162.1276344,573.5084081,0.0,-214.8483502,-126.7165599,-79.20659028,-314.8645422
222,75.75970473,35.2982515,0.0,51.46939507,-62.03912781,-42.85098261,-57.63724089,177.8483878,75.77166316,0.0,54.40002193,-126.9427003,-80.39674267,-100.6806298
223,75.75970473,36.86915877,0.0,14.12666665,-61.73172297,-42.34886018,-22.67494701,177.8483878,79.14379213,0.0,-27.89086594,-127.5720285,-80.24618745,-21.28309797
224,4.937600542,113.701983,0.0,24.45786515,-63.81174497,-39.33431006,-39.9513937,12.90765215,244.0740828,0.0,28.92712993,-132.7337981,-75.0218997,-78.15316708
225,4.937600542,79.43645569,0.0,40.55111357,-62.92932812,-38.55688719,-23.43895449,12.90765215,170.5192781,0.0,71.12658879,-131.1289011,-73.66868388,-49.75593404
226,0.0,94.10910809,0.0,33.01005475,-66.12936928,-47.11261285,-13.8771807,0.0,202.0157752,0.0,60.70710609,-138.4808288,-90.46239546,-33.77965699
227,0.0,64.71802365,0.0,31.88623066,-65.43550554,-46.35232683,15.18357807,0.0,138.9245099,0.0,81.67032438,-136.6380234,-88.7493679,4.792557097
228,0.0,156.3173979,0.0,-15.92983998,-70.02703853,-53.17829677,-17.1822226,0.0,335.5528593,0.0,-35.67802261,-146.8915907,-102.2824721,-50.70077385
229,0.0,125.3978833,0.0,10.76631029,-69.79275709,-53.1494139,-13.22202257,0.0,269.1806469,0.0,26.45384192,-146.2946874,-102.1532762,-47.18652517
230,0.0,56.8352286,0.0,39.54008312,-67.95275087,-50.76660839,22.34404755,0.0,122.0032045,0.0,96.29325179,-141.941501,-97.23354515,20.87858984
231,0.0,73.41551601,0.0,17.4709081,-67.5725733,-50.10113287,26.78728205,0.0,157.5946545,0.0,46.478915,-140.8927529,-95.7858511,32.60503454
232,0.0,54.09423005,0.0,26.91891021,-68.29292147,-53.08515894,40.36494014,0.0,116.1193431,0.0,67.76634277,-142.2709164,-101.4026206,59.78785101
233,0.0,106.4461351,0.0,-3.496283668,-68.36900272,-52.92195312,18.34110439,0.0,228.49859,0.0,-5.659761585,-142.398623,-101.0690137,20.62880833
234,0.0,51.28157686,0.0,31.48056674,-67.03090648,-55.20861208,39.47737497,0.0,110.081667,146.1914508,-1.343617338,-140.9753203,-106.4658795,-7.488300671
235,0.0,102.1660243,0.0,-0.9531802272,-67.05164826,-55.13039384,20.96919798,0.0,219.3108512,80.57066635,-11.57647444,-141.2365313,-106.4790823,-40.58942956
236,0.0,43.83389135,0.0,33.39211173,-66.65154563,-53.6108329,43.03637545,0.0,94.0943732,0.0,111.4843203,-139.4478143,-102.8465341,36.71565491
237,0.0,43.19570597,0.0,24.18768296,-66.12520696,-52.82654355,51.56836159,0.0,92.72443658,0.0,74.51501844,-137.766461,-100.9169864,71.44399229
238,0.0,36.05298389,0.0,19.1493656,-65.05544514,-41.39943592,51.25253157,0.0,77.39178105,0.0,55.5683588,-135.0589991,-78.80792945,80.90678871
239,0.0,35.06153914,0.0,19.15358819,-64.63865143,-40.83253637,51.25606047,0.0,75.26353348,0.0,50.76029847,-133.9136461,-77.56655884,85.45637301
240,0.0,42.42532885,0.0,17.78962101,-65.55765848,-44.62427946,49.96698808,0.0,91.07073554,0.0,44.89774909,-135.8078154,-84.76336044,84.60269123
241,0.0,76.91597935,0.0,1.581646149,-65.5232409,-44.40360951,31.42922491,0.0,165.1087924,0.0,4.663494433,-135.7025885,-84.3231178,50.2534195
242,0.0,42.25435046,0.0,24.93190208,-64.00111757,-46.05106427,42.86592929,0.0,90.70371122,0.0,58.96138387,-132.1917566,-87.21518516,69.74184671
243,0.0,42.39437314,0.0,20.04364798,-63.56495562,-45.50549049,46.63242499,0.0,91.00428563,0.0,49.03267502,-131.0853857,-86.0470424,77.09546742
244,0.0,42.14844234,0.0,22.57401693,-66.66556131,-49.24719685,51.19029888,0.0,90.47636753,0.0,55.23599983,-137.8339532,-93.36235695,85.48394276
245,0.0,39.04427952,0.0,21.11284335,-66.20613301,-48.68876399,54.73777412,0.0,83.81293324,0.0,52.11829065,-136.6579585,-92.15121708,92.87795168
246,0.0,41.96572814,0.0,20.08433159,-67.40173576,-50.54736703,55.89904306,0.0,90.08415096,0.0,49.48392187,-139.1754556,-95.70303899,95.31042176
247,0.0,42.1312776,0.0,18.84265231,-66.99170821,-50.04057931,56.05835761,0.0,90.43952148,0.0,46.38499173,-138.1288268,-94.60655308,95.91086668
248,0.0,73.6320407,0.0,5.115487674,-67.53345209,-52.2464979,41.03242162,0.0,158.0594491,0.0,12.69823308,-139.2959245,-98.81258579,67.35082813
249,0.0,41.38176251,0.0,25.74474276,-66.97323086,-51.77111134,51.61783692,0.0,88.83060312,0.0,61.44106263,-137.9095712,-97.74988728,85.38779276
250,0.0,37.10742874,0.0,21.47495094,-65.19980289,-49.68012141,56.29754462,0.0,79.65526539,0.0,52.84939444,-133.80984,-93.48889714,94.79407729
251,0.0,62.84295134,0.0,7.492477064,-65.03676204,-49.38048048,44.08181411,0.0,134.8994564,0.0,18.93921839,-133.3824963,-92.8604665,72.404288
252,0.0,33.77729757,0.0,24.00849841,-62.55514253,-48.57253511,53.34188166,0.0,72.50676465,0.0,57.27081018,-127.7293805,-90.93983839,88.89164402
253,0.0,67.53161111,0.0,4.461875413,-62.45804941,-48.28999242,38.7545553,0.0,144.9641915,0.0,11.05369902,-127.4799653,-90.37457675,61.83665155
254,0.0,107.8259977,0.0,-13.10680729,-62.0902015,-38.52338827,5.89439939,0.0,231.4606199,0.0,-32.02235574,-126.7488963,-72.10762877,-0.5817391801
255,0.0,95.60584567,0.0,5.293710098,-61.97500715,-38.54213213,-0.3824164824,0.0,205.2286906,0.0,9.868760045,-126.526218,-72.14982742,-16.42140517
256,0.0,80.9443063,0.0,16.61276023,-61.2869734,-45.18695683,8.916863706,0.0,173.7560489,0.0,37.73545622,-124.9479469,-84.47139445,-2.072163665
257,0.0,111.7403829,972.9152899,-455.3030159,-71.19464348,-52.34350003,-505.8145134,0.0,239.8632877,2351.459441,-1242.762898,-152.9895907,-103.1366312,-1092.433609
258,3.241871219,157.0098783,197.9013686,7.126199057,-67.44774306,-43.92833654,-253.9032376,6.587650032,337.0393463,811.0667536,98.15824634,-142.7798426,-85.26677836,-1024.805375
259,3.241871219,72.77844931,237.3889903,17.05720924,-67.07656783,-43.48183821,-219.908114,6.587650032,156.2271193,755.0141254,65.55488798,-141.3006652,-83.98793221,-758.0951853
260,7.465748448,70.7199323,195.9890264,17.54754458,-64.73554261,-42.77587127,-184.2108379,15.17078708,151.8082812,565.4532019,48.62783085,-135.8425691,-82.30525741,-562.9122745
261,7.465748448,101.4332602,141.9525888,13.48763115,-64.44204356,-42.4480518,-157.4491333,15.17078708,217.7378907,385.5379838,32.37678792,-135.1120208,-81.60524394,-434.1061849
262,10.29940724,138.6519118,72.84278504,12.94136122,-61.87472169,-41.35535979,-131.5053839,20.92892835,297.6319085,192.9680374,26.8772651,-129.4178934,-79.31375126,-329.6744947
263,10.29940724,35.69767178,160.0907865,9.617392167,-61.66544139,-41.13366539,-112.9061509,20.92892835,76.62906368,353.0160027,18.01818029,-129.011332,-78.90763831,-260.6732046
264,101.5223388,36.6856742,0.0,19.86093522,-59.92713538,-79.96675884,-18.17505396,148.0771849,78.74992189,0.0,63.03921693,-124.6816781,-152.5542229,-12.63042271
265,101.5223388,68.55437146,0.0,-32.64420013,-60.637493,-80.95214834,4.157131244,148.0771849,147.1596615,0.0,-32.67172454,-125.4188814,-153.5273252,16.38108472
266,116.6282984,54.91647457,0.0,-53.49975196,-60.16903009,-72.78100911,14.90501819,198.0166088,117.8843834,0.0,-98.51238266,-124.0076602,-137.5400553,44.15910592
267,116.6282984,35.01286925,0.0,-41.36350939,-61.06912517,-73.79472716,24.58619408,198.0166088,75.15905809,0.0,-73.88241796,-125.6747396,-139.2474485,65.62893918
268,118.9815338,35.49469176,0.0,-59.61779348,-62.03991455,-52.22951673,19.41099917,235.1614916,76.19334425,0.0,-141.3809385,-128.1380424,-98.91417223,57.07831734
269,118.9815338,65.23009356,0.0,-73.13063995,-63.63128168,-53.42517062,5.975464876,235.1614916,140.0237255,0.0,-163.6447322,-131.8305145,-101.4908321,21.7808617
270,130.0149118,36.79554601,0.0,-48.91222657,-65.34870143,-70.56512001,18.0155902,305.9249445,78.98577407,0.0,-159.8012934,-136.8898834,-135.537695,47.31815317
271,130.0149118,96.60367688,0.0,-88.17142192,-67.26736511,-72.51142462,1.331622973,305.9249445,207.3706474,0.0,-220.3779211,-141.8624805,-140.218459,-10.83673127
272,9.399398198,51.36293368,0.0,71.84612519,-70.2753698,-50.22537785,-12.10770941,25.1152929,110.2563086,0.0,123.6226781,-149.2484041,-97.80597541,-11.93989997
273,9.399398198,104.8590902,0.0,19.20311005,-69.85749846,-49.51629377,-14.08780625,25.1152929,225.0918198,0.0,33.45179024,-148.4935995,-96.51136438,-38.65393901
274,0.0,62.97943509,0.0,52.15325415,-70.02873199,-46.45371235,1.349755091,0.0,135.1924342,0.0,106.9211899,-148.9882748,-90.62163104,-2.503718197
275,0.0,93.42791741,0.0,13.14874616,-69.74260729,-46.28231117,9.448254895,0.0,200.5535228,0.0,40.95881013,-148.0640821,-90.0953127,-3.352938103
276,0.0,92.36838429,0.0,12.43796572,-68.8188896,-45.34379923,9.356338825,0.0,198.2791159,0.0,38.40005464,-145.7440051,-88.05146053,-2.883704934
277,0.0,62.80646899,0.0,25.93313194,-68.2545689,-44.5445685,24.05953647,0.0,134.821143,0.0,72.53235744,-144.1073884,-86.23526365,22.98915161
278,0.0,139.7271476,0.0,-14.79562594,-69.22959071,-46.98393686,-8.717994126,0.0,299.940023,0.0,-34.3047433,-146.335059,-91.06293563,-28.23728501
279,0.0,86.9393719,0.0,22.79023065,-68.73366145,-46.7485207,5.752579598,0.0,186.6251308,0.0,53.93816782,-145.1180007,-90.50140036,-4.943897525
280,0.0,54.05853903,0.0,34.10716055,-69.95064893,-48.12095139,29.90590073,0.0,116.0427284,0.0,84.42683084,-147.5738577,-93.08667267,40.19097114
281,0.0,53.9565461,0.0,23.88489982,-69.430899,-47.51974338,39.10919647,0.0,115.8237891,0.0,61.75905859,-146.1803292,-91.7372787,60.33476021
282,0.0,50.36144424,0.0,25.85796602,-71.80698396,-52.24689278,47.83446649,0.0,108.106499,0.0,65.69484151,-151.2392838,-100.9006614,78.33860479
283,0.0,49.76901373,0.0,21.74477298,-71.3338045,-51.61383458,51.43385237,0.0,106.8347803,0.0,55.64632063,-149.9836829,-99.50625269,87.00883465
284,0.0,44.34161763,0.0,23.20096844,-72.78811734,-49.15588707,54.40141834,0.0,95.18426473,0.0,58.90440667,-153.0154266,-94.75145511,93.67821032
285,0.0,73.25665268,0.0,7.641159344,-72.62184107,-48.87889425,40.6029233,0.0,157.2536365,0.0,20.77323103,-152.5467004,-94.14398026,68.66381312
286,0.0,36.02043585,0.0,33.03743998,-72.55598632,-54.46765213,57.96576262,0.0,77.32191302,0.0,80.01120805,-152.1949513,-104.7613944,99.62322455
287,0.0,35.08988961,0.0,25.95961563,-71.99108932,-53.70183499,64.64341907,0.0,75.32439096,0.0,65.12077082,-150.7255692,-103.0938914,113.3742989
288,0.0,32.82179756,0.0,26.75265565,-73.69464529,-55.88602044,70.00621251,0.0,70.45567652,0.0,66.90479808,-154.3036025,-107.294865,124.2379929
289,0.0,32.12484086,0.0,24.01332068,-73.17210085,-55.20409058,72.2380299,0.0,68.95958063,0.0,60.24536097,-152.944229,-105.8021394,129.5414268
290,0.0,30.44901728,0.0,21.39722329,-71.40036428,-51.76797386,71.32209757,0.0,65.36223701,0.0,53.58508786,-148.8278976,-98.94200487,128.8225776
291,0.0,30.63828923,0.0,21.37000925,-70.9353399,-51.1922789,70.11932031,0.0,65.76853053,0.0,52.80295165,-147.6364543,-97.69470706,126.7596792
292,0.0,30.4413656,0.0,19.20838161,-69.86429386,-46.25275924,66.46730588,0.0,65.34581184,0.0,47.5943785,-145.108917,-88.08705536,120.255782
293,0.0,30.61210191,0.0,20.11694013,-69.42653703,-45.82859596,64.52609094,0.0,65.71231651,0.0,49.12552928,-144.0004508,-87.15865503,116.3212601
294,0.0,40.96938056,0.0,15.48526733,-68.43650821,-46.57138069,58.55324101,0.0,87.94537892,0.0,37.50318861,-141.7006106,-88.41757757,104.6696207
295,0.0,41.8454515,0.0,17.16976298,-68.06288374,-46.20665247,55.25432173,0.0,89.82596364,0.0,41.1310905,-140.7725306,-87.6289682,97.4444447
296,0.0,41.53018618,0.0,18.95324502,-66.34432962,-50.33885414,56.19975257,0.0,89.14921121,0.0,44.85428098,-136.8532007,-95.21165059,98.06135914
297,0.0,41.6957174,0.0,18.45649197,-65.94270515,-49.93277058,55.72326636,0.0,89.50454257,0.0,44.19489731,-135.8559892,-94.32641163,96.48296091
298,0.0,43.18465092,0.0,16.57304159,-65.9085957,-46.43813983,52.58904302,0.0,92.70070568,0.0,40.20613723,-135.6755898,-87.65366793,90.42241479
299,0.0,63.35496574,0.0,7.81991879,-65.73842952,-46.14474616,40.70829114,0.0,135.9985529,0.0,18.68120872,-135.2540678,-87.0540322,67.62833842
300,0.0,34.12737518,0.0,26.11716139,-65.49663423,-45.86116319,51.11326084,0.0,73.25824558,0.0,62.14058078,-134.5787407,-86.40485832,85.58477265
301,0.0,65.20251777,0.0,6.920179109,-65.34604693,-45.62943527,38.85278532,0.0,139.9645309,0.0,17.21001723,-134.1904147,-85.91774855,62.93361506
302,0.0,105.0103931,0.0,-3.635954646,-68.03740751,-49.50624474,16.16921384,0.0,225.4166083,0.0,-9.870396575,-140.2276098,-93.55809681,18.23949495
303,0.0,78.07418145,0.0,17.20471489,-67.66302247,-49.27378223,21.65790836,0.0,167.5950034,0.0,39.58904591,-139.3343245,-93.03754499,25.18782019
304,0.0,81.8116698,0.0,15.35024139,-69.28817189,-51.60678353,23.73304425,0.0,175.617942,0.0,37.12834197,-142.8574223,-97.5632183,27.67435657
305,0.0,44.36314686,835.2612143,-358.1912254,-77.08263045,-57.24209459,-387.1084108,0.0,95.23047964,2082.364218,-1020.223869,-165.8777058,-112.9490624,-878.5440605
306,0.8430354316,73.15059196,256.2837985,5.151117296,-73.70523901,-56.34184539,-205.3814588,1.713091611,157.0259653,868.0702321,74.62875973,-156.925686,-109.9923204,-834.5200424
307,0.8430354316,194.9441025,101.673072,12.49284285,-73.43338716,-56.01104207,-180.5086235,1.713091611,418.469421,426.1065784,49.93225014,-155.799017,-108.9633444,-631.4589798
308,1.779707894,70.85159468,195.2891275,11.6165123,-71.2214248,-51.22892911,-157.0865885,3.616458512,152.0909093,552.6809802,34.4620544,-150.6605569,-99.36645763,-492.8233879
309,1.779707894,76.34652996,173.7027577,9.156015574,-71.02218434,-50.94866894,-139.0141578,3.616458512,163.8864053,457.8902173,23.37446877,-150.1331364,-98.75315832,-399.8812551
310,5.342013391,48.86149577,175.351516,10.06442012,-68.51746645,-52.51665897,-118.5853198,10.85524758,104.886691,426.6541413,21.39908958,-144.5626184,-101.5985287,-317.6340224
311,5.342013391,48.11148813,164.9412146,7.105438611,-68.36284779,-52.34856406,-104.7887429,10.85524758,103.2767153,382.8128862,13.79495909,-144.2513496,-101.2838338,-265.2046248
312,18.64798406,79.83676976,91.99219493,12.71616057,-66.78001641,-58.0626136,-78.35047932,30.34156318,171.3785972,225.8669825,19.45546096,-140.9051175,-112.334316,-193.8031704
313,18.64798406,188.2502159,0.0,-8.808260003,-66.9716895,-58.17531041,-72.94294005,30.34156318,404.1002413,0.0,-7.928756963,-141.0840216,-112.3727229,-173.0563031
314,33.9155985,38.38498917,63.83614065,31.46307444,-66.2870339,-68.82714431,-32.48562456,60.84375142,82.39769242,157.2033575,42.17474061,-140.1323927,-133.415203,-69.0719463
315,33.9155985,96.05146789,10.5322112,8.983557397,-66.09154623,-68.49988367,-14.89140509,60.84375142,206.1852687,36.51008404,14.19853476,-139.8120176,-132.8691155,-45.05650579
316,40.64487239,67.18847877,3.25282595,9.248637774,-64.58417026,-59.17219051,3.42154588,80.74891348,144.2276194,6.912067399,17.89013802,-136.5011054,-114.6735745,1.395941646
317,40.64487239,66.51066734,0.0,-4.739666612,-64.68730828,-59.22142172,21.49285688,80.74891348,142.772621,0.0,3.690718408,-136.4178282,-114.516087,23.72166235
318,45.75631666,69.15999743,0.0,-3.109595909,-68.67333498,-76.41991109,33.28652788,106.733671,148.4597057,0.0,-15.59806783,-145.4915023,-148.4539089,54.35010226
319,45.75631666,39.190384,0.0,6.669384933,-68.52820511,-76.24492012,53.15703964,106.733671,84.12656292,0.0,9.590337329,-145.2751063,-148.2068846,93.03141975
320,3.936101259,51.28087572,64.51100679,0.974209459,-70.46618572,-74.4528136,24.21680609,10.12415778,110.0801619,124.3995201,14.28933131,-149.3135425,-144.6555728,35.07594422
321,3.936101259,54.51275965,88.30053746,-5.94348525,-70.59551957,-74.56353421,4.35314066,10.12415778,117.017764,190.2442595,-14.97619976,-149.6514648,-144.9325514,-7.825965264
322,0.0,63.47111902,99.48257257,-6.072707358,-72.36031537,-68.73361545,-15.78705341,0.0,136.247889,219.2700742,-15.59079342,-153.6373047,-133.813841,-52.47602391
323,0.0,64.96297355,105.8857365,-3.159259634,-72.42906278,-68.83608757,-26.42430003,0.0,139.4503223,234.8422764,-9.053933046,-153.8415973,-134.0641666,-77.33290183
324,0.0,92.70760565,79.10781754,-2.781402719,-72.48958779,-60.81271818,-35.73171451,0.0,199.0072927,180.2120293,-7.856328274,-154.0188671,-118.4754398,-98.8686868
325,0.0,67.34675465,109.5637529,-1.79254647,-72.52859469,-60.86306754,-41.72629885,0.0,144.5673763,247.5189682,-5.570675559,-154.1445635,-118.6064771,-113.7646283
326,0.0,85.30208269,91.67122444,-2.266636976,-73.55750809,-52.00211336,-49.14704871,0.0,183.1105055,211.9478286,-6.229771739,-156.4655618,-101.4257829,-130.9372176
327,0.0,115.8672212,64.06687027,-1.202213708,-73.58366899,-52.0385243,-53.1096845,0.0,248.7220099,160.4146356,-2.655209357,-156.5254738,-101.4995649,-148.4563973
328,0.0,85.67489091,100.4972926,-1.12275096,-74.91422073,-53.47692095,-56.65829087,0.0,183.9107803,240.380868,-2.433512139,-159.4876235,-104.3914028,-157.9791098
329,0.0,54.02120336,133.3839368,-0.56382506,-74.92648991,-53.4932262,-58.42159897,0.0,115.9625831,312.6535374,-1.338798047,-159.5178321,-104.4259084,-163.3335821
330,0.0,50.42568656,140.4165379,0.01221957979,-74.599694,-57.9511969,-58.3035531,0.0,108.2444023,328.1365934,-0.1772699198,-158.795022,-113.1091835,-164.2995204
331,0.0,71.5480445,120.0406772,-0.1950699665,-74.60393884,-57.95498427,-58.83472861,0.0,153.5859171,285.1066513,-0.4995870611,-158.8062946,-113.1181691,-166.2685175
332,0.0,68.86462876,0.0,57.68755353,-74.32821265,-56.24589175,4.021922104,0.0,147.8256637,0.0,141.9154805,-157.7845504,-109.4806112,-22.47598261
333,0.0,68.23008342,0.0,32.22784513,-73.62691517,-55.08399006,28.25297669,0.0,146.4635408,0.0,92.51056927,-155.6971463,-106.8083137,23.53134992
334,0.0,39.37616368,0.0,37.56965245,-74.11549672,-55.7591296,52.92881018,0.0,84.52535988,0.0,101.2274144,-156.3202956,-107.8345547,78.40207603
335,0.0,109.1840779,0.0,-5.504345291,-74.23527462,-55.40303677,25.95857879,0.0,234.3758917,0.0,-5.104283067,-156.4354684,-107.0518303,34.21569008
